/**
  ******************************************************************************
  * @file    weights/conv2d.cc
  * @author  Pierre-Emmanuel Novac <penovac@unice.fr>, LEAT, CNRS, Université Côte d'Azur, France
  * @version V2.0
  * @date    24 march 2020
  * @brief   Template generating plain C code for the implementation of Convolutional Neural Networks on MCU
  */

#include <stdint.h>

#define INPUT_CHANNELS     32
#define CONV_FILTERS       64
#define CONV_KERNEL_SIZE_Y 3
#define CONV_KERNEL_SIZE_X 3
#define CONV_GROUPS        1


const int16_t conv2d_8_bias[CONV_FILTERS] = {85, 24, 68, 29, 105, 52, 20, 30, -10, -21, -25, 42, 52, -36, 28, 46, 2, 52, 7, -33, 61, -18, 49, -42, 85, 45, 52, -13, 52, 97, 74, -19, 3, 82, 105, -44, 77, -20, -51, 42, 15, -46, -13, 3, 13, 48, -31, 113, -37, 14, 7, 23, 38, 3, 3, -27, 8, 3, -10, 13, -4, -44, 33, 3}
;


const int16_t conv2d_8_kernel[CONV_FILTERS][CONV_KERNEL_SIZE_Y][CONV_KERNEL_SIZE_X][INPUT_CHANNELS / CONV_GROUPS] = {{{{-39, -29, 44, 23, 69, 27, -147, -45, 2, -52, -7, -25, -50, 23, 3, -10, -18, 0, -64, -55, 30, -22, 12, 62, -20, -32, -7, 46, 20, 27, -3, -5}
, {90, -18, 40, 50, 36, 47, 59, 33, 26, 44, 28, -17, -84, 11, -78, 14, 15, 9, 6, 38, 35, 70, 45, -7, 8, 5, -46, 4, 12, -17, 5, -55}
, {12, -52, -100, -144, -254, 16, 129, -110, -27, -90, -121, 28, 9, -113, 60, -80, -131, -11, -15, 73, 7, 72, 5, -36, -104, 35, -170, -136, -14, -23, -215, -26}
}
, {{-21, 2, 4, 22, 135, -86, -60, 1, 188, -20, -3, 74, 80, -7, 22, 30, -71, -1, 105, -12, -26, -59, -26, 49, 58, 22, 30, 22, -42, -8, -28, 61}
, {35, 105, -14, 4, -40, -89, -214, 83, 46, 53, 10, 120, 57, 30, 62, 73, -115, 17, 29, -90, -124, -167, -145, 71, 37, 81, 1, 126, -75, 16, -7, 51}
, {4, -65, -43, -38, -54, -90, 74, -11, -61, -143, -56, -72, 118, -114, -113, -38, -167, -128, -41, -36, -102, 38, -187, -185, -78, -27, -71, -153, -129, -139, -110, 49}
}
, {{60, 82, 19, -17, 38, 7, 15, 73, 13, 4, 8, 71, 0, 39, 42, 53, 35, -19, 30, 5, 46, 39, 57, -16, 64, 100, 27, -27, 50, -1, 29, 75}
, {94, 136, 2, 35, 39, 29, -121, 50, 139, 53, -8, -22, 83, -5, 41, 5, -75, -29, -58, 10, -4, 27, -16, 36, 45, -235, -120, 70, -37, -11, -83, 98}
, {-24, 20, 22, 23, -22, -129, 29, 9, -29, -100, -10, 11, -40, -10, -50, -105, -58, -72, -191, -160, -75, -63, -44, -3, -7, 11, -4, 6, -91, -76, -11, -12}
}
}
, {{{-102, -7, -49, -45, -105, 2, 23, -89, -140, 32, -41, 30, 61, -36, 56, -37, 40, 40, -5, -43, -52, 59, 20, -17, -9, -33, -19, 14, -25, 38, -38, 52}
, {-87, -63, 3, 20, -87, 7, -10, -12, -47, 75, 44, -5, -80, 11, -6, -46, 60, 18, -2, -72, -20, -84, -18, 53, 0, -11, -58, 65, 16, 46, 11, -28}
, {25, -6, 38, 73, 1, -24, 19, -49, -38, 8, -28, -190, -268, -86, -119, 33, 75, 16, 115, -98, 64, -25, 64, -59, -29, 55, 55, -143, 69, -79, 86, -183}
}
, {{-34, -245, -31, -76, -152, 41, 78, 23, -105, -36, -80, -77, 75, -89, -7, -30, -77, -48, 0, -10, -24, 33, -33, 33, -27, 51, -28, -7, 6, -13, -20, 36}
, {-20, -208, -63, -135, 6, 38, 97, 13, -107, -51, -73, -29, 85, -38, -18, -43, -49, 21, 14, 79, -11, 28, 17, 45, -84, -24, -89, -29, -36, -2, -80, 4}
, {36, 67, 35, 7, 33, -38, -56, 98, 30, 36, 31, -189, 170, 58, 30, -26, -56, 10, -92, 33, -43, -182, 16, 51, 72, -160, -27, 90, -20, 38, -51, -126}
}
, {{-75, 4, 6, 51, -56, 26, 83, -71, 22, -11, 10, 97, -30, 4, -26, 51, 59, 7, 76, 9, 8, 84, 54, -14, 2, 43, 19, -19, 78, 55, 0, 32}
, {-202, -26, 30, -41, -117, 44, 27, -87, -85, 9, -8, 76, -76, -57, 11, 73, 30, -15, 59, -109, 57, 24, 94, -7, -23, 139, 48, -52, 53, -3, 66, 35}
, {23, 27, -22, -20, -35, -17, -155, -45, -82, 3, 10, 112, -50, 12, -19, 48, 30, -34, -14, -101, 19, -39, -129, -61, 85, -10, -61, -12, 8, -49, 3, 44}
}
}
, {{{77, 92, -89, -8, -65, -53, -55, 76, 76, 46, 60, 110, -121, -126, 11, 32, 51, -6, 2, -88, 66, -31, -171, -34, 85, -37, -87, 14, 47, -39, -74, 14}
, {-14, 24, -162, 10, 3, 29, 40, -6, 42, 2, -59, 71, 88, -65, 57, 13, -190, -41, 46, 143, -29, 3, -251, -83, 35, 28, 10, -14, -48, -73, -34, -30}
, {-39, -27, 50, -21, 14, -134, -39, 10, -12, 29, 33, 115, 59, -27, 38, -53, -18, -27, 7, 7, 82, -108, -98, 0, -5, 20, -59, 12, 37, 3, -50, 62}
}
, {{-23, 117, -224, -120, -103, -14, -72, -59, 10, -161, -110, 63, -59, -172, -80, 146, -126, -152, 16, -97, -189, -40, -219, -110, 92, -8, -176, -134, -239, -158, -184, 102}
, {-177, 85, -62, 35, -75, -261, -1, 9, -64, -11, 24, 36, -53, 44, 5, -78, 96, -129, -29, -117, 3, -181, -163, -60, 22, 14, 52, 9, -29, 26, 47, 52}
, {25, 49, -1, 16, -6, 42, -98, -95, 55, 40, 3, 89, -110, -47, 35, 47, 38, -88, 17, -64, 78, 16, -21, -95, 18, 83, -47, 16, 55, 46, 19, 3}
}
, {{91, 118, -42, -103, -24, -155, -74, -233, -30, -21, 35, 57, -16, 40, 45, -29, -4, -228, -24, -101, 65, -117, -91, -125, -75, 35, -51, 15, 9, 39, 18, 53}
, {19, 31, -21, 84, -67, -126, -297, 21, -37, 49, 23, 94, -19, -30, 45, 29, 44, 74, -18, -65, 42, -197, 3, -93, 20, -201, -102, -4, 28, 8, -17, 14}
, {52, 13, -55, 9, -51, -76, 41, -76, 29, -62, -59, -12, -74, -55, -37, 9, -67, -38, -15, -53, -134, -41, 0, -28, -26, -27, -88, -114, -78, -111, 39, -26}
}
}
, {{{36, 69, -45, -9, -9, 21, 42, 12, -12, -43, 24, -39, 86, 16, 16, -23, 40, -36, -15, 43, -38, 57, 36, -29, 12, -72, 22, 1, -19, 10, -29, 16}
, {-10, -126, 39, 63, 88, 77, 7, 29, 19, 85, 28, -22, 3, 32, 45, 3, 40, -43, 39, 41, 40, 0, 100, 38, 50, 1, 62, 42, 15, 31, 41, -3}
, {89, 1, -7, 17, 43, -8, 28, 35, 34, -38, -32, -151, -24, -22, -25, -24, -82, -3, -7, 62, 12, 30, 0, -38, 0, 3, 29, -51, -13, -28, -29, -163}
}
, {{-32, -68, 69, 35, 3, 63, 118, 3, -47, -84, -19, -144, -39, -67, -113, -113, -29, 18, 21, 12, 16, 25, 21, -5, -3, 67, 65, -53, 23, -67, 15, -117}
, {-49, 38, -59, -69, 12, -27, -73, 18, -102, -23, 2, 27, 73, -31, 54, -12, -24, -27, -62, 9, -15, -89, 3, -33, 18, 67, -32, 42, 2, 62, -5, 71}
, {56, 100, 11, 54, 22, -50, -91, 60, 70, 22, 49, 30, -33, -34, -112, 88, -28, -130, -10, -231, -82, -15, -86, -134, 42, -190, -23, -15, -129, -198, -155, 128}
}
, {{21, -85, 44, -35, 21, 23, 41, -46, -72, -14, -57, 45, 2, -17, 34, -37, 77, 46, -26, 2, 13, 74, 83, -45, -83, 34, 1, -17, 49, 21, 88, -38}
, {15, 68, -77, 3, -152, 36, -77, 25, -16, 46, -9, 67, 10, -61, 70, 24, 32, 31, -6, 9, 18, -41, 13, -23, 2, -59, -44, -13, -8, -33, -83, 104}
, {66, -25, -46, -89, 9, -80, -127, -33, -3, -59, -105, 77, -98, -14, -64, -44, -99, -54, -191, -173, -166, 6, -170, -119, -7, -29, -125, -82, -276, -78, 5, 15}
}
}
, {{{-14, -52, 15, -80, -54, 19, -22, 9, -82, -11, -95, 73, 35, -24, 43, 4, -50, 21, -32, 10, 10, -8, 28, 13, -39, -49, -31, -32, -30, 2, -55, 47}
, {-261, -86, -7, 11, -96, -153, 124, 5, -129, 29, 88, 61, -93, 65, 8, -8, 50, 18, 62, -57, 80, -130, -82, -106, 41, -32, -52, 79, 37, -44, 11, 4}
, {41, -7, 14, -17, 42, 60, -88, -28, -17, 63, 30, 39, -111, 26, -160, 53, -16, 13, 27, -55, 57, 33, 7, -11, 94, -179, -77, -3, 34, 5, -105, -35}
}
, {{-56, -287, 24, -23, 32, 9, -62, -4, -118, -15, -7, 54, 104, -4, 37, -1, 18, -16, 11, 0, 38, -23, 14, 11, -29, 14, 41, -18, -24, 1, 27, 60}
, {2, 58, -37, 54, -37, 10, -13, 22, 5, 23, 31, 54, -30, -17, -49, 67, 42, 38, 122, -7, 79, 80, 19, 38, 5, -107, -56, -2, 86, 69, -92, -67}
, {93, -26, -1, 70, 50, -20, -33, -16, -7, -201, -49, -85, 76, -23, -122, -35, -221, 19, -129, -5, -79, 13, 46, 28, 40, -21, 15, 12, -83, -124, -16, -106}
}
, {{25, 29, -31, 42, -19, 38, 36, -32, 16, -11, -37, 21, 83, -30, -24, -43, -59, -13, -31, 102, -83, 2, -14, -4, 21, 13, -28, -53, -17, -48, -34, 18}
, {-134, -45, 36, 20, 62, -83, -30, -40, 32, -27, 49, 42, -15, 26, 31, -93, 38, -24, -42, -47, 18, -115, 38, -21, 37, 51, -12, 60, -36, -8, 60, -12}
, {-49, 6, 10, 48, 52, -63, -2, 68, 9, -107, 56, -3, 76, 77, -57, -8, -26, -19, -14, -102, -29, -126, -134, 50, 51, -63, -38, 34, 6, -32, -57, 50}
}
}
, {{{-22, -57, 4, -22, -11, -15, -75, 100, 19, 39, 52, -78, 26, 18, -21, -25, 32, 11, 12, -29, 51, -45, -61, 68, 58, -58, -43, 59, 22, 78, 22, 4}
, {-58, 58, -33, -2, 30, -124, -68, 53, 21, 7, 67, 27, -27, 1, -25, 80, -33, -42, 24, -118, -11, -157, -33, -14, 66, -70, -26, 5, -55, -30, -49, 31}
, {36, 82, 42, 7, 19, 25, -242, 29, 14, 115, 16, 139, -7, 11, 121, 39, 126, -101, 36, -172, -39, -49, 44, -47, 4, -9, -12, 80, 69, 0, 3, 143}
}
, {{57, -34, 22, -37, -29, 63, -28, 13, -33, -8, 23, 3, -27, -12, 13, 115, -19, -63, -51, -14, -18, 20, -39, -29, 10, -27, -30, 13, 40, 19, 29, -1}
, {42, 43, -29, -67, -101, 101, 16, -50, -49, -18, -15, -113, -21, -83, -22, 44, -17, 35, 17, 29, -12, 15, -13, -28, -14, -125, -80, -52, -8, -66, -80, 18}
, {65, -17, -81, -100, -64, 74, 46, -23, -67, -35, -106, -48, -28, -165, -122, 42, -95, 20, 96, -16, 28, 80, 37, -5, -19, -21, -160, -124, -38, -47, -131, -69}
}
, {{39, 18, 32, 92, -1, -51, -59, 43, 49, 10, 54, 58, -17, 31, -12, 23, 1, 44, 32, -45, -15, -60, 59, 5, 45, 54, 42, 27, -17, 0, 31, 15}
, {4, -21, 29, 58, 5, -108, 107, -64, -39, -7, -13, 106, -193, 72, -8, -63, 27, 32, -109, -94, 5, -104, 124, -16, -87, -1, 5, -1, -1, 52, 39, -74}
, {-74, -16, 14, 75, 49, -19, 114, 2, 74, -38, 8, -150, -159, 82, -53, -192, 8, 5, -179, -97, -112, -128, 132, 63, -93, 45, 19, 61, -35, -39, 8, -154}
}
}
, {{{-92, 38, 2, 25, -26, 2, 3, -42, -61, 52, -58, 126, 29, 16, 32, -22, 85, -34, 64, -50, 9, -4, 19, -48, 41, 53, 2, 29, -16, 10, 36, 98}
, {-41, 23, 13, 55, 33, 78, -33, -58, 27, 27, -26, -32, -90, -26, 35, 58, 49, 51, 83, 13, 26, 38, -40, -21, 18, -38, -17, -10, 42, 25, 74, -68}
, {64, -58, -51, 18, 18, 30, -36, -66, -8, -104, -136, 22, -133, -111, -160, 39, -155, 70, 19, -4, -39, 90, -36, -76, -82, 124, -10, -219, -85, -101, 99, -219}
}
, {{-50, -64, 57, 14, -21, 7, 62, 8, -38, -34, -30, -121, 14, 40, -69, -104, -34, 44, 3, -16, -4, -19, -28, 46, -30, 150, 59, -3, -18, -19, 33, -35}
, {4, -39, -20, -13, 45, -38, 4, -7, 52, -1, -66, -14, -48, -16, 10, -121, 57, 32, -92, 52, -74, -23, -6, -31, -95, 76, 35, -17, -17, -29, 19, -71}
, {-151, 92, 20, 23, 73, -106, -68, 72, 39, 31, 103, -102, 169, 79, 49, -105, -34, 26, -95, 53, -76, -110, 13, 61, 51, -128, 4, 89, -65, 8, -42, 92}
}
, {{-104, -52, 24, -6, -36, -58, -39, -6, 13, 21, 66, -21, -54, 26, -2, -201, 49, 24, -57, -78, -19, -84, -33, 2, -25, 12, -24, 39, 9, 26, 10, -30}
, {-235, -6, 23, -61, 0, -36, -102, -27, -61, -29, 41, -128, -94, 22, -12, 15, 16, 13, -28, -117, 13, -15, -65, -54, -20, -33, -31, 41, 29, 12, 12, -59}
, {-31, 29, -11, -83, -77, 6, -110, -13, -50, 29, -8, 56, -31, -15, 32, 43, 127, -21, 29, -106, 51, -18, -43, -91, -63, -40, 13, 28, 53, 101, 114, -9}
}
}
, {{{-21, -38, -51, -8, -127, -67, 32, -46, -160, 9, 6, 41, 9, 16, 7, -1, -53, -20, 57, 69, -3, -7, -120, -50, -36, -7, -27, -47, -40, 3, -57, -40}
, {31, 114, 4, -76, 32, -3, -17, 58, 51, 15, 57, 76, -85, -3, 41, 31, 17, 4, 71, -5, 45, -12, 10, -16, 4, 37, 33, 44, -11, 23, -6, -19}
, {110, -26, -31, -29, -33, -42, 35, 90, 27, 114, 76, 38, 66, -21, 149, -30, 70, -16, 45, 67, 53, -16, 19, 44, 41, -24, -32, 34, 59, 15, -104, 95}
}
, {{-8, -13, -13, -120, -119, 17, -74, 32, -76, 57, -1, 24, 30, -39, 12, -42, 34, -19, -14, -61, -5, 28, 17, -42, 18, -63, -149, 19, -10, 14, 25, 40}
, {132, 149, -56, 14, 13, 80, 8, 41, 71, 34, 61, -11, 61, 3, 42, 97, 19, 12, -84, 3, -28, 88, -35, -17, 47, -43, -102, 44, 1, 52, -26, 92}
, {-20, 31, -121, -40, -65, -67, -90, -55, -17, -7, -21, 50, 71, -78, 57, 13, -166, -151, -33, -81, -129, -56, -208, -92, 17, -139, -281, -108, -101, -35, -339, 67}
}
, {{83, 111, -5, -67, -136, -1, 76, -51, -88, 21, 21, 100, 73, -27, 65, 88, 74, -32, 79, 37, 0, 48, -6, -60, -34, 66, -24, 50, 6, 13, 44, 21}
, {82, -22, -123, -82, -65, 33, -27, -42, 11, -6, 14, 111, -182, -17, -96, 17, -36, 17, 56, -25, -62, 57, -202, -82, 10, -34, -73, -28, -116, -135, -184, -50}
, {42, 51, -171, -164, -86, -45, -49, -28, -91, -60, 0, 34, -5, -36, 10, 40, 7, -206, -147, -65, -44, 21, -102, -68, -204, -77, -215, 10, -34, 14, -89, 74}
}
}
, {{{8, 55, -88, -14, -27, -16, -24, 77, -32, 40, -34, 107, 4, -6, 85, 42, 73, 13, 99, -43, -20, -16, -74, -101, -24, -7, -42, 20, -1, 12, 59, 19}
, {-42, 107, -16, 7, 26, -62, 11, 40, 70, 37, 44, 139, 21, 1, 31, -6, -19, -36, 101, 62, -9, -71, -172, -111, 4, 41, 56, 11, -55, 52, 33, 22}
, {29, 41, -61, -62, -146, -60, -56, 8, -28, 90, 17, -54, -177, -112, -137, 83, 3, -59, 115, -63, 57, -79, -150, -131, 68, -123, -96, -46, -39, -135, -134, -79}
}
, {{19, 27, -19, -42, 32, -49, -161, -10, -1, 27, -32, 5, -18, -7, -38, 13, -22, -32, 13, -63, -85, -39, -83, -24, 33, 53, 21, 40, 37, 18, -5, 5}
, {118, 49, 53, 66, 12, 1, -316, 29, 98, 100, 2, -106, -7, 80, 40, 44, 6, 20, -31, -32, -58, -85, 0, 2, 52, -59, -58, 10, -39, 31, 3, 76}
, {-132, -10, 15, 17, 47, 4, -45, -42, 42, -197, 0, -154, -129, -29, -169, -100, -44, -8, -85, -233, -61, -25, 20, -41, -56, -19, -43, -81, -21, -37, 49, -147}
}
, {{42, 52, -104, -64, -44, -86, -35, 38, -56, 20, 18, 23, 31, -118, 80, 85, -21, -4, -3, 20, 5, -85, -55, -51, -14, -213, -171, 2, 26, 55, -150, -13}
, {67, -65, -40, -32, -18, 32, -61, 75, 14, -5, 22, -155, 35, -43, -72, -15, -81, 53, -5, 30, 41, 33, 58, 63, 18, -98, -28, 21, -21, -8, -170, -52}
, {58, -54, -7, -159, 55, 13, 64, 1, -80, -123, -44, -87, -20, 35, -9, 37, -81, 37, -7, 43, -49, 49, 102, 38, -148, 14, -35, -68, 37, 26, -94, -92}
}
}
, {{{17, 69, 18, -106, -32, 38, 13, -7, -31, -39, 17, 0, 27, -4, -14, -23, 80, -2, -20, 42, 61, 42, 64, -13, 87, -27, 3, -13, -2, -40, -10, 1}
, {-16, 171, -43, 68, 34, 30, 1, 74, 53, 88, 44, 45, 64, -52, 65, 105, 57, 9, 41, -14, -5, -66, -57, -17, 97, -46, -7, 27, 40, 49, -8, 87}
, {66, 42, -199, -108, -148, -23, -4, -77, 30, -41, 28, -20, -111, -196, -167, 34, 17, 14, 71, -31, 40, -23, -97, -71, -8, -94, -126, -138, -9, -104, -330, -121}
}
, {{6, 125, -16, -10, -8, 8, -3, -68, -9, -51, 21, 39, 33, -11, 49, 155, 38, -57, 50, 73, 51, 78, 19, -102, 68, 57, 34, 7, 1, 0, 37, 16}
, {13, 72, -36, -45, -63, 66, 77, -68, -30, -25, -17, 118, -37, -72, -197, 13, 92, -70, 81, -56, 15, 22, -68, -163, 17, -10, -31, -26, 12, -194, -118, -68}
, {4, -67, -43, 37, -38, -47, -29, -124, -87, 76, -74, 50, -234, -90, 13, -5, 128, -329, -89, -237, -62, -1, -309, -243, -165, 42, 3, -1, -84, 4, 83, -22}
}
, {{5, 37, -5, 30, -101, -13, -105, 29, -2, 102, 44, 153, -100, 20, 8, 37, 44, -8, 32, -104, 7, 11, -18, -49, 32, -53, -10, 16, -5, 39, 37, 112}
, {16, -116, 62, -45, -47, 28, -71, -191, -76, -5, -36, 7, -290, -23, -52, -104, 93, -59, -91, -146, 60, 46, 75, -59, -189, 21, -18, -8, 26, 25, 64, -58}
, {-265, -214, 6, 31, 26, -32, 66, -44, -72, 27, 15, 22, 37, 54, 62, -49, 54, 70, 59, 98, 87, 32, 104, 58, -20, 148, 110, 73, 28, 65, 60, -49}
}
}
, {{{13, 59, -7, -105, -39, 71, -21, 45, -4, -121, -46, -147, -14, -45, -110, 37, -86, 67, 71, 38, 14, 19, 10, 53, 29, -107, -85, -93, 14, 20, -161, -41}
, {23, -142, -89, -132, -23, 20, -26, -11, 22, -56, -105, 58, 10, -8, 26, 25, -59, 41, -32, 2, -30, 22, -43, -1, -38, -18, 20, -15, -63, 36, -75, 68}
, {-111, -35, -17, -33, 36, -37, -4, 61, -60, 29, 16, 42, 20, 42, 50, -76, 99, 51, 1, 33, 38, -33, 10, 26, 2, 16, 19, 28, 14, 21, 9, 7}
}
, {{-31, -51, 62, 28, 101, -47, 17, -10, 123, -50, -96, -49, -149, -95, -88, -138, -156, -24, -171, -91, -219, -63, -120, 8, -31, 97, 100, -87, -197, -142, -13, -114}
, {-67, -150, 17, 23, 92, 28, 66, -192, 68, -204, -218, -130, 37, -164, -108, -265, -179, -121, -173, 61, -94, -2, -26, -52, -154, 113, 21, -219, -158, -171, -47, -55}
, {17, -180, -71, -77, -18, 63, 32, 17, -7, -51, -116, -42, 72, -119, -38, -51, -96, -34, -13, 35, -3, 12, 44, 69, -87, 16, -113, -38, 21, -16, -70, 87}
}
, {{-13, 35, 46, 160, 104, 12, -4, 14, 146, 7, 48, 26, 74, 17, 42, -1, -6, 39, -12, 43, 15, 15, 35, 30, 33, 73, 45, 23, -37, 41, 30, 71}
, {-67, 107, 79, 78, 51, 34, -11, 98, 173, 37, -26, -72, 81, 54, 35, -117, -22, 41, -49, 32, 38, 27, 61, 63, 48, 96, 91, 33, 23, 56, 29, 2}
, {22, -87, 36, 77, 27, -5, 105, -44, -5, -3, 13, -81, -114, 39, -94, 3, 8, 26, -42, -55, -33, 56, 26, -13, -118, 35, 40, -27, -19, 4, 12, -56}
}
}
, {{{-45, 34, 72, -6, 26, -147, -63, 36, 17, 19, 37, -6, 52, 43, 87, -64, 32, -18, -89, 32, 57, -118, 74, 30, 76, 54, 21, 76, 95, 12, 46, -33}
, {-80, 66, 3, 99, 59, -11, -144, -25, 98, -2, 18, 9, 15, 60, -44, -87, 17, 71, -24, -60, -21, -116, 28, 41, 16, -27, -25, 34, 7, 8, -39, 46}
, {3, -46, 1, 19, 25, 54, -17, -36, -25, 28, 19, -51, -77, 26, 4, -13, 57, -36, 36, -83, -13, -36, 42, -61, 24, 13, 13, -1, 36, 37, -3, 4}
}
, {{71, 8, 33, -14, -36, 44, -91, 18, 6, -65, 0, -138, -32, -7, -27, 38, 25, 77, 28, 10, 23, 4, -9, 48, 19, -46, 9, 28, 7, 24, -5, -76}
, {42, -113, 78, -53, 21, 47, 116, -38, 27, -14, -22, -152, 44, -16, -70, -75, -8, 47, 21, 14, 72, 78, 56, 76, -103, 47, -50, -17, 79, -5, -56, -58}
, {10, -70, -16, -106, 35, 75, 71, -58, -86, -130, -57, -100, -5, -41, -4, 4, 16, 16, 60, 33, 43, 19, 89, 46, -162, -9, -14, -50, 70, 46, -103, -101}
}
, {{-33, 0, 61, 33, -11, -32, -33, 25, 74, -62, -57, -177, -52, -41, -143, -113, -104, 8, -56, -77, -65, -68, 81, -55, 26, -45, -44, -49, -18, -93, -3, -167}
, {16, 31, -12, 41, -36, -134, -10, -4, 111, -77, -4, 34, -31, -34, -19, -94, -32, -72, -122, -35, -65, -96, 149, -9, 21, 21, 25, -56, -32, -72, -107, 7}
, {11, 32, 26, 25, 0, 15, -96, -6, 12, 8, -28, -6, 0, -16, 38, -53, 14, -14, -64, -60, 23, 4, 123, 62, -52, 58, 59, 23, 31, 31, 7, 97}
}
}
, {{{56, 122, -61, -12, -58, 24, -57, 61, 183, -9, 74, -62, -49, -94, -36, 36, -99, 6, -5, -1, -5, -37, -60, -40, 47, 20, -123, 24, 37, -50, -120, -76}
, {29, -138, -158, -31, -100, -4, 27, -39, -87, 1, -77, 46, 21, -68, -13, -9, -67, -30, 55, 81, -9, -2, -141, 4, -86, -9, -31, -36, 25, 25, 43, 48}
, {-117, 34, 18, -25, 12, -258, 13, 24, -10, 16, 60, 103, -26, 40, 96, -6, 50, -91, 50, -33, 42, -105, 13, -57, 22, -19, 28, 41, 51, -9, 17, -24}
}
, {{-24, 180, 7, 20, -34, -29, -5, -33, 155, -158, -64, -44, -147, -78, -109, 50, -99, -143, -15, -92, -134, 16, -115, -135, 107, 16, 15, -97, -187, -146, -5, -7}
, {-315, -16, -76, 10, -28, -248, -350, 36, -120, 61, 40, 34, 16, 41, 79, -23, 4, -56, 23, -86, -16, -188, -73, -6, 39, -1, -17, 26, 38, 28, 71, 32}
, {44, 62, -24, 54, -3, 17, -184, 6, 36, 63, -30, 82, -240, -15, -62, 27, 1, 0, 35, -68, 46, 37, -78, -96, 34, -167, -22, 2, -52, -69, 1, -58}
}
, {{-13, 99, 99, 58, 69, -43, -72, -48, 91, -34, 4, 10, -65, 67, 13, 39, 31, 7, 25, -105, -44, -36, 24, 10, 6, -128, -19, 26, 11, 18, -13, -24}
, {3, 23, 1, 92, 40, 55, -161, 6, -42, 8, -22, -18, 68, 34, 37, -25, -65, -27, -64, -21, -41, -46, -87, 32, -2, -140, -178, -19, -13, -37, 4, 38}
, {-8, -6, 49, -23, 12, 17, -168, 3, 27, -55, -51, -186, 3, -7, -91, -89, -72, 76, -190, -85, -33, -30, 53, 71, -119, 74, -55, -13, -13, 12, 79, -42}
}
}
, {{{-7, -108, 79, 44, 139, 20, -27, 62, 25, -66, -93, -22, -11, 1, -61, -7, 12, -18, -16, 21, 10, -36, 123, 11, -83, 39, 57, -2, 33, -11, 43, -146}
, {-114, 14, 30, 63, 43, -199, -44, -53, 79, -5, -6, -2, -21, 26, -53, -51, -55, -121, -128, -40, -126, -247, -66, -16, -77, 46, 25, -49, -111, -68, 28, 19}
, {-23, 74, 78, 51, 98, -30, -95, 8, 77, 29, 18, 47, -21, 53, -17, -101, 3, -82, -137, -231, -18, -213, 37, -37, 6, 36, 28, 49, -47, 6, -15, 98}
}
, {{45, -37, -30, -78, -101, -10, -23, -18, -138, 46, 80, 44, -2, -44, 17, -83, 55, 17, 10, 8, 28, -31, -14, -12, -38, -40, 25, 5, 41, 12, -14, 6}
, {-81, 52, -14, -65, -28, -78, -164, 67, 2, -1, 77, -57, 3, 20, 62, 26, 48, 20, -31, -29, 53, -72, -27, 3, -58, -127, -75, 60, 41, 9, -108, 28}
, {-89, 50, 10, 23, -23, 10, 24, 21, 7, 41, -34, -15, -84, 49, 6, -68, -67, 22, -70, -65, -38, -2, 31, 5, 63, 5, -49, -14, 12, 95, 5, -67}
}
, {{85, 3, 29, -98, 8, 26, 31, -18, -26, -8, -60, -88, -56, 8, -127, 144, 38, 15, 66, -42, -5, 94, -5, -57, -59, -48, 11, -21, -9, -15, 29, -64}
, {61, -48, -78, -112, -58, 33, 35, -13, -106, 11, -113, -6, 33, -53, -19, 64, 3, -2, 67, 45, 72, 13, -11, 23, -29, -197, -175, -30, -9, 89, -120, 2}
, {9, -81, -28, -10, 35, 79, 113, 29, -8, -2, -23, -135, 32, 6, 64, -111, 0, 84, 2, 88, 42, 112, 52, 91, -59, -36, 17, 23, 32, 82, -19, -61}
}
}
, {{{42, 146, -44, 10, 44, 67, 60, 67, 99, 76, 59, 17, -39, 61, 2, 46, 17, 52, -6, -13, 6, -21, 74, 65, 41, 34, -34, 102, 23, 55, -2, -24}
, {26, -1, -269, -97, -177, -9, -15, -12, -8, 25, -22, 35, 88, -96, 60, -22, -69, -19, -29, 74, -40, -43, -47, -37, -34, 5, -42, -111, -13, 3, -136, 80}
, {11, 59, -147, -33, -122, -47, -95, 43, -19, 15, 58, 0, 65, -66, 41, 99, 27, 6, 119, 39, 66, 3, -99, 7, 46, -148, -191, 25, 56, -20, -241, -1}
}
, {{73, 17, -28, -13, 28, -53, -9, -45, -28, 58, -9, 150, -112, -12, -53, 138, 33, -49, 52, -84, -121, -17, -86, -36, 15, 9, 25, -47, -27, -37, 51, -8}
, {-91, -193, 26, 54, -16, -46, 22, -133, -61, 3, -57, 44, -38, 29, -31, -57, -6, -70, -31, -105, -79, -81, -85, -124, -90, 45, 8, -21, -56, -47, 35, -35}
, {-42, -34, 61, 56, -34, 2, -28, -95, 77, 11, -21, -5, -118, 43, 47, -42, 35, -47, -44, -145, 25, -86, 90, -26, -42, 86, -9, 24, 49, 69, 29, -22}
}
, {{12, 52, -14, 47, -14, -2, -52, -36, -27, 33, 56, 63, 31, 11, 77, 45, 9, -52, 44, -11, 28, -91, -44, 21, 20, -66, 30, -10, 11, 23, 37, 25}
, {-43, -108, -42, -51, -118, -12, -116, 10, -166, 31, 42, -37, -53, -65, -2, 9, -69, 40, 19, -13, 38, -42, 33, -15, 47, -174, -48, -52, 15, -65, -148, 66}
, {31, -14, 20, -45, 7, -3, 57, 48, -137, -5, 5, -28, -103, 52, -95, 45, -31, 5, 19, -35, 24, 86, 61, -31, -10, 39, -27, -9, 20, -62, 5, -154}
}
}
, {{{-20, 75, -50, -160, -126, -55, 58, -88, -209, 38, -34, 58, 40, -81, 40, 26, 108, -42, 55, 42, 25, -33, -58, -148, -51, -9, 2, 26, -10, 32, 36, 17}
, {23, 39, -14, -10, -16, 20, 27, 18, -66, 81, 54, 37, -26, 5, 41, -47, 60, -25, 36, -20, 69, 10, -25, 38, 56, -44, -38, 34, 5, -5, -28, -57}
, {23, 24, 10, 11, 85, -39, -53, -18, 24, -4, 15, -17, -17, -12, 34, 55, -17, -8, 83, 74, 96, 15, -33, 2, 23, -8, 32, -56, 71, 20, -46, -11}
}
, {{-1, -156, -59, -61, -105, 19, -39, 105, -116, 79, -16, -73, 31, -17, 54, -27, 20, 2, -20, -32, 30, 65, -15, 9, -34, -89, -49, 12, 20, -2, 23, 36}
, {57, -49, -120, -41, -1, 64, 17, 46, 21, -75, -55, 12, -4, -30, -5, -10, -146, 46, 52, 50, 17, 58, -17, -6, -29, -65, -93, -29, 48, -39, -203, -77}
, {-107, 85, -5, 15, -69, -175, -45, 18, 65, -54, -34, -30, 103, -63, 68, -70, -127, -80, -251, 48, -124, -168, -118, 22, -3, -6, -13, -37, -142, -13, -38, -30}
}
, {{-55, -148, 25, 2, 12, 30, 144, -66, -16, -64, -97, 86, -24, 28, -29, -62, 49, -35, 11, 62, -121, 133, 98, -94, -135, 81, 102, 18, -45, -64, 104, -98}
, {-36, -12, -31, -62, -130, -125, 118, -156, -76, -15, 54, 39, -23, -38, 20, -22, 62, -98, 44, -34, -17, -65, -41, -188, -11, 67, 47, -45, -27, -44, 8, 40}
, {-21, 52, -63, 9, -91, -126, -213, 74, 21, 28, 68, 99, 36, -55, 4, 43, 17, -89, 33, -51, 5, -96, -124, -70, 47, -249, -252, 1, 1, -17, -126, 65}
}
}
, {{{32, 10, 24, -11, -10, -71, 45, -68, -25, -26, -72, -20, 59, -6, 1, 25, 29, -20, 34, -57, -35, 9, 2, -16, -8, 61, 32, -74, -34, -44, -7, 26}
, {-142, -99, 13, 6, 24, -21, 22, 49, 39, 34, 77, 12, -21, 48, 24, -75, 71, 34, -92, -50, 4, 8, -6, 53, 79, -8, 12, 76, -17, 6, 35, 1}
, {-133, 39, 21, 27, -29, -108, -174, 19, -4, 78, 50, -6, 23, 36, 20, 40, 128, -29, 51, -118, 86, -205, -12, 27, 48, -4, 22, 48, 61, 78, 43, 53}
}
, {{-96, -4, -24, -195, -108, 4, 84, -172, -33, -110, -104, -22, -49, -87, -15, -32, 90, -12, 35, 24, 3, 77, 32, -30, -180, 55, 89, -66, 14, -7, 4, -62}
, {-111, 104, -139, -66, -80, -63, -39, 29, -57, 6, 1, 38, -19, -9, 34, 42, 3, -29, 16, 11, 15, -55, -99, -56, 43, 36, -71, 14, 20, 70, 14, -29}
, {-23, 43, -20, 25, -28, -31, -265, 51, -14, 31, 73, 33, -45, 41, 41, 38, -4, -51, 14, -99, -1, -99, -100, -96, 78, -302, -184, 63, -22, -72, -43, -29}
}
, {{7, -55, 50, -15, -57, 20, 70, -129, -50, 7, -75, 51, 1, -16, 43, 25, -14, 76, 49, 61, 18, 68, 99, 19, -91, 66, 62, 21, 41, 43, 50, 0}
, {55, 38, -29, 36, -63, -38, -169, 2, -49, 32, 11, -3, -6, -26, 44, -94, 34, -4, -49, -8, -4, -90, 12, 21, 3, -105, -23, -16, 39, 17, -31, 53}
, {-40, -24, -12, 4, -5, -89, -209, 38, 1, -8, -25, -56, -8, -71, -107, 0, -46, 25, 5, -150, -65, -96, -35, 93, 66, -18, -55, -45, -11, -28, -19, -65}
}
}
, {{{46, 38, 21, 15, -32, -105, -126, -52, 61, -40, 37, 68, 3, -34, 96, -59, 76, -81, 2, -19, 68, -91, 25, 34, -24, -61, -28, 22, 19, 0, 19, 38}
, {-181, 51, -19, 3, -58, -130, -207, 1, -52, 20, 55, 134, -35, 14, 60, 103, 3, -1, 72, -84, 74, -180, -2, -73, 28, -26, -8, 1, 81, 51, 26, 17}
, {87, 35, 37, -2, -32, 51, -29, -25, -8, -7, 16, 44, -172, 11, -73, 61, 32, -10, 78, 37, 78, 18, 31, -106, 9, -41, 65, -54, 66, -74, 2, -53}
}
, {{-26, -10, -12, 15, -11, 29, -37, 53, -54, -32, 16, 12, 25, -12, 24, 38, -36, -4, -18, 26, 30, 10, 7, 69, 31, -137, -69, -42, -2, 10, -51, 53}
, {18, -120, -1, 73, 52, -83, -237, 59, -27, -3, 34, -58, 64, -11, -6, -62, -77, 18, -45, 11, -7, -151, -83, 60, -20, -243, -130, 17, 57, 34, -80, 64}
, {-41, 16, 39, 20, 22, 6, -38, 82, -20, -83, -16, -155, -33, -23, -1, -111, -39, 54, -59, -19, 52, -29, 66, 26, -10, -63, -22, 46, -12, 15, 54, -72}
}
, {{46, 29, -126, 106, 30, -27, -40, 39, 21, 25, -48, 39, 71, -61, 34, -13, -109, -64, -13, 30, -33, -12, -48, 20, 75, -139, -105, -78, -49, -33, -78, 20}
, {47, -122, -75, -36, 49, -61, -4, 57, -104, -26, -114, -37, 64, -26, -26, -199, -144, -57, -184, 56, -60, 3, -90, 67, -96, -57, -142, -72, -78, -50, -58, -46}
, {-59, 8, 26, 88, 45, -42, -112, 29, 66, 12, 22, -73, 145, 52, -1, -39, -73, -4, -52, 50, 14, -97, -68, 50, 14, -41, -45, 72, 0, -26, -68, -6}
}
}
, {{{80, 50, -7, 43, -49, 50, 34, 53, -11, 34, -33, -81, 17, 57, 35, 27, -33, 20, -2, 16, -13, 71, -23, 11, 15, -52, 2, 40, -15, 3, 1, -46}
, {93, 64, 35, 26, 24, 11, 45, 40, -27, 14, 66, -17, 49, 40, -6, 50, 17, 58, 40, 61, 92, 82, 11, 42, 1, -2, 31, 60, 12, 5, 18, -3}
, {-45, -8, 18, 22, 6, 38, -17, 75, 16, -28, 1, -56, -71, 24, -79, -46, -3, -8, -98, -29, 24, -27, 70, 15, -69, 73, 14, -21, -19, -25, 10, -133}
}
, {{15, -38, -8, 71, 58, 51, -10, 77, 40, -10, 2, 35, 2, -8, 50, 68, 1, -5, 36, 4, -59, 4, -39, 11, -29, 23, 39, -16, 26, -35, -12, -54}
, {67, 46, -69, -122, -96, -23, -106, 58, -56, 20, 9, 5, 47, -32, 10, 42, -18, -29, 36, 5, 24, -48, -46, 15, 16, -22, 27, 52, 70, 15, -27, -22}
, {-90, -72, -11, 64, 20, -72, -121, 67, 11, 15, 27, -46, 11, 2, 38, -145, -36, 57, -99, -16, -7, -138, -15, 38, 57, -94, 7, 18, 11, 26, -57, 6}
}
, {{49, 65, -5, 33, 73, 78, 25, -50, 32, 51, 88, 62, 6, -6, 46, 58, 47, 38, 38, 42, 31, 61, 75, 2, 88, 107, 124, 84, 60, -8, 53, 4}
, {163, 74, -126, -122, -239, -26, -56, -166, -5, -150, -181, -7, -54, -240, -48, 52, -120, -68, -38, -1, -44, 23, -89, -137, -18, -142, -155, -272, -77, -48, -192, 30}
, {-205, -53, -128, -7, 33, -37, -109, 76, 23, 16, -76, -11, 100, -31, 66, -228, -98, 32, -220, 75, 21, -138, -125, 132, 25, -140, -236, 32, -31, 87, -197, 89}
}
}
, {{{-12, -8, -24, -36, -83, -77, -16, -65, -48, 1, -25, 36, 8, 18, -9, -31, -31, -24, -27, 1, -38, -45, -36, -67, 3, 34, 83, 1, -6, -79, 24, -21}
, {-172, -42, 68, 10, 37, -9, 30, -60, -15, 6, 11, 13, -102, 26, 17, 3, 83, -1, 136, -1, 56, 37, 49, 41, 21, 58, 40, 19, 105, 35, 35, -109}
, {-12, -53, 38, -2, 116, -29, -4, -11, 67, -144, -31, -222, -80, -2, -78, -134, -18, 54, -78, 131, -12, 76, 71, 95, -106, 86, 102, -53, -31, 28, 7, -191}
}
, {{-106, 38, -6, -44, -119, -77, -32, 68, -33, 81, 35, 31, 58, 2, 39, -125, 37, -18, -63, -53, -32, -89, -14, -17, -55, -43, 3, 56, -30, 18, -21, 13}
, {-91, -45, -17, -42, -38, -26, -76, -69, -152, -4, -10, -50, -118, -10, 36, -68, 23, -3, 55, -21, 3, -2, 4, -41, -80, -97, -32, -14, 8, 10, -13, -69}
, {-132, 76, -19, -68, -14, -70, -57, 50, -45, -43, 19, 63, -42, 20, 32, -5, 44, -40, 26, -42, 24, -143, -28, -5, 71, -15, -32, 16, 18, -20, 2, 102}
}
, {{-49, -174, -10, -137, 29, 84, 29, -3, -106, 13, -140, -99, 97, 7, -23, -83, 8, 40, -48, 30, -5, 35, 9, 74, -46, -143, -26, 33, 61, 39, -55, -4}
, {-78, -152, 61, -25, 0, 71, 78, -40, -69, -138, -41, -182, -6, 54, -115, 31, 7, 69, 78, 15, 35, 105, -5, 4, -75, -18, -1, -45, 12, 33, 9, -36}
, {70, -35, 40, -111, -83, 104, 15, -148, -96, -84, -84, -28, -155, -78, -210, 91, 128, -5, 83, 11, 20, 130, 0, -72, -73, -105, -39, -133, -4, -49, 54, -239}
}
}
, {{{73, 44, -46, 25, 23, 77, -48, 95, 108, -156, -50, -62, -37, -94, -140, 20, -126, -6, -45, -9, 44, 51, 83, -28, 42, -3, -31, -112, -139, -114, -90, -186}
, {0, -45, -52, -90, -80, -7, -28, 40, -23, -72, -66, 31, 15, -61, 8, -251, 5, -26, -78, 6, -25, 22, -22, -8, -132, 5, -29, -13, 0, -51, -48, -24}
, {-92, -40, 16, -39, 87, 7, 10, -39, 36, -6, -40, 63, 7, 7, 40, -121, 47, 15, -172, 15, -88, -55, 4, 22, -109, 86, 67, 6, -21, 83, 63, 70}
}
, {{-23, 59, 12, 18, 75, -17, 10, 67, 94, 34, 8, 8, -137, 21, -20, 46, 21, 11, -1, -54, 5, -13, -55, 28, 45, 24, 66, 59, -4, -73, 54, -78}
, {67, 109, -98, 18, -45, -53, -45, 41, 116, -51, -104, -16, 125, -112, 49, -50, -182, -127, -77, -48, -95, -7, -67, -72, 4, -108, -88, -118, -107, -37, -100, 151}
, {-51, 107, -1, -12, 13, 13, 10, 52, 65, 46, 4, -41, 114, 58, 56, -56, -65, 37, -9, 68, 16, 33, -12, 66, 29, -112, -136, 37, 56, 81, -89, 53}
}
, {{3, 98, 6, 64, 43, -13, 56, 25, 44, 42, 21, -33, -14, 59, -10, 44, 140, 9, 6, 4, -33, -30, 20, -5, 9, 109, 45, 36, 7, 20, 9, -84}
, {-94, 61, 23, 27, 22, -107, 18, -24, 14, -22, 8, 6, -23, -5, -74, -75, -65, -85, -191, -63, -140, -138, -39, -75, -35, 63, 57, -55, -95, -103, 17, -20}
, {35, 47, -4, 17, -12, -54, -119, -72, -29, 7, 75, 49, 23, -28, 63, 51, 35, -106, 61, 1, 26, -15, -198, -109, 26, -8, -18, 9, 41, 12, 32, 109}
}
}
, {{{-20, -42, 60, 14, 61, 75, 75, -37, 33, 30, -14, -74, 69, 30, 2, 6, -9, 58, 42, 76, 42, 93, 37, -19, 29, 30, 26, 27, -58, 36, -12, 17}
, {-31, -75, 19, -50, 45, 44, 14, 10, -116, 45, 72, 8, 0, 49, 24, -54, 82, 52, -2, 29, 63, -1, 79, 34, -50, 1, 87, 7, 28, 86, -8, -36}
, {51, -38, 2, -7, 36, 51, -34, 27, 15, 16, 14, -75, 41, 65, -48, 41, -14, 77, -21, 76, 0, 78, 71, 67, -6, 8, 79, 23, -32, -62, 23, -128}
}
, {{-32, -100, -49, -233, -134, 70, 33, -25, -196, -83, -150, -15, 94, -61, 24, -29, -8, 72, -57, 40, 8, 68, 107, 46, -93, 1, -90, -16, 12, -9, -95, -44}
, {-34, 76, -107, -62, -22, 10, -30, 69, -95, 22, 10, 11, 57, -41, 60, 28, 45, -34, 4, 13, 23, 3, -93, -6, -10, -46, -128, 15, 14, 41, 12, -6}
, {0, 75, -89, 4, -52, 61, -37, -3, 16, -3, -42, 1, 30, -100, -16, 30, -148, 15, 22, -8, 15, 9, -16, -5, 67, -135, -54, -120, -25, -28, -277, 61}
}
, {{12, -41, -141, -26, -167, -152, 4, -103, -157, 45, 12, 26, 69, -26, 63, 61, 53, -234, 45, -10, -32, -53, -107, -249, 28, 23, -25, 62, -16, -14, 55, 36}
, {49, -34, -208, -120, -207, 182, -13, -89, -120, 33, -109, 114, 5, -110, -164, -3, -21, -39, 69, 22, 7, 162, -133, -120, -30, -97, -89, -100, 16, -96, -136, -74}
, {53, -47, -268, -225, -123, 13, -71, -95, -158, -147, -163, 70, -78, -160, -50, 6, -52, -197, -180, -103, -66, 101, -187, -171, -201, -148, -211, -126, -161, -66, -158, -35}
}
}
, {{{30, 146, 42, -38, 1, 22, -23, -3, -12, -26, 53, 101, -13, 80, 36, -70, -10, 30, 12, -46, 31, -23, 42, 25, 52, 13, 27, 29, 40, 49, 13, 71}
, {60, 53, -59, 21, 33, -67, -74, 46, 26, 45, 21, -20, -14, -52, 84, 50, 22, -10, 42, 83, 17, -70, -47, -59, 116, -63, 30, -25, 24, -13, -19, -19}
, {0, -22, -157, -48, -72, -12, 40, 30, -120, 44, -24, 32, 83, 13, 28, -41, -70, 13, 5, 76, 56, -13, 63, -5, -2, 12, -42, 55, -57, 90, -169, 66}
}
, {{6, 145, -28, -16, -24, -13, -31, 27, -26, 18, 35, 43, 22, 40, 7, 60, 50, -55, 72, -39, -22, 20, -100, -83, 46, -37, -52, 20, 33, 1, 44, 4}
, {-37, 44, -33, 29, -39, 15, 62, -78, 4, -19, 17, 118, -158, -11, -87, 41, 13, -144, 90, -122, -36, 24, -32, -132, 38, 22, 2, -36, -67, -113, -6, 66}
, {-70, -72, -57, -29, -93, -71, -72, -69, -92, 60, -36, 101, -61, 18, 55, 52, 18, -170, 100, -149, 93, -105, -145, -150, 17, 121, 22, -52, 15, 18, 19, -10}
}
, {{-38, 50, -34, -2, -99, 28, -129, 0, -3, 28, 54, 71, -96, 8, -43, 24, 43, 70, 20, -62, 37, -65, -49, -13, -3, -83, 29, 8, 53, 50, -7, -7}
, {-102, -23, -22, -28, -87, -89, -19, -101, -97, -15, 39, 64, -93, -8, -34, -4, 31, -20, 23, -65, 9, -66, -40, -125, -70, 2, -49, -19, -32, 1, 71, 39}
, {26, -5, 19, 18, -150, -15, -130, -27, -116, 60, 33, 65, -101, -9, 32, 52, 74, 13, 40, -86, 17, -35, -65, -25, 9, -134, -61, 9, 30, 24, 14, -3}
}
}
, {{{-83, -151, -24, -81, -74, 7, 66, -25, -137, 25, -30, 29, -4, -29, 91, -37, 54, -6, 16, -19, 9, 47, 54, -36, -88, 3, -25, 5, 1, 74, 37, 15}
, {-13, -27, -68, -23, -27, -26, -45, 23, -31, -2, -59, 14, -66, 10, -74, -33, -27, -3, -23, 0, -46, -14, -101, -7, -53, -5, -43, -8, -48, 34, 18, -54}
, {-69, 18, 28, 48, 79, -99, -2, -42, 25, -38, -29, 13, -121, -4, -71, 15, -82, -91, -40, -94, -44, -50, -120, 44, 7, 72, 55, -52, -101, -85, 32, -12}
}
, {{-174, -56, 4, -23, 70, -75, -205, 10, 4, 99, 2, -55, -58, 6, 12, -76, 49, 27, -85, -162, -73, -67, 74, 24, 77, -78, -71, 67, -2, 19, -12, -4}
, {-68, -56, -25, -16, 26, -80, -175, -4, -3, 18, 41, -16, -161, 29, 1, -99, -34, 26, -71, -220, -18, -210, -49, -24, -17, -32, -12, 50, -47, -3, 33, 28}
, {-170, -48, 72, 4, 56, 100, -61, -137, 14, 4, 14, -87, 44, 25, -6, -90, 54, 27, -74, 71, 74, -4, 97, 66, -184, 28, 58, -13, 70, 109, 9, -57}
}
, {{15, -35, -42, -83, -131, -25, 52, 48, -48, 83, 68, -12, -11, 47, 22, 37, 13, -24, -20, 27, -18, -11, -78, 58, -9, -19, -87, 47, 1, 35, -2, -20}
, {2, 2, -45, 10, 9, -5, -105, 38, -34, 48, 17, -45, 19, -16, 25, 8, -102, 60, -27, 10, 46, 2, -50, 85, 44, -136, -110, -3, -42, -2, -191, 77}
, {80, -60, 21, -20, 14, 91, 53, 4, -20, -120, -14, -107, 36, 11, -36, -76, -134, 47, -43, 70, 0, 89, 98, 86, -34, 15, 12, 3, 33, 44, -31, -15}
}
}
, {{{81, 119, -33, 37, -4, 11, 19, 66, 20, 17, 12, 120, 58, 28, 92, 44, -6, 26, -3, -17, 98, 46, 60, 44, 65, -4, 44, 6, -24, 67, -9, 103}
, {109, 20, -50, 13, -28, 55, -40, 93, -31, -25, -45, -49, 5, -17, 7, 22, -76, 35, -53, 7, -5, -20, -22, 48, -1, -104, -105, -30, -5, 8, -147, 29}
, {-7, 20, 38, 5, 17, -132, -21, 50, 7, -26, 24, -55, 97, 10, 19, 13, -82, -48, -24, -3, -52, -73, -33, 7, 17, -8, -22, -63, -17, -90, -18, 0}
}
, {{72, 52, -4, -21, -9, -53, 71, 70, 91, 19, 12, -163, -100, -19, -122, 11, -54, -7, -1, -57, -85, -22, -53, -38, -9, -1, -56, 60, -86, -110, -56, -71}
, {13, -26, -45, -15, -93, -73, 35, -6, -161, -21, -33, 53, 17, 25, 57, -34, -43, -136, -88, -29, -110, -30, -290, -164, -52, 37, 0, 11, -83, -8, 48, 36}
, {-172, -100, 70, 25, 72, -96, -113, 19, -29, -8, -4, -32, -64, 23, -5, -7, 41, 27, 11, -92, 63, -135, -49, 11, -4, -5, 12, 48, 37, 38, 61, -40}
}
, {{-20, 30, -61, -41, -67, -122, -155, -13, -40, 14, 11, 111, -53, 65, -14, 22, -36, -95, -85, -200, -133, -70, -103, -55, 73, -29, -47, 1, -80, -12, 32, 73}
, {-30, -106, -22, 122, -195, -132, -353, -7, -196, 39, 130, 32, -1, 27, 10, -1, 72, 7, 73, -144, 6, -193, -89, -45, 102, -126, -117, 59, 44, 34, 8, 8}
, {-66, -28, 59, 34, -57, 67, -67, -3, -8, 14, 1, -15, -3, 46, 9, -82, -4, 31, -11, -22, 40, -47, 32, 58, 24, -80, -100, 16, 52, 74, 18, 28}
}
}
, {{{55, 77, -6, 30, 67, 2, 3, 72, -28, 70, 11, 7, -60, -27, 29, -7, -81, 66, 10, 15, -19, -16, -2, 67, 38, -33, -39, 38, -65, -44, -42, 122}
, {-135, -117, 72, -17, 54, -157, 10, -224, 9, -80, 8, 50, -169, -60, -22, -209, -7, -188, -221, -134, -32, -198, -71, -113, -165, 70, 71, -3, -37, -67, 28, -65}
, {-188, 44, 15, -19, -46, 31, -19, -16, -64, 66, 46, 43, -51, 35, 76, -7, 93, -10, 56, 12, 118, 58, 66, -43, -27, 99, 75, 51, 117, 88, 79, 8}
}
, {{-103, 21, -34, 18, -29, 19, -65, 101, 1, 11, 2, 73, 15, 2, 49, -143, -46, -46, -96, -87, 4, -86, -8, 8, -56, -35, -153, -24, -9, 6, -87, 41}
, {-36, -79, 38, 67, -154, 100, -56, -50, -82, -26, -28, -80, -49, -65, -129, 57, -13, 51, -13, 0, 14, -9, 11, 32, -3, 94, -42, -94, -14, 10, 9, -12}
, {77, -56, 8, -36, -17, 54, 96, -113, -34, -133, -102, -74, -10, -163, -126, 2, -168, 27, -5, 48, -13, 45, 30, -23, -133, 83, -7, -156, 14, -37, -20, -145}
}
, {{-12, -72, 68, 6, -14, -30, 31, 7, 6, -18, -33, -80, -1, 28, 1, -52, -24, 15, -12, 56, 27, 1, 45, -10, -28, 27, 1, 13, 42, 28, 78, -5}
, {1, 56, 23, 24, 31, -49, 63, 34, 96, -26, 38, -102, -41, 61, 13, 15, 33, 12, -39, 14, 25, 1, 23, -16, 53, -63, -2, 53, 32, 10, -37, -67}
, {32, -58, 31, 26, 85, 3, 69, 79, 35, -108, 88, -59, 2, 17, -11, -53, -20, 21, -51, 31, 18, 79, 18, 13, -81, -53, -50, -8, 6, 2, -71, -41}
}
}
, {{{20, -46, -36, -119, -105, -49, -63, 62, -66, 64, -52, 11, 37, 21, -17, -44, 33, -13, -7, -65, -4, -25, -67, 14, -66, -31, -61, 1, 46, 12, -15, 116}
, {-165, 82, 6, 12, 0, -8, 18, -9, -14, 34, 104, 121, -46, 52, 53, 73, 52, 0, 44, -90, 70, -17, 8, -31, 73, -16, 1, 53, 87, 57, 40, 47}
, {92, 110, 33, 17, 68, -17, -58, 5, 43, 119, 109, -11, -14, 9, -6, 114, 88, -43, 41, -18, 106, 5, 58, 5, 129, -151, 22, 46, 28, 28, -107, 14}
}
, {{127, -108, -1, -17, -45, 0, -41, 16, 1, -28, -14, -18, 28, -16, 13, 94, 30, 28, 59, 12, 16, 89, 64, 4, -53, -34, 40, -36, 23, 18, 37, 72}
, {86, 37, -60, -37, -66, 12, -4, 34, 11, 9, -12, 10, 12, -84, -11, 90, -29, -13, 10, -26, 26, 8, -134, -34, 42, -65, -254, -40, -10, 42, -240, -20}
, {-28, -18, -175, -73, -155, -42, -32, -119, -43, -128, -114, 69, 23, -88, -28, -71, -164, -173, -102, -29, -109, 26, -113, -63, -53, -51, -192, -143, -142, -110, -89, 41}
}
, {{182, -8, -108, -39, -32, -27, 31, -17, -69, 4, -15, 84, 33, -104, -15, -19, -25, -59, 12, 40, -28, 75, -178, -54, -10, -44, -46, -14, -46, -14, -70, 1}
, {-70, -22, 1, 17, -21, -114, -32, 26, -27, 1, 1, 74, -25, 50, -27, -31, -63, -38, -102, -86, -76, -113, -84, -57, -6, 65, -3, 21, -79, -56, 13, -21}
, {30, -8, -34, 3, 38, -50, 128, -45, 60, -49, -62, -41, -73, 33, -43, -61, 1, -95, -150, -120, -65, -90, -4, -38, -91, 38, 71, -16, -53, -13, 17, -7}
}
}
, {{{78, -43, -45, -24, 16, 28, 20, 34, -4, 75, 36, -41, -25, -5, -48, 22, 37, 30, 76, -15, 53, -11, -97, -3, 1, -38, -97, 25, -14, -16, -36, -19}
, {7, -15, 1, 29, 40, 99, 53, -27, 45, -36, 3, 23, -15, -54, -118, 35, -142, -27, 5, 64, -95, 110, -135, -64, -30, 16, 51, -16, -147, -136, 25, -94}
, {56, -70, -58, -37, -57, 15, 64, -33, -57, -75, -152, -18, -95, -57, -153, -69, -63, -79, -6, 44, -108, 19, -176, -100, -85, 77, 62, -98, -188, -239, 23, -203}
}
, {{-27, 40, -33, 3, 64, -100, -56, 113, 113, -48, -64, 16, 25, -6, 13, -80, -78, -18, -108, -4, -156, -99, -134, -17, -13, -41, -110, -38, -83, -3, -81, 51}
, {-87, 44, -2, 33, 2, -143, -132, 71, 112, 64, 20, 97, -7, 46, 79, -49, -57, 2, -94, -147, -144, -195, -104, -14, 103, 18, -45, 15, -118, -8, 14, 121}
, {-48, 33, 9, 62, 76, -101, -12, 78, 64, 64, 26, 25, -104, 28, -28, 3, -11, -100, -13, -123, -73, -191, -101, -74, 54, -30, 51, 27, -66, -26, -49, -4}
}
, {{-2, -28, 75, -66, -24, 55, -176, -20, 17, 51, 22, -45, -31, 24, 35, -103, 2, 5, -19, -71, 38, -60, 83, 12, -3, 77, 57, 30, 64, 85, 65, -6}
, {49, 36, 22, 18, 33, 21, -201, 4, 89, 81, 28, 59, 25, 39, -9, -44, 28, 26, -40, -65, -12, -105, -43, 55, 62, -49, -121, 55, 36, 70, -35, 80}
, {-72, 8, 43, 61, 84, 5, -111, 63, 11, 42, 0, -207, 7, 51, -108, -43, -30, 20, -23, -102, -38, -90, 10, 56, -21, -26, 4, -10, -26, -18, 9, -37}
}
}
, {{{-20, 3, -5, -24, 7, 11, 56, -96, -72, -2, -70, 68, 9, 0, 92, 7, -1, 0, -74, 27, -40, -33, 59, 26, -123, 57, 55, 11, 39, 13, 3, 21}
, {1, 28, 40, 18, 11, -146, -83, -63, 43, -34, 6, 28, 16, 34, 31, 14, -40, 5, -11, -112, 1, -162, -84, -59, 1, 37, 21, -36, -56, -43, 12, 1}
, {66, -29, 1, 37, -79, 63, -32, -60, -12, 44, -95, -1, -52, -55, 30, -15, 24, -2, 45, 28, 76, 56, 57, -76, -51, 10, 63, -50, 19, 65, 43, 9}
}
, {{-43, -12, -70, -52, -144, -14, 12, -25, -248, 4, 27, 19, -27, -81, 27, 16, 20, -4, 3, -38, 33, -27, 7, -65, -17, 35, -61, -48, 13, 17, -28, 0}
, {-106, -130, -17, -1, 110, -1, -125, 74, -101, 6, 30, -28, 84, 3, 44, -63, 20, 17, -25, -13, 31, -26, -20, 33, 14, -180, -72, 60, 52, 67, -39, 40}
, {-83, 22, 23, 37, 54, -142, -246, 60, 43, -13, 23, -106, 112, 47, -10, -130, -19, 20, -171, 15, -144, -244, -35, 59, -26, -191, 29, 38, -10, 37, 1, -16}
}
, {{-55, 96, 18, 22, -71, 56, -45, 0, -5, 37, -38, 46, -15, 76, 31, 34, 47, 34, -8, -41, -31, 6, -12, 69, -1, 53, 3, 37, 43, 12, 50, 9}
, {-79, -56, -28, -48, -45, -25, 40, -92, -94, -17, -70, 39, 14, -37, 10, 49, 83, -29, 40, 42, 43, 63, -64, -63, -43, -48, -24, -64, -14, -32, 62, 22}
, {-66, 58, -91, -9, -77, -33, -53, -6, -15, 50, 49, 66, 59, 43, 106, 15, 46, 13, 9, 37, 28, -53, -91, -58, 36, -39, -161, 56, -4, 32, -18, 98}
}
}
, {{{22, 54, -100, 2, -90, -106, -34, 45, 53, 53, 39, 115, 60, -98, 14, -46, 6, 21, -63, -29, 42, -111, -176, -19, -19, 62, -5, 15, -7, 12, 14, 20}
, {-15, 22, -52, -31, -21, -39, -56, 142, 4, -20, 16, -4, 96, -3, 10, -78, -62, 32, -59, 44, 54, -63, -125, 85, 50, -85, -64, -24, -3, 6, -97, 12}
, {-71, 20, -9, 7, -2, -96, -37, 42, 11, 58, 26, 42, 41, -7, 9, -32, -43, 6, -25, -48, -14, -138, -40, -6, 65, -26, -61, 14, -107, 39, -39, 83}
}
, {{-25, 86, 7, 63, -49, -82, 38, 79, 142, 53, 26, -28, 113, -2, 31, -8, -23, -50, -21, -29, -55, -113, -204, -49, 53, -15, -31, 6, -56, -49, -3, 83}
, {-34, 111, -20, 66, -74, -86, -22, 1, 19, 25, 12, 11, 20, 18, -3, -25, -58, -203, -2, -120, -133, -72, -43, -110, 5, -22, -50, -31, -135, -68, 1, 74}
, {-32, 57, -21, -33, -23, -97, -121, 24, 24, 91, 21, 134, 46, 37, 94, 25, 48, -70, 42, -129, 49, -141, -142, 26, 41, 45, -22, 42, 20, 10, 27, 25}
}
, {{16, 52, 22, 72, -26, -154, -149, 1, 62, 17, 52, -37, -71, 9, 7, 34, 72, -31, 22, -267, -63, -242, -156, -78, 23, -122, -102, 42, -12, -1, 34, -28}
, {-326, -96, 5, 63, -72, -113, -180, 23, -85, -19, 32, 25, 1, 27, -34, 3, -2, -34, 30, -132, -59, -228, -47, -38, 70, -40, -49, 0, -37, 18, 71, 54}
, {-6, 19, 36, 32, -51, -82, -207, -7, 33, 48, 28, -34, -152, 19, -153, -5, -6, -8, 15, -192, -59, -118, -250, -85, 59, -221, -121, -11, -18, -101, 2, -70}
}
}
, {{{1, 20, 44, -4, 123, 2, -14, -25, 35, -45, 33, -18, 82, 58, -11, -21, -43, 85, -33, -31, -5, -87, 75, 29, -100, 5, 55, 27, -13, 20, 16, -72}
, {-9, -7, -19, 15, -53, 5, 82, -44, 12, 0, 53, -124, -30, -45, 6, 53, 3, 35, 52, 60, 15, 56, -76, -102, -26, 26, -13, -24, 10, -8, 2, -42}
, {89, -70, -60, -110, -143, 66, 138, -95, -112, -65, 0, 4, -105, -24, -64, 82, 36, 65, 67, 94, 67, 80, 115, -17, 47, -30, -121, -60, 95, 18, -1, -160}
}
, {{-70, -160, -1, -56, 35, -22, -40, -64, -113, -12, 12, -37, -25, -22, 39, 26, 72, 40, 24, 61, 45, -7, 0, -30, -49, 57, 32, 55, -10, 10, 52, -63}
, {-91, 18, 8, 35, 1, -12, -164, 62, 60, -84, 27, -172, -85, 25, -20, -104, -28, 22, -102, -41, -29, -147, 6, 26, -19, -44, -7, 22, -14, -9, -59, -111}
, {45, -12, 24, 11, 62, -150, 42, -13, 33, -260, -47, -202, -87, -54, -182, -91, -222, 41, -242, -69, -265, -190, -42, 26, -136, -14, -30, -148, -61, -160, -19, -82}
}
, {{9, 23, 25, 24, -82, 42, -14, -2, -10, 6, -74, 55, -75, 17, -58, -69, 62, 58, -27, -26, 37, 53, -11, 35, 25, 16, -52, 38, -6, -6, 45, -66}
, {18, 43, 20, -54, 25, -106, 114, -8, -3, 23, 94, -131, -103, 29, -62, 48, 126, 9, 20, -26, 11, -19, -4, -75, 3, -2, -37, 29, 36, -95, 3, -117}
, {-30, 26, -38, -11, -8, -65, -58, 59, 21, 10, 47, 103, 19, 41, 93, 64, -53, -111, -46, -141, -79, -66, -105, -26, 23, 26, -7, 54, -72, -21, 10, 66}
}
}
, {{{-79, 2, -4, -53, -75, 26, -80, -20, -76, 33, 9, 5, -11, 7, -26, -177, 32, -10, 5, -56, 9, -8, 2, -33, -23, -52, -42, 9, -2, 15, 43, 31}
, {-73, 87, 33, 38, 37, -105, -63, 44, 42, 30, 41, 51, -116, 38, 4, 3, 23, 7, 72, -102, -25, -163, -61, -27, 12, 57, 10, 20, -10, 22, 28, -11}
, {-39, 11, 3, 0, -87, -53, -4, -99, -7, 31, 15, -32, -95, -17, 38, -52, 46, -82, -21, -85, 50, -70, -51, -113, -36, 14, -26, -38, -5, -65, 45, 5}
}
, {{61, -129, -122, -244, -130, -13, -52, 74, -117, 2, -12, 3, 76, -24, 18, 59, -4, 6, -56, 10, -29, 10, -22, -19, -58, -140, -139, 11, -39, 43, -87, 4}
, {-153, 51, -68, 26, -20, -227, -255, 24, 43, 10, 49, 23, 49, 6, -13, -13, -57, 24, -51, -40, -2, -269, -133, 19, 69, -158, -191, 30, -2, 51, -94, 53}
, {3, 75, 17, -11, -36, -8, -69, -5, -2, -5, 37, 5, -120, 21, -24, 42, 56, -74, 61, -71, 11, -39, 20, -64, 39, -158, -66, 9, 7, -7, 62, 48}
}
, {{2, -184, 19, -172, 19, -53, 42, -136, -42, -81, -258, -8, 27, -4, 57, -59, 0, -57, -140, 40, -41, 10, 27, -78, -297, 101, 153, -26, -59, 37, 6, 46}
, {89, -4, 4, 23, 68, -3, -129, 32, 71, 77, 16, -75, 51, 83, -8, -102, -38, 54, -149, -1, -27, -15, -42, 41, 63, -251, -238, 61, -4, 13, -31, 81}
, {-104, -81, 20, 26, 32, -1, -135, 64, -8, 2, -9, -122, -82, 0, -25, -141, 10, 86, -78, -80, 51, 12, 56, 11, -17, 43, 53, -41, 49, 3, 85, -83}
}
}
, {{{-8, 17, -3, -48, -25, -19, -15, -96, 14, -19, -101, 41, 33, -31, 93, -5, -2, -11, -106, -12, 10, -42, 43, -32, -139, 44, 18, 3, -78, 66, 28, 16}
, {54, -144, 33, 39, -29, 2, 26, 25, -57, 22, -66, -75, -31, -13, 11, -26, 6, 62, 81, -22, 19, 54, 121, 17, -24, 61, 68, 1, -2, 6, 16, -72}
, {39, 17, 12, 61, 79, -91, -29, 103, -3, 42, 1, -94, 79, 0, -11, 43, -34, 54, -49, 14, -95, -28, 2, 75, -27, 22, -26, -7, -21, -99, -41, 41}
}
, {{13, 32, 17, 9, -6, 24, -17, -1, -95, 14, 3, 42, -3, 22, 30, -82, 44, 33, -45, -42, 6, 43, 10, 103, -111, 78, 18, 23, 13, 39, 44, -2}
, {-111, -227, 11, -127, -63, 17, 128, -45, -255, -39, -48, -69, -36, 19, 16, -114, 66, 48, -52, 68, 20, -9, 32, -31, -93, 56, 27, -7, 14, 43, -5, -80}
, {-169, -10, -16, -72, 25, -117, -154, -60, -38, 48, 74, -16, -21, 44, 73, 9, 74, -18, 68, -34, 58, -155, 14, -86, -8, -103, 9, 60, 23, 16, 5, -30}
}
, {{38, -67, -21, -102, -30, -58, 66, -17, -108, -22, -146, 29, 39, 29, 93, 22, -46, -4, -39, 89, -49, 28, 49, -45, -117, 6, 35, 56, -43, -2, -11, 38}
, {-199, -105, 8, 31, -108, -34, -134, 22, -107, -6, 60, -26, 25, -38, -17, -48, 10, 12, -1, -80, 39, -55, 39, 26, 53, -147, -36, 24, 39, -3, 6, 14}
, {-38, -2, -14, 30, -42, 19, -93, -35, -18, -43, -54, 27, -162, -82, -89, 17, -14, 14, 15, -75, 23, 3, -51, 21, -3, -169, -281, -83, 62, 8, 23, -84}
}
}
, {{{89, -26, 27, -4, 43, -43, 15, -3, -10, -28, -2, -26, -11, 80, 4, -95, -16, 46, -76, 45, -31, -36, 103, 66, -25, -13, 37, -46, 60, -7, -20, 40}
, {3, 11, 8, -3, -12, -3, 93, -89, -7, -18, -30, 36, 24, 17, 6, 43, -28, -24, 92, 28, -36, -34, 59, 10, -22, -37, -68, -11, 40, -8, 5, 22}
, {108, -18, 16, -32, -7, -47, -80, -23, -19, -19, -6, -27, 31, -10, -26, 23, -35, -10, 3, -14, 14, -73, 18, -27, 40, 17, -50, 32, 2, -10, 32, -81}
}
, {{-84, -56, 33, 19, -6, -87, 60, 41, 20, -35, 6, 31, 79, -16, 64, -117, -71, 4, -72, 18, -20, -78, 15, 56, -4, -2, 5, 45, -59, -51, -34, -9}
, {-74, -241, 61, -22, -18, -39, 5, -44, -156, -7, 62, -6, -99, 82, -34, -70, 92, -11, 69, 26, 54, -38, -42, 9, -82, -18, 51, 20, 76, 32, 71, -158}
, {-80, 15, 29, 22, 51, -30, -20, 2, 21, -8, -23, 38, 6, 39, 60, 64, 16, 2, 52, 31, 42, -71, 69, 20, 11, -50, 80, 32, 54, 81, 63, 1}
}
, {{-101, -30, -166, 14, -67, -10, -130, 19, -99, 57, -56, -5, 64, -10, 64, -125, -126, -29, -82, 11, -27, -154, -101, 36, 73, -217, -301, -27, 15, 32, -136, 33}
, {-143, -80, 55, 79, -26, -151, -296, 5, -41, -95, -5, -72, -25, -22, -79, -154, -46, -6, -119, -136, -10, -233, -5, 7, -27, -200, -169, -1, -90, -7, -7, 67}
, {-53, 8, -13, 70, -8, 27, -77, 86, 23, 42, -18, -20, 6, 11, -13, 27, 4, 39, 36, -34, 44, -94, -110, 15, -4, -36, -94, -4, -6, -39, -36, 31}
}
}
, {{{114, 142, 5, 28, 34, 90, 52, 54, -11, 78, 77, 8, 90, 46, 100, 77, 37, 37, 72, 64, 88, 88, 15, 24, 93, -57, 19, 42, 26, 57, -48, 42}
, {52, 58, 42, -52, 20, 49, 15, -7, 51, -2, 36, 1, 24, -27, 48, 24, 21, 39, -42, 76, -23, 64, 27, 32, -5, -36, 30, 2, 11, 21, -50, 44}
, {136, -3, 7, -8, 10, -72, -45, 14, 29, -41, -18, -54, -19, -76, -103, 67, -76, -35, 70, 0, -6, -15, 52, 24, 18, 31, -29, -29, -17, -61, -52, -28}
}
, {{28, 58, 20, 67, 51, 60, 61, 52, 111, -17, -22, -37, -68, -39, -134, 36, -63, 62, 21, 1, 17, 13, 41, 58, 23, 52, 17, 37, 1, -48, -39, -125}
, {66, 31, -74, -16, -48, -29, 78, -129, -20, -46, -170, 4, 29, -121, -12, 45, -85, -47, 33, -14, -85, 36, -38, -78, -165, 22, -26, -73, -96, -20, -68, 33}
, {-208, -71, 1, 9, 33, -206, -13, -15, -73, -36, -43, -46, 24, -21, 12, -202, -11, -52, -191, -51, -70, -140, -154, -5, -32, 17, 35, 58, -45, -1, -1, -26}
}
, {{98, 7, -93, -84, -90, -26, 127, -53, -58, -40, 9, 41, -55, -20, -79, 3, -55, -61, -66, 13, -29, 120, -50, -63, -9, -28, -116, -66, -50, -74, -107, -90}
, {-122, 7, -46, 14, 7, -100, -164, 31, -113, 75, 83, 103, -28, -45, 126, 5, 71, -45, -100, -150, 37, -134, -16, -51, -58, 12, -19, 54, 7, 80, 44, -12}
, {-43, 66, 2, -26, -59, -82, -62, 18, -71, 50, 28, 6, -18, 35, 38, 19, -5, 24, -31, -12, -35, -111, 0, -40, 4, -71, 23, -7, 10, 18, -31, -61}
}
}
, {{{-22, 58, 9, 28, 43, -24, -1, 13, -63, -41, -16, 44, -80, 21, 4, 21, 40, -1, 27, -2, 41, -18, -68, -6, -16, -36, -68, 7, 50, -29, 6, -14}
, {-32, 91, 23, -55, 50, 63, -89, 10, -44, 34, 28, 37, -22, 58, 49, -21, 63, -29, 51, -31, 0, -83, -49, -23, 18, 75, 49, 82, -14, -12, 59, 51}
, {45, 17, 44, 27, 40, 11, 19, -93, 34, -11, -71, -88, -37, 45, -35, -14, -41, 11, -23, -2, -18, 44, 16, -36, 14, 38, 74, -118, -54, -58, 33, -55}
}
, {{17, -20, -86, -136, -113, 92, -69, 27, -177, 90, 21, 128, 72, -52, 81, -45, 33, -5, -25, -17, 16, 24, 18, 49, -42, -5, -98, -26, -3, 22, -54, 63}
, {11, -121, -20, 13, 95, 38, 28, -10, -53, 26, 4, -6, -38, 101, -18, -81, 35, 33, 53, 4, 8, 64, 43, 1, 20, -11, -9, 36, 9, -25, 36, -14}
, {-69, -145, 32, 3, -1, 36, 8, -40, 75, -23, -11, -224, 27, -10, 37, -155, 18, 37, 6, 107, 40, 45, 22, -22, -61, 52, 71, 28, 24, 36, 80, -226}
}
, {{46, -83, -35, -118, -81, 132, 114, -80, -52, -35, -104, -81, 21, -114, -144, -8, -3, -37, -2, 34, -4, 100, -17, -89, -169, 73, -42, -16, -4, -54, -41, -69}
, {3, -114, -109, -209, -219, -27, 61, -246, -180, -162, -119, 74, -22, -203, -36, 89, 48, -27, 29, 20, -45, -5, -129, -76, -281, 56, -2, -146, -61, -78, 0, -55}
, {-87, -69, -15, -90, -109, -40, -40, -81, -207, 1, 19, 60, -44, -46, 38, -19, 7, -50, 40, -59, 38, -58, -39, -58, -49, 55, -61, 11, 68, 15, 34, 10}
}
}
, {{{27, 27, -134, -28, -112, 10, 54, 7, -104, -36, -7, 104, -18, -25, 50, 125, -3, -146, 20, -61, -46, 54, 90, -131, 33, -58, -131, -15, -88, 0, -32, 129}
, {93, -52, -66, 0, -149, -45, 10, 86, -60, 49, -32, 30, -7, -5, -21, 59, -66, -55, -14, -40, -26, 31, -36, -58, 60, -41, -106, -33, -19, 9, 1, 89}
, {103, -9, -73, -46, -168, -76, -42, 26, -46, 18, 10, 75, -15, -4, 40, 2, -13, -137, 5, -62, -19, -86, -173, 16, 49, -98, -151, 20, 10, -51, -100, 19}
}
, {{35, -93, 0, 89, 13, 0, -67, 14, 38, -39, -24, -60, -53, -16, -58, -43, -4, 68, -50, -2, -45, 51, 37, 31, -72, 36, 26, -45, -42, -9, 19, -28}
, {-14, -96, 12, -51, -49, 2, -3, 62, -144, -39, 32, -36, -31, -29, -20, -53, -4, 27, -46, -17, 21, -29, 55, -65, -7, -17, -74, -51, 4, 25, -38, -33}
, {-80, 32, 24, 34, 61, -72, -214, 2, 6, 7, 73, 31, -105, 16, -24, 63, 29, -44, 50, -193, 60, -145, -13, -34, 73, 51, 57, 56, 16, -35, 59, 28}
}
, {{89, -99, -29, -99, -97, 72, 57, -26, -114, -13, 38, 59, -84, 44, -44, 71, 15, -1, 61, -19, 31, 99, 76, 53, 29, 69, 36, -27, 44, -15, -9, -72}
, {49, -20, 12, 35, -41, -48, -43, -21, -189, 34, -5, 20, 16, -39, 74, -73, -18, -11, -77, 7, 30, -53, 68, 42, 15, -224, -53, -27, 1, 39, -39, 3}
, {-94, 17, 23, 78, -9, -83, -258, 41, 16, 43, -44, -21, 0, 47, -55, -56, -105, 54, -95, -205, -131, -289, -136, 95, 27, -130, -103, -4, 0, 11, -64, -15}
}
}
, {{{29, -6, 33, 29, 50, 54, 54, -82, -19, -42, -43, 3, -9, 24, -20, 23, -2, 43, 47, 88, 5, 83, 47, 7, 9, 7, -2, -19, -25, 71, 64, -10}
, {-1, -65, -52, -40, -49, -4, 64, 17, -108, 44, 38, 15, -45, 52, 39, 39, 90, 72, 58, 1, 52, -52, 15, -42, 46, -27, 30, 11, 12, 42, 26, -14}
, {107, -13, -4, 71, 37, -21, 0, 72, 2, 33, 50, 29, -38, 29, 14, 37, -9, -18, -15, -21, 17, 47, -37, 37, 55, -7, -11, 63, -21, -46, -7, -17}
}
, {{3, -28, -72, -83, -48, 66, -25, -2, -59, -3, -40, 20, 39, -69, 51, 5, 32, 40, -43, 42, 36, 38, 53, -2, -93, 29, -2, 24, 43, 35, -8, -16}
, {-66, 68, -118, -57, -112, 24, 3, 3, -18, 42, 12, 98, 33, -35, 19, 37, 16, 10, 62, 4, 35, -13, -39, -50, -15, -63, -89, 13, 8, 45, 4, 34}
, {5, 8, -12, 24, -23, 84, 0, 25, -46, 27, 21, 17, -35, -17, 42, 59, 29, -25, 58, -13, 78, 13, 36, -10, 12, 86, -19, 39, -9, 21, 41, 3}
}
, {{51, 80, -226, -46, -157, -129, -61, -44, -75, 31, -32, 39, 124, -125, 95, 37, -29, -265, 7, -16, -29, -77, -257, -194, 57, -72, -83, 9, -88, -22, -54, 44}
, {88, -41, -255, -206, -241, 186, -99, 14, -66, -15, -73, 33, 62, -178, -60, 70, -44, -32, 42, 6, -5, 126, -10, 3, 12, -160, -132, -101, -35, -47, -228, 19}
, {14, -15, -218, -203, -114, -47, 11, -76, -169, -171, -204, 94, -21, -204, -49, 57, -204, -8, 9, 7, -67, -31, -126, -179, -136, -1, -44, -230, -128, -125, -140, -46}
}
}
, {{{-8, -126, -93, -194, -47, 101, 16, -7, -253, -4, -83, -108, 97, -31, 23, 88, -4, -29, 23, 40, 4, 73, 44, 43, 5, -17, -167, 74, 17, 37, -19, 29}
, {-48, -50, -159, -63, -133, 113, -82, 62, -109, 37, -25, 62, 49, -67, -21, 109, 38, 60, 58, -7, -16, 54, -22, 10, 39, -114, -221, -23, -23, 12, -101, 86}
, {-29, 77, -114, -19, -97, 40, -21, 20, 26, 14, -5, -67, 1, -66, -108, 78, 66, -8, 50, -16, 56, -9, -133, -50, 3, -46, -158, -1, -23, -111, -77, -21}
}
, {{-84, -117, -10, 3, -60, -90, 26, -98, -26, -23, -18, 3, -121, -25, 23, -82, 72, -101, 51, -123, -35, -51, -31, -41, -37, 63, 28, 5, 23, 6, 41, -88}
, {0, -56, -39, -35, -50, -116, 151, -82, -96, 1, 7, 15, -148, -23, -53, 106, 111, -44, 6, -115, -14, 75, -39, -109, -90, 87, 23, -14, -44, -25, 32, -58}
, {-12, -21, 5, 32, -34, 67, 1, -26, -64, -5, -27, 23, -162, 34, 7, 27, 24, -68, -79, -59, -2, -9, 105, 15, -53, 60, 46, -43, -23, 69, 67, -62}
}
, {{-68, -86, 39, 19, 22, 3, -134, 8, -56, 24, 44, -6, -134, 80, -1, 27, 30, 66, 44, -29, 31, -23, 31, 10, 7, 10, 94, 22, 31, 37, 79, 5}
, {-39, -118, 41, 2, 47, 27, -66, -20, -61, 12, -14, -27, 1, 71, -71, -54, -7, -9, 10, 21, -12, -4, -15, 57, -26, -30, 2, -14, 25, 20, -2, -27}
, {-63, -114, 11, 42, 110, 52, 87, 35, -28, 24, 3, -80, 120, 55, -13, -98, 7, 30, -48, 67, 28, 34, 46, 54, -21, 122, 42, 13, -11, 63, 74, -13}
}
}
, {{{50, -19, -106, 19, -68, -48, -21, 78, -22, 62, 37, 12, 11, -15, 113, -35, 58, -3, -80, -33, -16, 9, -39, 42, 47, -29, -65, 27, 14, -39, -19, -23}
, {-18, -159, -252, -56, -160, -48, 48, -34, -91, -41, -51, 11, 35, -25, 2, -47, -127, -71, -42, 11, -61, -32, -69, -25, -48, -18, -139, -15, 3, 1, -120, 45}
, {-21, 82, 1, 39, -96, -74, -15, 48, 44, 71, 57, 62, 126, -13, 38, 31, -23, -31, 7, 18, 6, -50, -135, -24, 20, -47, -115, -15, 9, -13, -42, -28}
}
, {{5, 10, 6, 98, 36, -12, -66, 60, -31, 35, 36, 2, -52, -25, -99, -40, -18, 12, -5, -19, -2, -12, 24, 51, 62, 51, -7, -14, -12, -11, -4, -79}
, {-104, 7, -1, -18, -56, -18, -32, 10, -140, -19, -42, -17, -59, 46, 11, -128, 12, 6, -153, -48, 17, 29, -2, -3, 39, 36, 24, -15, -10, 13, 35, 52}
, {1, 24, 0, 31, 41, -41, -274, 27, 15, 27, 15, 46, -87, 78, 20, -6, -15, 33, 30, -111, 32, -77, 39, -39, 98, -80, -62, 11, 53, -11, 11, 107}
}
, {{43, 114, -33, -53, 43, 75, 57, -15, 70, -48, -70, 57, 10, -23, 20, 54, -59, 64, 17, 47, 21, 0, 136, 9, 49, -12, -52, -25, -29, -18, -142, 63}
, {-101, -9, -181, 85, -229, -116, -84, 59, -146, 23, 49, 87, 9, -81, 29, 16, -93, -44, -17, 52, -25, -77, 31, -56, 99, -151, -177, -16, -27, 10, -108, 54}
, {71, 15, -61, 37, -59, 2, -108, 31, -33, 62, -27, -30, -43, -59, -61, 32, 33, 16, -35, -53, 83, -21, -8, 54, 50, -150, -180, 48, 40, 0, -18, 46}
}
}
, {{{-16, -14, 43, -11, -2, -191, -32, -33, -68, 7, 32, -3, 24, -2, -3, -81, 67, -50, -16, 17, -2, -70, 25, -67, 44, -27, -2, 87, 14, 54, 48, -2}
, {2, -15, 70, 44, 40, 46, 41, -43, -12, 32, 31, -23, 72, 52, 41, -59, 10, 13, 10, 68, -2, -29, 29, 15, 16, 40, 41, 25, 92, 34, 48, 47}
, {58, 55, 10, 49, -4, 86, -59, -82, 34, -14, -24, -99, -9, 75, 54, 1, -27, 58, 33, 33, 32, -19, 145, 52, -10, 14, -4, 32, 36, -17, 48, -50}
}
, {{54, -6, 11, 37, -67, 24, -100, 66, -54, 33, 13, 51, 29, 9, 23, 53, -89, 26, 34, -7, -1, -27, 20, 44, 55, -130, -11, 76, -7, 13, -3, 40}
, {79, -251, 26, -20, 43, 62, 101, -58, -109, -203, -21, -197, -31, -17, -107, -80, -37, 16, 75, 47, 29, 74, 27, -9, -127, -16, -65, -142, 37, -6, -119, -179}
, {4, -16, 3, -75, -9, -3, 18, -29, 12, -204, -56, -69, 0, -15, -12, -70, -27, 9, -44, 47, -13, -33, 11, 49, -134, 64, 2, 32, 2, 30, -86, -79}
}
, {{-17, 60, -18, 35, 27, 18, 71, 8, 125, -50, -84, -115, 92, -55, -81, -61, -78, 24, -51, 63, -62, 31, 59, 8, 40, -11, 5, -75, -48, -46, -20, -132}
, {15, 16, 0, 31, -15, -41, 11, -62, 12, -96, 33, 15, -21, -11, -37, -60, -107, -97, -94, -17, -37, -87, 35, -1, -60, -42, -22, -99, -29, -76, -43, 36}
, {34, 23, 21, 43, 41, 63, -33, 29, 55, 13, -18, -15, 31, -14, 2, -22, 14, -8, -50, -34, -23, 39, 35, 51, -8, -116, 20, -7, 1, -20, -21, 53}
}
}
, {{{-72, 28, -120, 12, -120, -27, -7, 30, 27, 20, 7, 42, -80, -51, -10, -23, -15, -37, -20, -114, -29, -31, 10, -85, 22, -27, -120, -32, -98, -29, -91, -41}
, {6, -28, -53, -3, -138, 39, 12, -36, 14, 0, -77, -115, -158, -142, -22, 5, -101, -80, -49, -24, -28, -19, -39, -139, -115, -53, -62, -52, -21, -14, -19, -67}
, {45, -143, -44, 44, -118, 161, 11, -58, -41, -147, -76, -230, 36, -171, -164, -8, -195, 46, 20, 46, 64, 79, 14, -25, -93, 31, -55, -245, -2, -64, -14, -40}
}
, {{-62, -215, 27, -34, 50, 70, 58, 12, -207, 22, 72, 30, -14, 48, -7, -28, -1, 60, 77, -8, 98, 23, 49, 21, -90, 40, -18, -18, -3, 8, -29, -11}
, {-7, -149, 19, -14, 41, 36, 137, -7, 35, 5, -21, -109, -6, 16, -7, -74, 54, 49, 0, 122, 67, 174, 6, 13, -64, -16, 56, 28, 46, 50, 3, -148}
, {-170, 0, 25, 60, 28, -78, -78, -17, 69, -144, 36, -326, -137, -4, -156, -223, -65, 73, -128, 12, -71, -157, -3, 20, 2, -27, 45, 11, -26, -87, -48, -194}
}
, {{-26, 112, -74, -25, -47, -9, -14, -12, -5, 72, -41, -15, 36, -12, 62, 35, 3, 26, 49, 27, -10, 74, -6, 42, -20, -34, -33, 14, -1, -13, -63, 25}
, {-130, -151, 18, -51, -79, 99, 68, -6, -194, 54, 36, -6, -65, 59, 7, 97, 78, 20, 93, -64, 19, 86, -21, -53, -9, -1, 31, 43, -13, 20, 50, -69}
, {-12, -1, -48, -23, -38, 18, -23, -3, -7, 8, 44, 7, 8, 51, -10, 42, -2, -47, 25, 31, 28, 65, -19, -37, 68, -112, -28, 73, 21, -8, -67, -20}
}
}
, {{{71, -63, 18, 23, 25, 65, 75, 24, 48, -29, 128, -45, -41, 0, -98, 14, -28, -32, 124, 3, -27, 111, -38, -73, 90, -57, 19, -17, -33, -128, -17, -29}
, {24, -86, -22, -33, -71, 95, 86, -153, -8, -77, -184, 3, -14, -72, -102, 82, 22, -6, -7, 45, 10, 65, 92, -41, -164, 36, 72, -86, -54, -174, 96, -79}
, {-44, -143, 28, 14, 19, -11, 43, 7, 48, -156, -175, -2, -10, -62, -57, -103, -140, -44, -91, 21, -69, -26, 9, -31, -76, 75, 38, -39, -103, -69, 38, -67}
}
, {{-38, -12, -41, -59, -13, -155, -114, 86, -41, 2, -5, 42, 8, -6, -15, -31, -34, 41, -97, -101, -11, -97, -40, -25, -51, 54, 16, 51, -62, -3, -1, 35}
, {-68, -204, 1, 0, -58, -13, -114, -22, -170, 38, 35, 36, -11, 45, 7, -100, 44, 73, -12, -61, 42, -9, 62, -3, -96, 21, 3, -16, 10, 46, -21, 16}
, {-72, -104, 35, -1, 79, 44, 86, -52, 0, -4, 8, -212, -19, 14, -18, -50, -59, 76, -16, 51, 29, -9, 40, 11, -58, 29, 67, 7, 33, 27, -23, -93}
}
, {{-56, -106, 14, -4, 1, 5, -65, 43, -46, 49, -22, -31, 41, 26, -6, -83, -42, 76, -64, -19, -103, -34, -68, 32, 44, -86, 35, -17, -3, -29, -3, -16}
, {-98, -80, -12, -3, 17, 38, 29, 34, 0, 11, -10, -90, 50, 34, -88, -66, -16, 10, -46, 38, 18, 58, -22, 42, -51, 38, 13, 46, 65, 56, 23, 48}
, {-44, -112, 8, -37, -13, 23, -4, -8, -78, -71, 11, -11, -18, 11, 15, -37, 35, 10, 46, 60, 36, 19, -5, -27, -40, 25, 30, 58, 18, 84, 28, -7}
}
}
, {{{-36, -9, 55, 52, 64, 69, -10, 58, 16, -37, -11, -16, -30, -49, -10, 64, -1, 23, 11, 7, -35, -40, 56, 31, 65, 57, 80, 6, 46, 4, -4, -34}
, {55, -2, -57, 25, -30, -44, -30, 8, -50, 5, -5, -11, 8, 59, -59, -77, -83, -71, -70, -38, -39, 26, -33, -49, 2, -22, -67, -4, -33, 6, -33, 116}
, {-47, -33, 110, 62, 17, -19, -11, -30, 30, -44, 11, 64, -31, -22, -1, -6, -39, -25, -47, -25, -19, -133, 152, -45, 13, 63, 36, -3, 59, -59, 48, 33}
}
, {{50, 55, -16, -47, -37, 50, 48, 34, -2, 40, 20, -17, -33, 15, -4, 23, 12, 24, -51, 49, 41, 8, 2, -45, 31, 64, 24, 31, 2, 10, 8, -35}
, {-123, -173, 8, -75, -111, -67, -294, 25, -247, 63, 69, -2, -114, 45, 23, -90, 44, 45, -13, -86, 38, -135, -12, 8, -10, -41, 26, 25, 61, 31, 50, 45}
, {28, -88, 26, -5, 29, 65, 34, -70, -110, 9, 24, -64, -95, -36, -55, 12, 72, 57, 29, 14, 124, 44, 53, -16, -96, -182, -54, -39, 54, 19, -37, -142}
}
, {{26, -61, 21, -84, -52, -12, 24, 0, -17, 35, 54, 54, -2, 26, 10, -17, 15, 14, -29, -34, -28, -10, 5, 60, 82, -90, -79, 6, -18, 27, -8, 2}
, {-1, 44, -5, 46, 22, 25, -109, 5, -14, 19, -76, -89, 40, -49, -53, -55, -100, 55, -46, -13, 16, -44, -50, 99, 50, -172, -99, -38, 22, 24, -95, -5}
, {8, -13, 16, 48, 94, 69, 17, 41, 64, -187, -36, -175, 87, -12, -66, -86, -152, 38, -63, 97, -4, 13, 44, 64, -65, -5, 2, -49, -20, -29, 8, -57}
}
}
, {{{-57, 11, -36, 71, -43, 52, 26, 3, 68, 6, 62, 1, 31, -40, -15, -56, 18, 4, -55, -10, 8, -17, -69, -16, 48, 6, 13, 33, 27, 28, 12, 43}
, {-56, 78, -154, -57, -153, 63, -91, 70, -24, -74, -51, 9, -7, -118, -9, 28, -83, 0, 61, 35, -8, -52, -97, 24, -13, -55, -109, -94, -55, 35, -137, 31}
, {-111, 34, -23, 56, 25, -87, 38, 10, 5, 17, 30, 61, -35, -17, -62, -64, -24, 60, -31, 68, -108, -101, -162, -19, 83, -1, -60, 25, -142, -34, 25, 72}
}
, {{-10, 65, 24, 57, 58, -78, -105, 49, 44, 36, 124, -41, -81, 9, -37, 49, 6, -13, 65, -120, 21, -79, -104, -47, 45, -129, -15, 26, -30, -144, -31, -35}
, {-54, -49, -74, -20, -88, -141, -32, -33, -127, 7, -70, -37, 8, 13, -58, -84, -71, -191, -232, -129, -162, -55, -59, -43, 1, -70, -100, -52, -108, 5, -24, 78}
, {1, 23, -12, 38, -17, -2, -68, 93, 13, 125, 44, 130, 76, -18, 144, 86, 50, -9, 66, -5, 51, -35, -41, 2, 111, -109, -2, 45, 18, 23, 34, 99}
}
, {{-144, 71, -17, 14, -52, 26, -116, 33, 31, -18, 35, 59, -15, 79, -83, 17, -3, -16, 38, -92, 53, -145, -19, 28, 105, 16, 47, -10, 6, -57, 13, -5}
, {-163, -119, 62, 133, -4, 51, -63, -51, 12, -6, 17, -71, -14, 75, -15, 61, 37, 3, 21, -55, -25, 58, 33, -17, -32, 104, 100, 11, -10, 8, 81, -24}
, {43, 20, 18, 6, 45, 38, 88, -53, 41, -80, 24, -101, 17, 3, -114, 23, 18, -2, 25, 37, -51, 90, 32, -26, 52, 30, 26, -2, -52, -117, 27, -131}
}
}
, {{{70, 129, -87, 49, -14, 18, -10, 12, 38, 23, -56, 46, 6, -6, 6, 17, -48, 0, 16, -24, 14, -46, -135, -24, 39, 53, 17, 8, -76, 0, -17, -10}
, {-11, -36, -93, -32, -133, -74, -89, -35, 25, -57, -83, -40, -12, -143, -63, -34, -18, -34, -17, -85, -68, -70, -119, -148, 26, 7, -86, -80, -168, -20, -84, 45}
, {-58, -36, -82, 15, -7, -159, 21, -12, -61, 3, 11, 139, -3, -26, 28, -36, -47, -73, -126, -98, -76, -95, -218, -170, -38, 65, -22, -12, -161, 12, 7, 74}
}
, {{-16, 101, 18, 28, 57, -62, -8, 45, 50, 75, 49, 101, 113, 34, 80, 66, 39, 27, 2, -17, -21, 46, -19, 53, 24, 40, -24, 15, 53, 17, 4, 107}
, {-27, 115, 5, -71, -51, -71, -67, -200, 20, -112, -59, 77, 49, -21, -33, 104, -110, -216, -46, -145, -205, -28, -71, -172, 49, -87, -24, -146, -148, -97, -26, 113}
, {-140, -9, -81, 11, -58, -295, -124, 52, -40, 44, 75, 106, -26, -23, 59, 89, 75, -91, 11, -111, 28, -261, -190, -102, 65, -50, -75, 32, 14, 55, 0, 69}
}
, {{41, 66, 41, 63, 17, -9, -14, 45, 42, 23, 68, -63, 53, 32, 18, -15, 77, 43, 38, -3, -1, -67, -31, -29, -6, -14, -41, 24, 50, 34, 69, -48}
, {56, 10, 99, 11, -31, -147, 35, -108, 39, 21, 5, -26, -13, -61, 8, -106, 17, -35, -115, -41, 15, -117, -55, -198, -105, 30, -30, -38, -34, -38, 21, -56}
, {3, 16, -47, -7, -83, 61, -280, 60, -14, 100, 63, 87, 44, 33, 69, 67, 71, -28, 23, -61, 16, -80, -63, 3, 34, -180, -136, 101, 29, 65, 41, 74}
}
}
, {{{-85, -18, -14, -2, -104, 52, -1, -50, -86, 107, 37, 17, 41, -34, 61, 16, 153, -27, 24, -82, 22, -111, 53, 50, -4, -74, -70, 36, 53, 68, 3, -4}
, {-118, 3, -47, -13, 18, 2, -155, -7, -42, -24, 3, 20, -39, -60, 20, -74, -14, 16, -21, -85, 40, -151, -32, -22, 6, -66, -37, -11, -43, 43, -56, 27}
, {33, -16, -30, 6, -66, -25, -35, 7, -14, -42, 4, -62, -145, -40, -62, 72, -48, -53, 60, -38, 20, -28, -34, -35, 53, 26, 19, -57, -39, -86, 52, -53}
}
, {{-20, -130, -17, -74, 8, 63, -1, -43, -101, 19, -76, 3, 60, -23, 33, -104, -67, 34, -99, 85, -2, 57, 34, 55, -172, 40, -51, -1, 28, 41, -19, -14}
, {2, -92, 26, 64, 28, 58, -15, 17, 6, -27, 38, -140, 68, 28, -1, -156, 23, 35, -71, 33, -9, 16, 50, 48, 22, -40, -50, 60, 0, 32, 39, 29}
, {-128, -23, 6, -20, 7, -13, -16, 13, 38, -72, -7, -188, -79, 29, -101, -123, -60, 31, -50, 33, -35, -18, 23, 67, 78, -59, 61, 42, -33, -48, 7, -88}
}
, {{39, 33, 18, -57, -101, 27, 61, -198, -118, -62, -23, 36, -77, 21, -46, -1, 50, -7, 31, -12, 33, 39, 27, -96, -84, 42, 73, -25, -2, 26, 5, -35}
, {-60, -120, 19, -102, -39, -17, 47, -25, -215, 22, -9, -47, -34, 16, 43, -50, 53, 59, 36, 45, 47, -17, 7, 17, -44, -9, 48, 49, 47, 83, 57, -57}
, {-47, -42, -13, 17, 62, -16, 12, -6, 45, 60, 44, -67, -10, 2, 8, -19, 11, 29, -44, -5, 41, -53, -48, -8, 13, -22, 22, 20, -5, 1, -39, -69}
}
}
, {{{71, -60, 15, 32, 91, -63, 2, -33, -48, 5, -5, -18, -137, 18, -79, 67, -56, 82, 23, -20, 24, -62, 30, 49, -50, 73, 63, -4, 10, -19, 0, -12}
, {-13, -38, -38, -84, -190, 18, 27, -42, -77, -62, -24, -7, 35, -90, 25, -22, -63, -132, -1, 67, -33, 55, -54, -176, -66, 32, -54, -6, 15, -4, -4, 44}
, {9, -69, -61, -105, -149, 109, 48, 23, -125, 4, -9, 129, -49, -38, -37, 41, 83, 34, 83, 48, 98, 100, 40, -33, 8, 29, -128, 20, 74, 65, -26, -12}
}
, {{-37, -74, 20, 31, 78, -15, -37, 18, 44, 33, 13, -12, 54, 57, 63, -70, 33, 1, 107, -3, -39, -58, 47, 7, 5, -40, 48, 51, -7, 48, 14, 25}
, {4, 7, 64, 70, 49, -109, -133, 25, 63, -30, 15, 49, -29, -3, -107, -54, -51, 69, -79, -103, -10, -258, -17, 102, 9, 65, 45, 3, -11, -34, 64, -89}
, {73, -49, -21, -33, -121, -128, -12, -84, 6, -157, -202, -37, 22, -215, -73, -45, -115, -149, -86, -5, -60, -16, -150, -92, -76, -2, 10, -218, -62, -36, -36, -123}
}
, {{-70, -43, 21, -14, -52, 57, 35, -14, 22, -16, -2, -47, -10, -65, 14, -167, 24, -38, -62, -10, 18, -55, -6, 23, 50, 71, -12, 15, 18, -11, 78, -37}
, {-94, 45, -46, 5, 68, -130, -116, 36, 70, -14, 36, -71, 50, 29, 18, 1, -12, 8, -54, -4, -19, -108, -80, -16, 29, -134, -91, 67, 15, -8, -83, 60}
, {-65, 3, 50, 72, 75, -157, -76, 77, 61, -98, 77, -4, 34, 63, -101, -60, -115, -62, -67, -286, -88, -162, -98, 50, 47, -41, -46, 79, -67, -64, -48, 80}
}
}
, {{{-51, 11, -41, -10, -16, -10, -12, 96, 47, -52, -25, -156, 66, -36, -126, 5, -25, -17, -42, -53, 39, 13, 35, 18, 9, -94, -31, -16, -13, -32, 21, -2}
, {9, 22, -83, -35, -55, -9, 36, 8, -111, -11, 16, 85, -44, 29, 27, 13, -44, -3, -129, -1, 36, 5, 32, 48, 80, -19, -100, 17, 59, 20, -52, 45}
, {-31, 31, 45, 41, 84, -91, 36, 65, 57, 5, -10, -46, 47, 3, -33, -14, -19, -8, -12, 19, 36, -77, -5, -3, -14, 24, 31, 4, 28, -18, 35, 28}
}
, {{-45, 33, 33, 61, 58, 45, 102, 61, 60, -155, -17, -193, 25, 47, -131, -101, -38, -20, -15, 40, -11, 38, 17, -21, 98, 20, 11, -44, 3, -60, -37, -107}
, {-29, -37, -21, -100, -47, -76, -13, 102, -146, 80, -39, -35, 21, 5, 51, -99, 25, 29, -90, 26, 18, 29, 39, 23, -7, 30, 18, -12, 11, 28, 35, 1}
, {13, 1, 48, -7, 11, -72, -135, 26, -7, 99, 25, 122, 17, 71, -9, 23, 53, 1, -20, -108, 44, -150, 36, 25, 48, -298, -76, 38, -10, -10, -5, 124}
}
, {{25, 31, -45, -64, 40, 48, 73, -57, 56, -181, -76, -94, -64, -53, -55, 56, -107, 49, 40, 38, -7, 112, 64, -19, -6, -22, -20, -102, -113, -71, -26, -60}
, {-40, 6, -228, 47, -167, -126, -118, 49, -1, 54, 30, 31, 61, -40, 13, -111, -55, -71, -90, 16, 49, -144, -61, -26, 56, -88, -116, -18, -63, 11, -120, 46}
, {47, 53, -74, 87, -60, 9, -258, 79, -17, 30, -10, 10, -106, -126, -114, 1, -166, 96, -5, -111, -13, -163, -194, 19, 32, -291, -286, -68, -100, -42, -224, 54}
}
}
, {{{90, 86, -6, -45, 24, -24, -50, -22, 62, 22, 51, 22, 40, -37, 46, 53, -39, -63, -4, -9, -92, -24, -120, -95, 43, 8, -32, 2, -116, -4, -2, 14}
, {83, 28, 21, 14, -13, 91, 34, 99, 44, 35, 26, 43, -1, 40, -18, 43, 30, 23, -3, 26, -39, 86, -3, -8, 96, 16, -47, 11, -11, -24, -30, -26}
, {-24, 14, -6, 11, 10, 25, -7, 4, -45, 51, -40, 76, -75, -35, -47, 12, 15, -62, -5, -29, 61, -22, 28, -70, 54, 31, 35, -98, -24, -29, -17, -23}
}
, {{-3, 71, 1, 33, 46, -2, -11, 32, 104, 13, 15, 29, 19, 26, 22, -22, 13, 8, -5, -1, 2, -52, 25, 75, 46, -80, -3, 14, 16, 4, -10, 21}
, {98, -35, -32, -81, 18, 67, 5, -16, -97, -37, -1, -85, -6, 28, -46, -43, -21, 50, -12, 54, 58, 80, -22, 26, -23, 26, 2, 7, -8, -2, 0, 30}
, {-8, -24, 14, -136, 10, 43, 65, -11, -106, 21, 3, -46, 23, 50, -10, 17, 47, 46, 47, 89, 81, 115, 40, 7, -102, 193, 46, -53, 26, 79, 138, -3}
}
, {{0, -6, -9, 4, -4, -45, 14, 1, 69, 28, -13, 44, -30, 41, 33, 14, -31, -40, -57, -67, -82, -100, -66, -37, 44, 46, 43, 16, -71, 3, 11, 13}
, {76, -15, 40, -44, 37, -49, -16, -58, 39, -38, -76, -63, -140, -28, -216, -29, -163, -38, -31, -34, -207, 39, 70, 37, -26, 67, 99, -40, -132, -94, 4, -48}
, {58, -46, -76, 1, -75, -53, -10, -242, 35, -281, -267, -121, -67, -260, -260, -46, -342, -2, -74, 15, -243, -11, -153, -172, -301, -33, -43, -357, -378, -359, -86, -199}
}
}
, {{{18, -166, -101, -36, -39, -24, 29, 70, -117, 28, -12, -10, -97, -64, -21, -43, 11, 1, -70, -25, -1, -13, 11, 12, 27, 27, -61, -14, 9, -48, -5, -131}
, {38, 24, -28, 26, 4, -34, -16, -25, 113, -110, -57, 43, -43, -37, -45, 72, 2, -81, -14, 3, -64, 59, 38, -45, -118, -28, -14, -46, -57, -113, 22, -23}
, {-79, 54, -26, 35, -53, 3, 81, 24, -38, -5, 33, -11, 32, -18, 26, -91, 53, -29, -12, 29, 87, -76, 61, 14, -21, 55, -25, -1, 26, 6, -11, -48}
}
, {{-57, -60, -10, 9, 23, -55, -86, 38, 2, 72, 56, 14, -87, 47, -37, -5, 8, -48, -11, -75, 59, -109, -12, 8, 3, -9, -3, -12, 5, -26, 1, -26}
, {-52, -100, -15, 25, 58, 18, -24, -8, 101, 43, 11, -53, 15, 22, -2, -105, -1, 18, -42, -8, -8, 77, 26, 30, -76, -17, 23, 42, 18, 52, 59, 53}
, {-131, -52, 35, 9, -21, 115, 70, -118, -28, 6, -22, -38, 49, 5, 13, -36, 0, 27, 26, -30, 49, 107, -8, 10, -14, 63, 14, -34, 79, 53, 14, -82}
}
, {{52, -7, 41, 26, 67, 51, 108, -13, 105, -33, -5, -221, -35, 59, -156, -11, -24, 83, -35, -22, -53, 103, -7, -15, 0, -114, -45, 3, -12, -16, -47, -170}
, {51, -172, 30, -23, -18, 27, 92, -113, -31, -149, -62, -92, 43, -88, -49, 34, -34, 53, 1, 51, 15, 77, 52, -37, -105, 112, 30, -79, -20, 13, -34, -36}
, {75, -88, -33, -114, -40, 19, 138, -131, -24, -136, -44, 46, -24, -41, -3, -44, -57, 48, -10, 42, -11, 50, -25, -10, -178, 61, 59, -45, -19, 18, -8, 21}
}
}
, {{{9, 22, -134, -33, -268, -12, 40, 1, -9, -46, 36, -19, -155, -139, -207, 84, -126, -53, 103, -43, 45, 42, -4, -128, 81, -51, -106, -41, -69, -155, -37, -92}
, {71, -3, -168, 12, -216, 56, 44, -52, -31, -125, -215, -115, -40, -246, -122, 48, -81, -11, -69, -24, -34, 79, 41, -56, -149, -39, -96, -216, -76, -94, -80, -41}
, {-10, -149, -65, 32, -115, 22, 56, 83, -68, -11, -105, -75, 5, -80, -41, 106, -126, -3, -52, -58, -63, 66, -96, -117, 10, -27, -41, -41, -118, -162, -46, -58}
}
, {{-52, 29, 37, 99, 39, 0, -193, 23, 94, -29, 111, 62, -48, 23, 46, -36, -8, 46, -52, -145, 54, -62, 47, -19, 7, -64, -33, 15, 30, 33, -26, 20}
, {-226, -188, 21, 41, -16, 1, -80, -64, -46, -5, -28, -3, -70, 27, 27, -139, 20, 19, 25, -26, 54, 4, 61, 18, -78, 8, 25, 28, 53, 34, 14, 27}
, {-100, -74, 21, 5, 36, -4, 47, -21, -47, -51, -14, -86, -116, 1, -65, 19, 6, 19, 89, 73, 49, 41, 38, 35, -70, 115, 72, 37, 63, 24, 64, -132}
}
, {{55, 22, -76, 18, -61, 4, 14, 33, -24, 37, 29, -22, 56, -3, 43, 1, -46, -93, -48, -16, -46, -24, -28, 5, 34, -96, -151, 23, -45, 26, -51, -29}
, {22, 22, 43, 10, 53, -1, -93, -1, -31, 30, 1, -2, 51, -4, -15, -63, -32, -22, 2, -59, -5, -59, 73, 31, 52, -109, -93, 31, -9, 11, -39, 37}
, {-12, 14, -7, 38, -41, 24, -43, 34, 32, -28, 45, 11, -63, 8, 14, 10, -23, 20, 31, -70, 14, -12, 43, -33, 41, 8, -63, -16, -26, -28, -23, 9}
}
}
, {{{79, 55, 58, 16, 47, -104, -96, 36, 133, -22, 51, -76, 65, 23, -69, -55, -105, 23, -62, -27, -41, -107, -99, 32, 5, -54, -4, -2, -30, -64, -35, 94}
, {-80, -97, 71, 58, 32, -86, 44, 15, -32, -68, 22, 5, -2, 67, -15, -106, 19, -24, -152, -23, 27, -20, 73, -13, 7, -61, -41, 30, 50, 30, 37, -8}
, {-124, 68, 39, -5, 15, 82, -21, 37, -6, 15, -7, 43, 87, 61, 148, 3, 31, 51, 57, 31, 58, 31, 68, 5, -2, -17, 22, 27, 44, 35, 67, 27}
}
, {{33, -143, 42, 30, 88, 24, 12, 30, 73, -74, -9, -53, 37, 47, -58, -54, -86, -10, -21, -5, 30, 28, -18, 56, -10, 23, 48, -26, 0, -7, 6, -17}
, {42, -53, 45, -28, -123, 97, 35, 52, -59, -86, -55, -105, 45, -13, 2, 33, 13, 70, 34, 43, 31, 69, 59, 15, 11, 127, 70, -77, -7, 17, 61, -50}
, {94, -72, -118, -184, -137, 42, -25, -49, -78, -160, -69, 28, -14, -180, -62, 57, -90, 31, 76, 37, -7, 60, 18, -38, -87, -118, -186, -140, -12, -66, -202, -52}
}
, {{-73, -56, 4, 32, -28, -11, 43, -18, 5, -9, 13, 19, -80, -22, -73, -147, -21, -84, -19, 28, -69, -3, -7, -78, -29, -3, 14, 7, -29, -46, 24, -40}
, {13, 108, 3, 0, 36, 4, 157, -14, 42, -62, 36, 82, -42, -24, -28, 46, 49, -55, -6, 15, 1, -8, 174, -34, 21, 57, 27, 32, 15, -51, -40, -17}
, {48, 11, 29, 5, 74, -57, 96, -24, 10, -89, -62, 23, -101, -2, -66, -57, -118, -43, -210, -166, -167, -15, 86, 47, -139, -58, 1, -15, -189, -73, -46, 43}
}
}
, {{{28, 61, 4, -87, -102, -48, -11, 11, 16, 24, -6, 55, -13, -26, 9, 41, 132, 10, -8, -30, 21, -10, -110, 3, -6, -30, -57, -15, 4, 30, -104, 61}
, {7, 117, -45, 7, -39, -45, 10, 51, 73, 50, -19, 94, 56, 5, 31, 64, 18, -62, 27, 4, -51, 15, -31, 57, 29, -50, -61, 37, -37, 72, 2, 2}
, {15, 54, -87, -25, -32, -49, 49, 7, 14, -1, 42, 53, -155, -146, -100, 5, -11, -89, -20, -5, 1, -64, -118, -186, 50, -142, -70, -18, -90, -144, -140, -43}
}
, {{7, 121, -1, 83, -1, -74, -38, 31, 73, 41, 43, -9, -25, 4, 29, 115, 37, -75, -68, -57, -56, -3, -84, -104, 77, 41, -26, 45, -33, 4, -1, 19}
, {-10, 138, -57, 8, -48, -75, -118, 10, -33, 59, 6, 109, -80, -3, 71, 103, 39, -110, 19, -192, -55, -82, -136, -160, 25, -101, -95, 32, -43, -50, -16, 45}
, {-25, -9, -52, -46, -18, -52, -106, -64, -34, 98, -76, 39, -93, -39, 38, 82, -69, -309, 36, -298, -91, -123, -408, -195, 80, 39, -17, -35, -174, -19, 23, 9}
}
, {{-76, 51, 73, 13, -21, -39, -85, -11, 17, 2, 0, 83, 5, 79, 46, 72, 14, 14, 1, -73, -37, -28, -95, 42, 41, -23, -6, 42, 8, 18, 15, 17}
, {-55, -18, 78, 89, -14, 26, -66, -17, 14, 40, -29, 49, -71, 40, -5, -78, 25, 40, -99, -139, -63, -109, 1, 14, 5, 20, 22, -7, -38, 6, 78, 5}
, {-99, -93, 53, 91, 25, -106, -84, -52, -2, 45, 23, -28, -21, 51, 115, -207, 40, 31, 23, -146, -13, -180, 26, 34, 22, 50, 88, 49, 73, 85, 159, -20}
}
}
, {{{-67, -10, 17, -9, -7, -22, -2, -15, 41, 8, 51, -101, -39, -10, -62, -85, -61, 64, -15, -30, 11, -62, 16, -32, 57, -58, -94, -23, -54, -52, -43, -85}
, {-159, -11, 42, 2, 38, -38, 8, -9, 61, -46, -43, -61, -20, 29, -23, -34, 21, -47, -60, -79, -24, -62, -13, 17, -5, -18, 37, 17, -37, -28, 26, 26}
, {11, -73, 64, 16, -20, -53, -87, -30, 16, -57, -19, -37, -1, -37, 44, 6, 38, -21, -10, -9, 43, -20, 71, -33, -84, 31, 56, -29, 54, 36, 66, -2}
}
, {{-22, -201, 37, -103, 17, 44, 34, 43, -46, -38, 19, -53, 17, 11, 30, -80, 36, 48, -72, 54, 76, 27, 66, 89, -68, 109, 2, 36, 62, 80, 52, -9}
, {-146, 10, 29, -24, -47, -22, -208, 9, -116, 68, 52, 35, -161, 27, 38, 99, 72, 82, 54, -116, 78, -141, -21, -38, 9, -26, -44, 36, 85, 95, 49, 29}
, {52, 64, -83, -44, 9, 42, -12, -67, 16, 90, -64, -21, -119, -47, -90, 33, -23, 20, 62, 53, 23, 24, 17, 14, 15, -219, -181, -66, 5, -16, -164, -12}
}
, {{-54, -64, -91, 7, -50, -155, -88, 7, -22, 34, -10, 46, 5, -110, 30, 4, -30, -43, 12, 24, -78, -112, -124, -47, -44, -77, -115, -30, -16, -27, -128, 35}
, {53, -15, -69, 44, 29, 55, -90, 57, 66, 8, -5, -62, 34, -40, -1, -51, -81, -47, -24, 8, -3, -13, -36, 22, 13, -244, -197, 54, -40, -28, -83, -9}
, {114, 0, 35, 5, -12, 30, 110, -156, 47, -217, -52, -62, -12, -56, -174, -55, 43, -35, -116, 81, -10, 131, 107, -47, -153, 1, 88, -106, -32, 7, 32, -39}
}
}
, {{{-101, -153, 26, 36, 26, 47, -5, -1, -44, 25, 15, -32, -47, -58, 60, -28, 79, -54, 25, -48, 7, -27, -38, 0, -38, 7, -21, 33, 52, 25, 63, -45}
, {-41, -15, -51, -1, -26, -84, -168, 28, -44, -20, -12, 11, 33, 24, -40, -9, -53, -72, -40, -19, -30, -74, -83, -2, -36, -16, 22, -44, -28, -59, -14, 15}
, {-60, 25, -33, 90, -45, -40, -23, 52, 17, 80, -2, 6, -122, -23, -81, 49, 6, -65, 51, -29, 57, 6, 54, 0, 62, -46, -82, -50, 2, -92, 3, 57}
}
, {{6, -96, 23, 11, 97, 14, -77, -57, 0, 22, 61, 8, 5, 66, 25, -97, -15, -7, -12, 2, 20, -21, -51, 31, 26, -80, 29, 11, 16, 10, 6, 30}
, {-77, 9, 78, 16, -19, 5, -59, 25, 83, -23, 8, -220, 24, 12, -24, -32, 17, -2, -65, 2, -13, -70, 11, 58, -19, -64, 0, 38, -46, 20, 39, 24}
, {-132, -18, 24, -45, 30, 60, 162, -16, -34, -4, 14, -174, 11, 42, -44, -69, 23, 53, -61, 14, 8, -6, 100, 0, 31, -72, -51, 1, 5, 60, 50, -76}
}
, {{24, -6, -28, 21, -123, 32, 3, -1, -27, 5, 13, -88, -85, -25, -16, 32, 55, -41, 52, -62, -2, 15, -126, -89, -38, -65, -55, -37, 2, -20, -41, -12}
, {-9, -70, -4, -134, 47, 96, -10, 17, -115, -59, -33, -123, 12, -26, 2, -14, -54, 35, 39, 44, 21, 29, 4, 71, -46, -30, -67, -40, 12, 32, -116, -83}
, {18, -65, 77, -27, -4, 72, 32, -19, -45, -18, -38, -12, -24, -49, -7, -56, -10, 60, 75, 66, 115, 73, 24, 17, -59, 54, 106, -46, 17, 6, 53, -67}
}
}
, {{{37, -31, -9, 14, 5, -30, -16, 32, 6, 20, -7, -53, -8, -12, -4, 62, 16, 86, 25, -15, -37, 23, -1, 46, 2, 32, 17, 3, -5, 60, -5, -8}
, {-47, -21, -55, -88, -63, -78, -24, -12, -94, -26, 32, -18, 82, -13, 23, 0, -4, -49, -47, 78, -29, -125, -58, -35, 1, 2, -36, -39, -26, -16, -47, 1}
, {-19, 34, 10, -47, -29, 40, -135, 85, 40, 87, -2, 116, 57, -4, 96, 39, 69, 9, 38, -46, 63, -29, 45, -6, 75, -127, -26, 30, 5, 34, -44, 176}
}
, {{-105, -14, -7, -32, -11, -5, 22, -77, 8, -13, -15, 61, 4, 5, 26, -24, 17, -3, 55, 47, 16, -44, 34, 68, 42, 32, 43, 23, 27, 1, 30, -21}
, {54, 23, 89, 51, 10, -11, 43, -145, 6, -43, -31, -17, -119, -17, -44, 42, 31, -6, 14, -42, -71, -20, 32, -6, -69, 100, 86, -53, -22, -89, 97, -47}
, {29, -20, 0, -52, -27, -22, 72, -56, -16, -146, -135, -145, 30, -165, -190, -40, -172, -107, -85, 29, -134, 68, -255, -27, 7, -10, -29, -159, -164, -213, -34, -136}
}
, {{-78, 18, -33, 32, -17, -36, -83, 49, 42, 52, 16, 5, -33, 54, -9, -58, 18, 13, -13, -62, 5, -86, -67, -13, 16, -101, -131, 2, 2, 17, -25, 56}
, {-163, -187, 7, 58, 96, -92, -140, 41, 63, -22, 4, -78, -2, 56, 20, -186, 17, 49, -86, -61, 14, -156, -2, 65, -8, 33, -36, 52, 50, 56, 34, -56}
, {-147, -36, 41, 73, 63, 7, -160, 48, 60, -88, 53, -150, -5, 165, -83, -166, -4, 64, -56, 6, -2, -172, -12, 134, 15, -58, -41, 105, 27, 96, 24, -9}
}
}
, {{{61, 36, -42, -69, -94, -13, -36, -64, 1, -3, 13, 46, -52, -43, -41, 56, 27, -43, 22, 35, 38, 3, -44, 29, 59, -11, -26, 27, 50, -23, 18, -7}
, {36, 124, -96, -16, -21, 35, -15, 66, 27, 124, 13, 48, 33, 3, -13, 86, 36, -28, 44, -40, 24, 0, -1, 6, 125, -29, 30, 24, -21, -5, -66, 51}
, {-8, 52, -45, -51, 33, 6, 63, 42, -20, 15, -12, 108, 5, -24, 43, 24, 16, -29, 29, 2, 2, -30, -31, 0, -9, 102, 30, -27, -15, 22, 18, -3}
}
, {{32, -25, 25, 38, 28, 8, 18, -36, 89, 7, 101, -125, -132, -13, -45, 72, 125, -106, 13, -54, 2, 14, -153, -151, 88, -48, 1, 9, -49, -96, 24, -34}
, {44, -30, -103, -147, -134, 6, 5, -190, -57, -240, -210, 12, 10, -152, -90, 34, -162, -162, -23, -21, -132, 13, -114, -167, -83, -4, -86, -174, -144, -91, -47, 15}
, {93, -129, 4, -28, -23, 56, 54, -20, -93, -15, -116, 3, 9, -27, -32, 36, -18, 11, 71, 18, 0, 75, 36, 51, -69, 15, 77, -43, 28, 35, -19, 48}
}
, {{-16, 62, -21, 99, 7, 85, 50, -14, 14, -53, 43, 2, -98, 7, -132, 118, -22, 93, 62, 11, 13, 45, -11, 9, 116, 22, 2, -43, 19, -64, -3, -124}
, {-29, -87, -18, 17, 17, 73, -64, -99, 33, -58, -130, -57, -58, -9, -38, -31, 32, -5, -12, -12, -37, 73, 95, 39, -166, 53, 51, -28, -29, 30, -1, -14}
, {75, -78, 61, -5, 62, 12, 180, -133, 71, -130, -80, 7, 28, -54, -27, 73, -21, 35, 17, 78, 7, 46, 126, -52, -33, 155, 93, -73, -7, -14, 5, -8}
}
}
, {{{70, 80, -4, 25, -92, -12, 19, -57, -22, 16, 5, 32, -87, -1, -102, 44, 2, 17, -13, 19, -78, 35, -149, -80, -43, 23, -77, -39, 25, -8, -25, -45}
, {16, -51, -18, -17, -13, 31, 21, -48, -51, 50, 13, 43, -23, 4, 33, 19, 88, -17, 23, -18, -40, -3, -25, -6, 4, 27, 5, 13, 49, 41, 30, -25}
, {-79, 3, 30, -1, 15, 13, -40, 30, 22, -18, 19, -7, 52, 63, 70, -54, 27, -1, -62, 8, -16, -89, 51, 23, -18, 35, -7, 37, -2, 11, 7, 52}
}
, {{-59, -53, -65, 6, -112, -44, -41, 57, -88, 43, 85, 102, -7, -8, 63, -19, -46, -19, -10, -64, 7, -75, -49, 14, -42, 35, -64, 9, 0, -12, 8, 73}
, {-3, -74, 15, -45, -45, -3, 28, -153, -131, -43, -56, -158, -17, -47, -113, -19, 9, -6, 31, 13, 20, 13, -14, 19, -36, -127, -37, -131, 58, -81, -100, -126}
, {11, -11, 44, -72, 2, 34, 72, 33, -30, 12, -28, -85, 69, 9, 10, 60, 1, 66, 45, 18, -1, 63, 88, 25, -22, -8, -29, -15, 33, 46, -108, -8}
}
, {{-25, 16, -16, 37, 35, 81, 85, 66, -37, -9, -53, 4, 113, 12, 16, -61, -67, -24, -6, 98, 8, 37, -44, -5, 44, 6, -54, -2, 2, 43, -66, 51}
, {-131, -87, 14, -15, 38, -4, 5, -3, 39, -70, 17, -4, -71, 57, -47, -113, 12, 18, -63, 27, 82, 58, 51, 56, -45, -3, 83, 91, 44, 28, 45, -99}
, {-94, -40, 47, -26, 28, 29, -72, -82, -18, 1, -8, -31, -203, -4, -51, -49, 56, 45, -7, -101, 32, 48, 22, -20, -42, 67, 52, 13, 48, -7, 41, -126}
}
}
, {{{45, -38, 37, 56, -5, 34, 30, 10, -28, 27, 47, -11, 17, -33, -23, 49, 46, 8, 21, 27, 35, 3, -41, -12, 36, 32, 10, -10, 39, 49, 25, 27}
, {-145, -16, 29, 51, 16, -143, -31, 26, 45, -25, 3, -13, -26, 71, -18, 4, 12, -3, 15, -84, -21, -158, -25, 34, 17, -6, -41, -11, -70, -3, 24, -6}
, {55, -15, 7, 62, -83, 75, 16, 35, -13, 17, 30, -129, -99, -22, -146, 14, -29, -65, 35, -73, 15, 40, -102, -48, 13, -23, -28, -66, -6, -59, 11, -62}
}
, {{-67, -46, 51, 31, 122, 58, -27, 49, 9, -37, -23, -64, 22, 1, 34, -80, -33, 47, -64, 48, 6, -24, 11, 62, -68, -34, 0, 36, 23, 12, -32, -99}
, {-10, -118, 15, -57, 34, 18, -51, -7, -48, 23, 26, -37, 11, 31, -11, -46, 8, 14, -53, -3, 66, -19, 44, 32, -4, -90, -43, 61, 42, 27, 13, 58}
, {-40, -15, 46, -113, 11, 7, 68, -3, -48, 45, 33, -81, -14, 67, 12, 15, 46, 26, 62, 74, 89, 63, 45, 6, -21, -61, 22, 29, 76, 36, 44, -24}
}
, {{-13, 65, -159, -31, -119, -116, 43, 16, -24, -7, -11, 5, -2, -121, 23, -47, -6, -149, 26, 25, 4, 1, -168, -200, 58, -94, -109, -66, -64, -34, -101, -43}
, {-32, 63, -177, -45, -196, -1, 7, 0, -23, -14, 5, 53, -33, -182, 24, 35, -28, -77, 41, 4, -70, -3, -71, -104, 41, -66, -11, -30, -127, -95, -26, -10}
, {-22, 35, -94, -83, -137, -71, -20, -54, -31, 66, -25, 131, -76, -140, 23, 14, 39, -61, 46, -28, 14, -107, -138, -105, -24, 38, -31, -57, 5, -40, -34, 7}
}
}
, {{{37, 84, -110, -123, -95, 19, 23, 11, 44, -23, 9, 47, -57, -162, -41, 4, 82, 32, -57, 2, -34, -40, -169, -46, -59, 41, -87, -76, -46, -82, -91, -39}
, {-86, -13, -86, -30, 53, -21, -19, 48, -60, 75, 5, -4, 24, 8, 72, -66, 3, -63, -30, 47, 17, -21, -198, -84, 54, 20, 7, 32, -28, -13, 16, 34}
, {67, -22, 33, 37, 67, -83, -18, -40, -27, -19, -24, 7, 2, -38, 6, -30, -4, 4, 9, 30, 33, -29, -7, -18, -26, -53, -39, -3, 72, -11, 29, 79}
}
, {{-6, 125, -39, -80, -2, -28, -10, -141, 11, -47, -81, 56, -41, -50, 26, 47, -40, -10, -151, -37, -89, -89, 44, -37, -28, 4, 28, -110, -38, 10, -10, 66}
, {-336, 20, 0, -1, -80, -155, -149, 24, -284, 47, 51, 94, -212, 43, 51, -88, 71, -34, 26, -202, 47, -86, -98, -70, 24, 29, 54, 48, -26, 28, 61, -59}
, {-39, -42, 58, -67, 41, 69, 52, -90, -54, -15, 15, -199, -157, 17, -29, -58, 14, 26, -24, 102, 63, 51, 57, 92, -62, 5, -24, 25, 49, 5, 2, -244}
}
, {{18, 2, -5, -11, -52, -139, 56, 46, -45, 89, 19, 73, 49, 6, 39, -108, -10, 47, -96, 61, 10, -14, 39, 18, -43, 20, 5, 8, -28, 10, 3, 34}
, {-151, -10, -36, 144, -71, 8, -242, 47, -4, 48, 40, -39, -25, 13, 60, -31, -20, -4, 17, -59, 9, -89, -9, -9, 70, -227, -120, 11, 31, -27, 7, 18}
, {6, -46, 19, -117, 6, 54, 34, -115, -23, -149, -48, -160, -48, -46, -7, 7, 34, -111, -18, 65, 42, 46, 114, 7, -126, 34, 87, -78, 72, 43, 108, -76}
}
}
, {{{-153, -103, 67, 63, 26, 6, -18, 42, -106, 60, 39, 2, 51, 36, 4, -65, -39, -50, -1, -14, 7, -68, 73, 47, 46, -66, 69, 12, -18, 22, 26, 24}
, {-159, -25, 40, -1, 58, -103, -153, -12, -25, 38, 58, -24, -79, 40, 10, 5, 33, -55, 51, -169, -17, -107, 30, -45, 6, -2, 1, 24, 25, 5, 73, 37}
, {36, 72, 19, 7, -56, -41, -136, -150, 52, -90, -12, 1, -157, -67, -16, 8, -3, -56, 5, -85, 14, -60, 34, -41, -7, -61, -17, -74, -51, -47, -34, -42}
}
, {{-43, -2, -44, -155, -10, -39, -4, -53, -28, 41, -65, 4, 39, -76, 62, -57, 17, 12, -78, 77, 17, -49, -3, -42, -91, -100, 16, 10, -22, 56, -30, -21}
, {-146, 122, 9, -20, -39, -186, -411, 20, 28, 45, 68, 7, -43, 22, 4, -5, 9, -54, -10, -182, -3, -273, -135, -27, 59, -196, -167, 1, -2, 33, -99, 80}
, {-16, 79, 25, -29, -12, -28, -58, -105, 3, -11, -29, 57, 3, -67, -137, 16, -22, -62, 40, -20, -13, -59, 0, -91, -32, 2, -66, -115, -85, -100, -12, 51}
}
, {{0, -98, -43, -133, -231, -21, -57, 2, -156, 76, -21, -2, 19, -7, -9, 32, 75, 28, 84, 33, -1, -5, -26, 61, -60, -110, -105, 16, 41, 18, -98, -18}
, {3, -92, 45, 38, 74, 30, 2, 30, -30, -55, -43, -101, 15, 10, 20, -90, -94, 56, -95, 34, 33, 38, -48, 23, -65, -176, -109, 14, -10, 39, 36, -6}
, {-119, -65, 46, 64, 50, 8, -17, 3, 14, -65, -17, -149, -123, 47, -31, -109, 50, 125, 13, 6, 23, 8, 73, 15, -61, 71, 65, 6, 21, 39, 58, -102}
}
}
, {{{35, -35, -26, -52, -8, 39, 22, -39, -90, -6, -91, -29, 10, 25, -36, 26, -50, 16, 42, -34, -69, -14, -4, -5, -61, 49, -26, -43, -10, 11, -20, 3}
, {-50, 25, -60, 13, -93, 60, 42, 26, -43, 57, 14, 57, -9, -4, 46, 65, 68, -4, 133, 40, 1, -2, -29, -56, 81, 45, 7, -1, -16, 14, -1, 29}
, {84, 13, -1, 10, -11, 65, -5, -8, -21, 8, 24, 79, -83, 40, -12, 69, 40, 11, 60, -33, 22, -4, -59, 2, 84, -22, -12, 43, 47, -16, 15, -18}
}
, {{108, -23, -49, 1, -22, -56, 28, -11, -96, 12, 25, 37, 16, -87, 51, -4, 24, -41, -127, 26, -51, -88, -29, -31, -44, 35, 27, 20, -15, -36, -54, -21}
, {32, -51, -69, -56, -41, -1, -21, 41, -34, 57, 11, 60, 15, 6, 50, -10, -15, -26, 18, -16, 1, 37, -15, 5, 21, 18, -52, -3, -16, -4, -27, 59}
, {56, 9, -8, -80, -28, 58, -32, 17, -7, 74, 45, 1, 6, 21, 92, 49, 80, -7, 43, -35, 53, 67, -13, 6, 36, 87, 52, 68, -5, 42, 76, 41}
}
, {{-54, 72, -107, 54, 2, -93, -65, 26, 11, 54, 23, 102, -34, -81, 103, 104, -23, -192, 47, -140, -20, -127, -273, -120, 80, 35, 16, 44, -97, -98, -34, -46}
, {47, -32, -82, -96, -88, 101, 110, -208, -14, -231, -156, 45, -33, -201, -158, 62, -165, -36, -6, 37, -59, 156, -3, -147, -33, 121, 196, -237, -89, -244, 34, -72}
, {27, -104, -57, -22, -21, 21, 35, -190, -69, -89, -235, 77, -125, -102, -73, 44, -91, -83, -39, -33, -106, 31, -113, -219, -229, -8, 66, -61, -214, -155, 44, -148}
}
}
, {{{-68, 35, 67, 35, -11, -11, 12, 56, 5, 19, 68, -22, 58, 11, -121, 44, -1, -2, 9, -63, -62, -37, -77, 22, 21, 7, -21, -17, 23, -35, -34, -27}
, {89, 1, 17, -49, 23, 93, 41, -196, 53, -185, -92, -126, -76, -52, -148, 13, -100, 11, -37, 8, -48, 58, 27, -79, -225, 75, 37, -151, -19, -16, 7, -79}
, {46, -185, -44, -38, -71, 80, 67, -143, -34, -307, -171, -132, -78, -117, -207, -78, -138, 72, -29, 8, -54, 10, 78, -33, -303, 58, 83, -240, -47, -65, 9, -235}
}
, {{92, -194, 51, -12, 36, 24, 50, 17, 14, -15, -25, -40, 9, 14, -69, 69, -37, 41, 1, 39, -30, 71, 35, -15, 9, 10, 22, -1, -16, -98, 20, -94}
, {55, -92, 0, -16, 24, 5, 76, -60, 39, -24, -92, 28, 18, 0, 6, -52, -34, -25, -111, 63, -24, 54, 60, 10, -156, 87, 95, 16, -6, -17, 63, 12}
, {2, -21, 9, 6, 33, 13, 128, 29, 1, -38, -12, -136, -1, -33, -132, -175, -1, -12, -147, 21, -12, 73, 104, 32, -81, 99, 50, -23, 0, 18, 10, -174}
}
, {{-101, 87, -49, 6, -43, 31, -19, 52, 51, 65, 47, -88, -38, 8, 9, 71, -41, 2, 12, -39, -6, -12, 4, 33, 38, 31, 72, 36, 21, -15, 24, -138}
, {-54, -12, -39, -43, 27, 84, 30, -26, 21, 58, 10, 33, 3, 57, -21, -26, 1, -3, 17, -27, -31, 48, 4, -11, 25, 14, 1, 54, 11, -3, 22, 12}
, {-11, 41, 20, -27, -87, 39, 40, -34, 18, -10, 44, -54, 2, 61, 11, 38, -8, -44, 32, 5, 35, 30, 36, -72, 36, 55, 56, 33, 14, 10, 3, 33}
}
}
}
;

#undef INPUT_CHANNELS
#undef CONV_FILTERS
#undef CONV_KERNEL_SIZE_X
#undef CONV_KERNEL_SIZE_Y
#undef CONV_GROUPS