/**
  ******************************************************************************
  * @file    weights/conv2d.cc
  * @author  Pierre-Emmanuel Novac <penovac@unice.fr>, LEAT, CNRS, Université Côte d'Azur, France
  * @version V2.0
  * @date    24 march 2020
  * @brief   Template generating plain C code for the implementation of Convolutional Neural Networks on MCU
  */

#include <stdint.h>

#define INPUT_CHANNELS     32
#define CONV_FILTERS       64
#define CONV_KERNEL_SIZE_Y 3
#define CONV_KERNEL_SIZE_X 3
#define CONV_GROUPS        1


const int16_t conv2d_1_bias[CONV_FILTERS] = {1, 2, 35, 26, -48, -10, -5, 2, -46, 3, -15, -21, 21, -28, 47, 54, -33, 0, -36, 31, 17, -30, -5, -28, -26, -13, -26, -44, 50, 25, 0, -22, -33, 69, 3, 64, -25, 21, 39, 46, 14, -14, 31, -17, -12, -6, -17, -19, 36, -38, 79, -3, 18, -16, -7, 37, 22, 17, 16, -40, 38, 11, -29, -56}
;


const int16_t conv2d_1_kernel[CONV_FILTERS][CONV_KERNEL_SIZE_Y][CONV_KERNEL_SIZE_X][INPUT_CHANNELS / CONV_GROUPS] = {{{{-38, 4, 28, 42, -21, 41, 33, 45, 11, -1, 31, 57, 30, 12, 31, -66, -6, 47, -107, -62, -98, 46, 63, -82, -136, 30, 16, -85, 1, -65, -55, 43}
, {85, -22, -79, 39, -3, -6, -26, -54, -67, -37, 131, -60, -18, 24, -45, 45, 26, 8, -2, -51, 64, -53, -57, -26, -8, -42, 17, 33, 52, -62, 6, -17}
, {-112, 36, -214, -18, 77, -10, -116, 52, -14, -10, -118, -18, -54, 44, 22, 54, 4, -33, 26, 100, 57, -2, -94, 32, 18, -32, -152, -23, -61, 88, 69, -34}
}
, {{-11, 47, 104, 3, 78, -66, -12, 130, 58, 111, -58, 58, 22, 0, 90, -235, 30, 25, -106, 66, -17, 13, 77, 1, 52, 10, -52, -119, -82, 134, 174, 26}
, {86, 49, 45, 1, -105, 6, 35, 30, 76, 62, 141, -23, 18, -99, 0, -223, 39, 27, -201, -211, -234, -1, -5, -137, -75, 7, 71, -82, 60, -144, -184, 28}
, {-26, -133, -185, -64, -91, -18, -29, -120, -57, -116, 86, -96, -66, -73, -49, -60, -17, -101, 8, -12, -53, -82, -169, -43, 89, -84, 39, -55, 54, 36, -53, -24}
}
, {{-105, 13, -36, -17, 79, -60, -69, -20, -7, -29, -68, -50, -23, 12, 9, -53, -37, -37, -23, 72, 1, -57, 24, 66, -21, -33, -76, -34, -39, 22, -17, -46}
, {-24, 79, 57, 38, 25, -11, -29, 55, 74, 83, -26, 9, 86, 51, 34, -197, 0, 59, -129, 37, 4, 53, -24, 77, -146, -23, 70, -43, -38, -32, -6, 95}
, {21, -74, -12, 30, -93, 45, 79, -14, 34, -42, 34, 15, -16, -92, -59, -9, -36, 4, -92, -51, 41, -32, -108, -190, -79, -53, 38, -75, 27, -59, -106, 72}
}
}
, {{{55, 2, 10, 51, -30, 25, 51, -21, 48, 51, -20, -2, -8, 16, -60, -78, 26, 19, -22, -23, 24, 36, 1, -18, -42, 49, 37, 53, 60, -23, -59, 33}
, {95, -16, 42, 17, 44, -38, 10, -3, 53, -16, 7, -19, -6, -41, -76, 40, 42, -59, 73, 61, 46, -26, -22, -10, 64, -8, 133, -34, 32, 14, 12, -12}
, {70, -77, 39, -84, 45, -23, 87, -5, -70, -72, 92, -86, -65, -96, -104, -49, -5, -109, -78, -84, -83, -98, -47, 18, 28, -67, 115, -76, 97, -15, -51, -79}
}
, {{76, 34, 78, -54, 22, 26, 31, 8, -11, 28, 52, 45, 6, -16, -7, -91, -15, -3, 1, 29, -50, 6, 34, 28, -37, 75, 69, 37, 56, -94, -40, -7}
, {127, 3, 62, -7, -1, 6, 7, -32, 49, -16, 41, 11, 80, -4, -32, -70, -12, 59, 8, 28, -33, 36, 27, -21, -16, 6, 194, 7, 116, -29, 16, 28}
, {56, 12, 72, -14, -21, 60, 16, -22, -20, 25, 83, 20, 56, 49, -22, -40, -24, 54, -37, -8, -58, 8, 20, 53, -158, 28, 102, 42, 3, -38, -74, 8}
}
, {{37, -34, 28, 55, -64, 35, 7, -12, -34, -14, -15, 18, 55, -20, 49, -67, 12, 33, -8, -42, -39, 44, 43, 1, -61, 20, 60, 53, 47, -4, 6, 2}
, {-16, 31, 66, -25, -78, 17, 66, -6, 7, 13, 48, -5, 36, 20, 63, 57, -23, 47, -22, -37, -59, 22, 66, -25, -208, 54, 55, 26, -6, -181, -79, 43}
, {-24, -13, -16, 18, -75, 5, 17, 14, -38, 4, 0, 15, 14, 14, 55, -22, 19, -8, -69, -107, -64, 5, 26, 14, -105, 3, -63, 29, 12, -131, -68, 1}
}
}
, {{{-30, -17, -122, -81, 24, -83, -46, -4, -46, -39, -24, -95, -64, -5, -94, 73, -28, -38, 24, 13, -73, 28, -61, -3, 104, -17, -27, 7, 0, 20, 30, -93}
, {-75, 20, -85, -81, -4, -91, -48, 34, -72, -37, -105, -47, -17, 23, 13, -37, 40, -15, -28, 26, -61, -45, -6, 67, 55, 1, -131, -24, -51, -88, 14, -42}
, {15, 46, -40, -3, -52, -22, 32, 37, 43, 52, -80, 8, 54, 26, 36, -143, 30, 76, -106, -29, -65, 61, 1, 43, -159, 34, 24, 43, 55, -169, -52, 45}
}
, {{9, -69, -74, -22, -4, 9, 23, -6, -68, -104, -3, -50, -53, -1, -122, 30, 13, -53, 31, -20, 17, 15, -72, -40, 22, 6, 65, -28, 60, -30, -11, -65}
, {-41, 56, -84, -7, -19, -100, -133, 23, 51, 5, -187, 16, 31, 52, 28, -71, 32, -37, -217, -73, -201, 24, 78, 66, -37, 64, -139, 30, -84, -115, -33, -5}
, {-52, 26, 27, 52, -147, 30, 82, 8, 42, 5, 75, 33, 21, -63, -3, -173, -24, 28, -247, -125, -114, -53, 51, -22, -213, 7, -86, -72, -11, -168, -131, -14}
}
, {{-75, -103, -136, 56, -45, -17, 96, -27, -67, -29, 57, -5, -62, -28, -65, 69, -38, -137, 55, -10, -14, -67, -66, -53, 14, -61, -147, -125, -90, -9, -43, -34}
, {-298, -20, -183, -42, 113, -68, -222, 38, -70, -35, -218, -34, -96, 66, -6, -54, 25, -49, -75, 95, -14, -41, 0, 72, 21, -148, -408, -63, -284, -30, 125, -44}
, {-43, 53, 83, 42, 34, 6, 12, 28, -9, 82, 85, 83, 9, -25, 37, -137, -11, 36, -182, 45, -110, -8, 74, 54, -112, -10, 70, -71, -12, 45, 22, 26}
}
}
, {{{-96, 40, -39, -14, -18, 21, -187, 66, -11, 9, -271, -22, -27, 59, 35, 60, 29, 34, 53, 10, -58, 48, 45, -20, -10, 8, -128, -14, -90, -55, 44, 3}
, {-38, 80, 14, 106, -93, 41, 42, 82, 35, -19, -21, 102, 61, -2, 95, -234, 2, 52, -256, -109, -181, 56, 45, -7, -187, 18, 17, -3, -62, -308, -121, 36}
, {-111, -68, -87, 47, 46, 34, -5, 30, -27, -29, 49, -18, -45, -73, 14, -41, -40, -3, 52, 43, 9, 4, -59, -208, 20, -29, -96, -204, -14, 101, 54, 14}
}
, {{-134, 12, -183, -38, 27, -47, -210, 65, -33, 21, -182, -39, -90, -16, 35, 56, -23, -66, 32, 27, -123, -40, 21, 64, 34, -9, -159, -68, -98, -27, -17, -105}
, {-99, 30, 99, -14, -135, 10, 23, 71, 65, 92, -46, 47, 45, 43, 42, -200, -4, 55, -286, -157, -128, 44, 29, 86, -254, 15, -34, -25, -106, -267, -172, 76}
, {-7, -59, 26, -3, -15, 33, -65, -80, 7, -3, 20, -26, -30, -174, 0, 19, -11, -25, 14, -30, 26, -36, -79, -316, 111, -60, 76, -75, 7, 42, -67, -21}
}
, {{-46, 2, -85, -34, -5, -12, -170, 7, -28, -34, -210, -5, 35, 20, 43, -86, 15, -10, -203, -31, -85, 18, -21, -46, -85, 23, -113, 2, -97, -77, -8, -54}
, {-96, 66, 29, 12, -31, 50, 29, 26, 50, 58, 6, 49, 106, 10, 69, -111, 30, 65, -139, -41, -62, 57, 45, 91, -203, -9, -136, -27, -104, -127, -10, 75}
, {-76, -118, -37, 54, -50, -10, 42, -117, -48, -70, 30, -53, -8, -137, -104, 21, -20, 21, -51, -80, 87, -34, -94, -156, -15, -79, -65, -121, -87, -20, -127, 18}
}
}
, {{{-17, 12, 8, 16, 56, 29, -29, 34, 32, 11, 56, 25, -12, -34, 52, 9, 22, 39, -64, -27, -9, 21, -45, -17, -101, -45, -36, -55, -61, -18, 41, 18}
, {9, -70, 23, -81, -22, -46, 26, -27, -55, -58, 30, -3, -15, -47, -69, 96, -12, -76, -20, 21, -31, -2, 29, 11, 14, -48, -33, -29, 3, 54, 43, -18}
, {57, 40, 86, 15, -13, -28, -57, -11, -26, 17, -105, -10, 108, 81, 35, 17, -34, 26, -21, -60, -83, -12, 78, 13, -67, 85, 67, 26, 31, -68, -107, 4}
}
, {{55, -75, -19, -12, -209, -15, -129, -47, 52, -34, 63, -62, 7, 21, 2, -77, 37, 46, -138, -241, -149, 46, 10, -45, -110, 56, -4, -14, 3, -172, -233, -3}
, {89, 64, 6, -9, -15, 75, -31, 7, 72, 24, -113, 16, 5, 97, 33, -108, 40, 0, -51, -117, 47, 33, 56, 22, -294, 83, 50, 44, 77, -131, 9, 65}
, {21, 6, 30, 59, 4, 43, -32, 9, -15, 40, -81, 28, 7, 72, 40, 33, 16, 45, 30, 28, 61, 51, -6, -98, -152, 7, -29, 5, -47, 6, 23, 60}
}
, {{23, 77, 6, 25, -33, 40, -38, 45, 44, 91, -126, 59, -46, 1, 34, -47, 1, 53, -34, -18, 44, 12, -40, -82, -52, -8, 15, -82, -44, 30, 59, 59}
, {-105, 26, -28, 42, 105, 70, -38, 94, 47, -9, -109, 23, -46, -20, -9, 65, -17, -31, 70, 44, 72, 16, -48, -100, -31, -100, -150, -108, -207, 92, 112, -5}
, {-60, 15, -6, -37, 0, -46, 32, 50, -92, -49, -26, 12, -88, -46, -31, 5, -40, -39, 52, 9, -18, -48, 6, -45, 67, 24, 12, -80, 50, 32, -28, -34}
}
}
, {{{-28, 12, -68, 15, -8, -20, -90, 60, -5, 12, -83, 45, 6, 9, 22, -177, 18, 21, -167, -29, -131, 48, 21, 29, -37, 20, -20, 41, -9, -126, 47, 18}
, {-28, 91, 37, 65, -16, 92, -69, 31, 42, 18, 15, 63, 67, 6, 82, -193, -36, 64, -166, -55, -157, -23, 90, -17, -143, 39, -39, -24, -61, -157, -7, 31}
, {74, 25, 159, 46, -169, 106, 89, 26, 69, 19, 69, 34, 61, -5, -57, -230, -2, 16, -171, -105, -169, 61, 31, -111, -97, 11, 85, -39, -5, -41, -91, -6}
}
, {{-81, -23, -82, -10, 64, -77, -27, -11, -46, 33, -115, -12, 2, 76, 11, 69, -16, 12, 121, 129, 108, 81, 12, 23, 17, -67, -71, -27, -148, 63, 58, -12}
, {-189, 32, -10, 27, 35, 70, -158, 28, 66, 61, -132, 61, -2, 13, 30, -110, 21, 9, -32, 73, 1, 35, -24, -77, 94, -66, -39, -161, -303, 4, -15, 19}
, {-76, 64, 65, 14, -18, 90, -63, 81, 61, 94, -17, 22, 56, 7, 81, -201, -17, 27, -127, -25, -171, 40, 73, -1, -173, -34, 110, -118, -61, -149, -77, 68}
}
, {{-87, -102, -135, -6, 97, -139, 22, -12, -78, -91, -52, -14, -112, -2, -77, 132, -5, -81, 48, 76, 54, -25, -61, -6, 14, -5, -129, -55, -53, -52, -36, -90}
, {-198, -8, -24, -136, -12, -101, -241, 36, -65, 14, -285, -9, -6, 0, 1, -93, 8, -68, -99, 31, -88, 2, -15, 61, -23, -15, -221, -47, -160, -82, 70, -63}
, {-30, 44, 65, 25, 40, 37, 18, 63, 26, 42, 9, 68, 8, 22, 35, -280, 0, 72, -192, 13, -43, 60, 79, 164, -68, -22, 83, -150, -68, -69, 80, -15}
}
}
, {{{-47, 28, -61, -49, 14, -5, -96, 33, -67, 13, -160, -64, -17, 2, 34, -20, -42, 39, 91, 98, -8, 9, 44, 26, 111, 36, 7, 48, 7, 68, 52, -29}
, {-18, 50, 83, 41, 42, 45, 89, 25, -13, 19, -11, 70, 59, -34, 26, -147, -3, -15, -183, -52, -46, 37, 23, -2, -20, -73, 18, -11, 26, -135, -55, 68}
, {-61, -107, -42, -7, 0, -14, 96, -66, -20, -117, 52, -50, -60, -140, -71, -77, 20, -53, -22, -8, -15, 11, -107, -169, -8, -77, -31, -118, 46, -50, 8, 11}
}
, {{-130, 7, -127, -24, -42, -64, -21, 9, 18, 45, -125, 33, 10, 3, 32, 34, 38, 53, 17, -73, 35, 14, -29, -35, -33, -44, -202, -97, -29, -54, -9, 25}
, {-3, 31, 65, 39, 66, 29, -26, 8, 20, 28, -49, 12, 57, -58, 43, -236, -42, 52, -39, 59, -54, 36, -16, 16, 97, -26, 20, -74, 11, 115, 91, 9}
, {125, 18, 166, 9, -72, 35, -21, 6, 15, 46, 110, 66, 6, -46, -26, -225, 25, 22, -234, -94, -151, -19, 82, -169, -117, 20, 82, -67, 72, -165, -52, 34}
}
, {{84, -24, -43, 45, -1, -8, -51, 17, 14, 36, 59, 76, 19, -14, -13, -68, 39, 22, -49, 105, 46, 3, 14, 7, -45, 16, 55, -49, 69, -70, 2, 16}
, {-61, -41, 0, 72, -53, -3, -52, 35, 38, 55, -142, 29, 43, -15, 11, -71, -24, 8, -71, -47, -28, 24, -20, -22, -38, -32, -5, -67, -113, -9, -30, 73}
, {45, 75, 35, -9, 18, 6, -57, 84, -19, 76, -50, 74, 41, 49, 90, -107, 3, 59, -66, 85, -31, 41, 66, -13, -35, -31, -53, -109, -143, -30, 62, 54}
}
}
, {{{19, 7, 60, 71, 67, 34, 45, 7, 94, 24, 70, 67, -47, -12, -82, 18, 4, 50, -21, 24, 35, 22, -102, 14, 49, -26, 125, -48, -75, 132, 77, 77}
, {56, -28, 56, -112, 48, -84, -8, 50, -14, -63, 104, -4, -3, 0, -46, 14, -16, -89, -24, 69, -32, -87, 8, 62, -30, -64, 63, 22, 52, 45, 104, -64}
, {44, 73, -2, -27, -29, 32, -1, -54, 41, 45, 49, -47, 79, 65, 35, -96, -23, 0, -96, -39, -114, 68, 109, 149, -43, 74, 18, 70, 20, -98, -101, 27}
}
, {{63, -17, 48, -69, -84, -3, -34, -3, -63, -21, -41, 6, 15, -107, 0, -111, 17, 13, -74, -47, -60, -74, 0, 9, -72, -24, 11, 66, 49, -97, -93, 6}
, {55, 13, -24, 21, -26, 43, 88, 20, 43, 18, 7, -3, 3, 104, 51, -62, 23, 77, -138, -131, -25, 83, 20, 18, -297, 65, 101, 23, 30, -219, -82, -20}
, {-155, -23, -120, 50, -24, -47, 91, 41, -32, 23, -38, 27, -42, -31, -39, 57, 26, 13, 31, 17, 19, -7, -35, -238, -189, -105, -33, -201, -176, -37, -21, -4}
}
, {{27, -1, -53, -10, -34, 35, 62, -52, 27, -2, -48, 45, 88, 82, 16, 104, -19, 23, -11, -50, 136, 73, 48, -36, -169, 78, 6, 123, 4, -78, -49, 59}
, {-194, -83, -115, 41, 33, 68, 48, -34, -2, -29, -28, 17, -78, 35, -50, 111, -16, 44, 36, -41, 86, 47, -77, -84, -114, -86, -172, -75, -264, -135, -2, -2}
, {-72, -55, -52, -90, -40, -123, -19, -42, -104, -91, 38, -42, -176, -87, -91, 128, 14, -92, 10, -64, 77, -144, -89, -32, -38, -108, -10, 2, -41, -80, 2, -108}
}
}
, {{{-51, 98, 60, 16, 106, -17, -94, 75, 34, 73, -97, 39, 0, 79, 0, 34, -42, 34, 21, 73, 43, 15, 15, -38, 36, 12, -34, -52, -98, 93, 93, 34}
, {69, 77, 159, 40, 33, 73, 2, 38, 121, 96, 45, 91, 82, 76, 26, -63, 7, 34, -12, 20, -23, 47, 70, 12, 37, 11, 201, -50, 41, 27, 26, 33}
, {72, 81, 30, 11, -46, 33, -22, 65, 72, -2, -3, 62, 32, -3, 50, -24, 38, 27, 20, 77, -27, 53, 27, -14, -49, -6, 24, -33, 59, 47, -37, 23}
}
, {{31, -148, -36, -84, -15, -154, -8, -97, -223, -130, 43, -108, -89, -107, -116, -10, 2, -117, 88, 87, -4, -119, -114, 27, 72, -109, 67, -94, 119, 131, 87, -123}
, {-137, -32, 8, -123, 73, -148, -89, 40, -42, -30, -164, -98, -65, -73, 41, 37, 27, -79, 79, 106, -13, -102, -14, 8, 133, -151, -131, -198, -45, 181, 69, -81}
, {9, 97, 47, 40, 10, -59, -71, 67, -54, 1, -72, -37, 40, -41, 28, -2, 26, 13, 43, 101, 0, 0, 38, 92, 51, 4, 21, -53, -88, 70, 70, 17}
}
, {{38, 53, 4, -28, -276, 83, 7, -23, 18, 48, -51, 14, 67, 29, -14, -133, -16, 6, -128, -291, -229, 65, 23, -35, -112, 9, 83, 5, -25, -110, -316, 73}
, {39, 37, -84, -4, -203, 57, 74, -52, 38, -28, 38, -16, 33, 32, -53, -106, -19, 1, -130, -198, -93, 33, 20, 30, -97, 6, 28, 59, 4, -92, -181, 33}
, {-58, -81, -126, -7, -85, -3, 23, -125, -14, -74, -69, -61, -46, -98, -52, 45, 20, -16, 19, -37, 0, 13, -113, -12, -7, -8, -58, 26, -63, 34, -97, -6}
}
}
, {{{-75, -15, -53, -16, 38, -104, 6, 31, -86, 22, -67, 0, -50, -2, -76, 30, 21, -60, 20, -4, 9, 26, -54, 51, -9, -43, -119, 4, -28, 6, 65, -61}
, {-67, 9, -1, -5, 24, -51, 2, 29, -21, -10, 71, 14, -23, -14, -27, -7, -32, -40, -60, -12, -22, -49, -19, 57, -34, -9, -122, -6, -11, -59, -63, -17}
, {85, 38, -4, -49, -49, -61, -101, 30, -31, -8, -78, -61, 26, 1, 65, -59, 1, 4, 0, 16, -79, -20, 72, 83, -58, 87, -31, 90, 91, -88, 22, -65}
}
, {{10, -89, -10, -127, 26, -79, -88, -15, -55, -1, 8, -96, -16, 75, -11, -35, -14, -51, -83, -16, -8, -21, 33, 75, 45, 11, -14, -24, 33, 15, 75, -56}
, {-56, -19, 9, 15, 61, 71, -89, 64, 59, 69, -74, 31, 28, 41, 6, -56, -36, -6, -51, 2, 33, 57, 18, 9, 31, 42, -11, 16, -2, 32, -3, -12}
, {-30, 11, 30, 38, 87, -12, -34, 75, 35, 26, -81, 8, 55, 56, 40, 0, -16, 34, 106, 119, 117, -3, 64, 55, -79, -2, -57, 40, 2, 157, 155, 49}
}
, {{-225, 27, -210, -127, 31, -78, -130, 16, 6, -50, -164, -83, -86, -43, 25, 94, 5, -89, 47, 0, 18, -37, -99, -30, 88, -77, -132, -61, -182, 44, -10, -123}
, {-351, 19, -106, 48, 75, -36, -81, 17, -26, -30, -154, -24, -160, -38, 21, -76, -34, 13, -23, -11, 8, 30, -89, -20, 119, -165, -242, -141, -202, 24, 62, -66}
, {-43, 22, 70, -63, 66, -47, -143, 28, -38, 37, -52, 51, -86, 25, 30, -128, -1, 23, -64, 79, -40, 0, -8, 31, 2, -37, -37, -79, -44, 55, 115, -76}
}
}
, {{{-74, 10, -45, -20, 25, 6, 115, 1, 25, 3, -33, 55, -72, 21, -13, -98, -19, -2, -53, 34, -5, 31, -22, -52, 34, -42, -4, -95, -41, 8, 22, -41}
, {20, -19, 27, 3, -107, 15, 42, -40, 0, 50, 35, 34, -9, -44, -19, -49, -13, 32, -125, -86, -28, 18, 7, -31, -61, 15, 27, -41, -6, -108, -87, -26}
, {-1, -188, -102, -103, -20, -49, 95, -162, -76, -165, 42, -62, -41, -167, -157, -48, -43, -70, 78, 18, -28, -110, -97, -80, 60, -42, 48, -38, 40, -1, 31, -64}
}
, {{16, -28, 10, 19, 90, -58, 78, 40, -38, -22, -20, -26, -29, 11, 10, 25, -30, -37, -10, 85, 33, -35, -1, 20, 18, -12, 156, -49, -55, 26, 112, 34}
, {77, 52, 49, -4, 120, -33, -1, 75, 30, 72, 82, -32, -57, 57, 76, -197, -42, 40, -101, 161, 52, 26, 44, 116, -115, 8, 90, -63, -12, 14, 131, -39}
, {69, 47, 114, -4, 63, 19, 73, 35, 77, 36, 51, 79, 13, -53, -82, -153, 20, 27, -159, -42, -72, -3, 47, -140, -166, 33, 133, -15, 36, -132, -72, 71}
}
, {{57, -72, -29, 25, -164, 34, 75, -84, 33, -29, 78, -32, -15, -82, -10, -9, -11, 9, -73, -59, -14, 38, 12, -66, -118, 70, 84, 34, 73, -49, -170, 33}
, {53, -7, -15, -81, 33, -43, -8, 3, -5, -41, 102, -65, -61, 51, -45, -80, -27, -69, 8, 32, 47, -34, 11, 76, -81, 40, 48, 53, 22, 13, 69, -65}
, {-64, 30, 20, 20, 13, 40, 10, -40, -32, 23, 69, -7, 4, -19, -32, -93, -31, -22, -70, 53, -46, 20, 33, -6, 7, 34, 20, -13, 3, 8, -71, 36}
}
}
, {{{-47, 21, -40, 21, -31, 7, 107, 23, 19, 32, 35, 46, 8, 34, 54, -51, 20, 37, -81, -77, -14, 6, -21, 62, -113, -51, -73, 3, -82, -89, -32, 45}
, {-44, 97, -35, 70, 53, 53, -9, 82, 12, 23, -7, -6, 59, 90, 41, -18, 21, 22, -54, -15, -19, 55, 87, 102, -129, 38, -27, 27, -66, 15, -20, 72}
, {-172, -1, -83, 106, 28, 103, 39, 36, 101, 113, 17, 100, 27, 52, 79, 22, -43, 67, 8, 0, 74, 45, -10, -25, 16, -29, -121, -74, -160, -7, -21, 112}
}
, {{-90, 14, -94, 24, 100, -14, 11, 9, -28, 0, -44, 16, -65, -39, -31, 21, 36, 10, 53, 78, 98, 17, -167, -61, 48, -68, -80, -152, -136, 0, 89, 12}
, {-124, -48, -115, 27, 86, -81, -81, 61, -40, 4, -115, 43, -137, -88, -1, 98, -28, 4, 117, 169, 89, 22, -167, -57, 72, -213, -145, -268, -211, 128, 97, -64}
, {-170, -104, -176, -5, -27, -147, -26, -73, -153, -30, 28, -67, -175, -142, -62, 102, 34, -78, 72, 13, 45, -146, -93, -113, 11, -167, -111, -185, -51, -40, -29, -69}
}
, {{63, -78, 31, -56, 28, -44, 11, -29, -62, -91, 51, -62, -77, -166, -124, 42, 1, -52, 20, 107, 28, -131, -108, -63, 81, -80, 12, -36, -26, 134, 47, -70}
, {47, -20, -17, -161, -128, -84, -92, -58, -4, -87, -41, -136, -12, -110, -56, 29, -25, -72, 60, 19, -87, -45, 2, -5, 2, 11, 109, 55, 74, -2, -37, -96}
, {-9, -3, -6, -111, -141, 28, -53, -22, 42, -8, -90, -12, -52, 73, -22, 39, 38, 18, -69, -138, -206, 26, -6, -25, -61, -8, 34, 27, -44, -119, -99, -8}
}
}
, {{{-6, -6, 28, -36, 4, -45, -53, 31, -33, -3, 61, 31, -38, -10, 32, 50, -40, -44, 7, -13, -10, -41, 8, 47, 35, -1, 1, -20, -15, 4, -41, -64}
, {62, -6, 7, 9, -158, 11, -4, -75, -32, -20, 38, -28, 39, -33, -11, -59, -41, -4, -131, -139, -86, 13, 42, 46, -112, 75, 72, 128, 184, -132, -183, 60}
, {-11, 4, -56, 23, 114, -22, -39, 45, -21, -20, 53, -24, -31, 57, 8, -6, 13, -55, -6, -41, 85, 15, -25, -30, -74, -20, 87, -12, 52, -48, 8, 57}
}
, {{-55, -2, -52, -33, -114, -18, -101, 61, 59, 14, -135, 1, 26, 56, 60, -88, 5, 40, -152, -39, -150, 43, 47, -23, -16, 52, -4, -4, 36, -67, -73, -11}
, {-10, 9, 64, 57, -44, 64, 83, -23, 39, 79, -34, 66, 50, 79, 28, -54, 12, 44, -84, -90, -88, 32, 42, 9, -224, -18, -25, -41, -98, -146, -43, 49}
, {76, -59, 41, -48, 41, 52, 13, -6, 8, -28, 69, -14, 3, 20, -69, -66, 8, 2, 8, -8, 3, 15, -55, -39, -32, 19, 73, 13, 66, -31, -11, 13}
}
, {{-93, 44, 5, -6, -77, 40, -38, -31, 31, 5, -19, -21, -31, 27, 26, -65, 2, 23, -152, -112, -157, 18, 32, -17, -61, -9, -53, -71, -82, -165, -26, -37}
, {-41, 28, 50, -24, -50, 16, -45, 64, 67, 86, 123, 41, 19, 6, 50, -138, -28, 54, -147, -56, -173, -3, 58, -13, -73, -22, 87, -92, 28, -99, -79, 11}
, {122, 22, 133, 36, 34, -3, 36, -14, 6, 6, 45, -15, 23, -36, 16, -140, 30, -11, -79, 46, -12, -9, 13, 10, 64, 34, 35, 2, 115, 61, 107, -38}
}
}
, {{{-42, -48, -6, 12, -18, -36, 17, 6, -46, -56, -20, -5, -8, 13, -21, -56, 10, -37, -39, -85, -63, -75, -50, -1, -42, -13, -38, -22, 19, -21, 46, 23}
, {10, -24, 42, -22, -78, 18, 35, -124, -2, -25, 9, -41, 39, -33, -49, 17, -6, 15, -75, -62, -60, -29, -43, -74, -38, 9, -16, 37, -20, -140, -84, -9}
, {-43, 17, -34, -28, -21, -21, -26, -47, 24, -24, -22, -30, -30, 21, 28, 34, 11, 11, 39, 1, 18, -4, 15, 12, -68, 71, -48, 27, -19, 65, 69, 1}
}
, {{-22, 16, 44, 33, 10, 41, -64, -26, 22, -2, 14, 2, 48, -45, 11, -68, -35, -39, 41, 33, 16, 28, -15, -80, 14, -4, -8, -11, 8, 36, 70, 4}
, {-9, 51, 70, -25, 97, 9, -1, 61, -31, 46, 21, 57, -9, -3, -3, -200, 42, 23, -27, -5, 53, -31, 7, -8, -18, 63, 54, -3, 49, 68, 23, -24}
, {96, 37, 28, 42, 35, 2, 23, -33, 46, 27, -27, 24, -11, -75, -27, -109, -12, 33, -136, -59, 67, 21, 4, -41, -145, -34, 27, -6, 81, -73, 27, -9}
}
, {{-65, -26, -74, 28, 43, -3, 40, 0, 3, 2, -55, 35, -31, -103, -68, -21, 10, 50, -16, -15, 50, 6, -128, -162, 8, -98, 47, -143, -78, -18, 7, 3}
, {-49, 80, 26, -7, 98, 28, -97, 75, 3, 34, -142, 79, -2, 29, 54, -30, -22, 34, 42, 110, 53, 9, -17, 0, 109, -85, 131, -139, -153, 195, 64, -7}
, {147, 21, 102, 15, 120, 56, -27, 57, 22, 3, 152, -19, -38, 2, -45, -56, 30, -26, 43, 97, 92, -45, -58, 11, 56, 0, 205, -65, 100, 123, 149, -24}
}
}
, {{{-66, -8, 18, 45, 59, 22, 108, 41, 64, 12, -4, 99, 69, 35, 10, -135, -23, 3, -61, 71, -132, 12, 13, 32, -154, 40, 1, -34, -9, -100, 70, 95}
, {80, -53, 21, 35, -17, 45, 42, -84, 30, 10, 117, -59, -10, -210, -69, 27, -29, 14, -54, -43, -44, -92, -142, -263, -23, -30, 135, -150, 67, 40, 16, -28}
, {-75, -36, -164, -133, 25, -85, -195, 38, -110, -5, -62, -90, -61, 6, -4, -13, 17, -75, -34, 15, 40, -92, -57, 112, 41, -78, -87, -25, 58, 73, -9, -135}
}
, {{-39, 65, 72, 0, 17, 1, 125, 58, 39, -14, 74, 39, 71, 112, 103, -255, 33, 36, -244, -52, -143, 27, 102, 120, -262, 77, -47, 6, -116, -152, 93, 83}
, {49, -36, 18, 36, -257, 9, 93, -175, -45, -48, 109, -64, 34, -197, -59, -83, 4, 60, -175, -252, -167, -76, -63, -256, -3, -127, 58, -172, 8, -33, -274, 36}
, {25, -13, -106, -108, -24, -27, -205, -30, -107, -53, -83, -58, 10, 80, 4, 23, -41, -81, 128, -63, -61, -43, 1, 117, 146, -46, -93, 90, -42, 123, 45, -77}
}
, {{-80, 42, 45, 17, -53, -14, 44, 34, 35, 41, 84, 60, 28, 4, 20, -123, 39, 20, -111, -47, -49, 50, 43, 113, -127, 42, 31, 28, -65, -114, -68, -2}
, {-45, -22, -33, 22, -70, 15, 61, -86, 1, -58, 106, -43, -20, -137, -15, 19, -30, 41, -16, -112, 44, -91, -95, -117, -54, -53, -69, -41, -6, -89, -182, 30}
, {-82, -41, -111, -12, -18, -87, -123, -10, -6, -17, -96, -33, -80, 18, 47, -8, -31, -25, 64, -1, -52, -37, 1, 89, 108, -31, -148, 73, 14, 42, 17, -64}
}
}
, {{{35, 40, 64, 41, 103, 23, 74, 29, 15, 10, 53, 33, 6, 13, 11, -12, -10, -1, 56, 109, 75, 5, 3, 57, -15, 7, 7, 47, 106, 32, 97, 30}
, {-52, -51, -26, -1, 23, 18, 9, -24, -3, 13, 22, 15, -22, -65, 25, 39, 38, 16, -26, 69, 5, -19, -122, 71, 56, -70, 38, -99, -15, 20, 8, 63}
, {-165, -55, -234, -56, -15, -69, 69, -111, -116, -122, 100, -70, -234, -18, -71, 41, 27, -116, 22, -10, 21, -65, -86, 48, 26, -128, -222, 7, -66, -99, -6, -57}
}
, {{1, -8, 23, 4, -14, 0, 12, 45, 61, 55, 18, 11, 39, 78, 58, -11, 5, 33, -14, 20, -29, 81, 23, 118, 0, 33, 0, 25, -50, 47, 39, 5}
, {-126, -225, -32, 95, -13, -2, 63, -163, -52, -116, 37, -72, -73, -299, -93, 67, 10, -16, 27, -65, 21, -56, -274, -92, 20, -229, -42, -347, -43, 1, -30, 31}
, {-92, 91, -119, -308, -90, -273, -233, -11, -108, -15, -70, -168, -43, 37, 12, 6, 11, -103, -36, -120, -70, -45, 69, 12, -23, -5, -153, 111, 11, -103, -92, -325}
}
, {{-118, -58, -64, 42, 83, 27, 40, -34, 42, -11, -94, 22, -51, -100, 15, 85, 19, 33, 127, -13, 82, 89, -119, 18, 86, -82, -160, 38, -74, 4, -36, 84}
, {-222, -167, -120, -89, -151, -93, -23, -189, -218, -292, -4, -151, -175, -73, -219, 82, 41, -156, 22, -155, 35, -255, -111, 18, 64, -104, -244, -104, -120, 9, -269, -91}
, {-37, 39, -131, -118, 5, -20, -193, 100, 19, 95, -200, 22, 38, 123, 50, 31, 28, 10, -15, -58, -78, 67, 9, 5, 42, 22, -37, -21, -56, 72, 21, -35}
}
}
, {{{9, -40, 16, -12, -21, 12, -121, 3, -34, -22, 70, 50, -63, -54, -13, -37, -1, -18, -41, 13, -43, -28, -53, 4, -64, -7, 26, -38, 30, -19, -9, -55}
, {16, 16, 34, -42, 16, -24, -112, 6, -53, 44, 41, -20, 7, 33, 51, -150, -5, -54, -77, 49, -48, -6, 87, 53, -66, 59, 10, 51, 55, 2, 40, -75}
, {-33, 76, -7, 42, 77, 70, -89, 64, 50, 68, -148, 51, 20, 60, 91, -221, -19, 77, -78, 26, -25, 118, 46, -16, -140, 68, 4, 66, -5, 46, 78, 40}
}
, {{8, 26, -38, 61, 50, 38, -9, 39, 25, 21, -99, 42, 39, 88, 40, 29, 3, 1, 44, 36, 11, 52, 25, 30, -45, 20, 23, 11, 16, -27, 23, 48}
, {-39, -1, -67, 66, 93, 40, -3, 17, 53, 10, -110, 68, -1, 53, -16, 12, 17, 16, 106, 60, 71, 27, -49, -11, -53, -4, 37, -20, -69, 8, 75, 29}
, {-158, 31, -121, 86, 19, -5, -67, 45, 21, 55, -161, 8, -25, 3, 1, -14, 0, -28, 63, 122, 29, 49, -77, 1, 37, -119, -118, -145, -305, 46, 50, 77}
}
, {{64, -65, 98, -10, 36, -23, 42, -92, -50, -4, 24, -65, -22, -57, -42, 8, 11, -66, 88, 62, 46, -85, -41, -5, 22, -21, 15, -132, 9, 62, -2, -38}
, {34, -51, -96, -100, -74, -59, 40, -23, -84, -42, 7, -57, -128, -174, -38, 10, -34, -57, -31, 6, -95, -145, -18, 5, -8, -83, 77, -38, 79, 45, -53, -133}
, {-63, -26, 19, -86, -58, -18, -68, -31, -86, -67, -74, -45, -16, 35, -2, -20, 27, -54, -14, -14, -51, -41, -4, 5, -24, -47, -117, 37, -36, -41, -13, -73}
}
}
, {{{-1, -28, -20, 0, 50, -54, -43, -19, -19, -80, 53, -33, -56, -89, -73, 140, -34, -67, 172, 62, 32, -98, -15, 7, 11, 12, 28, 14, 14, -9, 8, -53}
, {14, 17, -66, -73, -96, 9, -10, -9, 5, 82, -137, -42, 54, 37, 81, -69, -36, 64, -49, 51, -119, 86, 38, 81, -140, 12, 91, 74, 13, -171, -54, -11}
, {-106, 76, -20, 41, 95, -15, -1, 55, 33, 34, -57, 49, 51, 63, 81, 21, -21, 44, 75, 60, 65, 64, 64, 25, -122, 45, -102, -61, -100, 72, 57, 60}
}
, {{69, 17, -31, -56, -119, -21, -76, 13, -2, 22, -132, -66, 55, 17, 11, -65, -38, 5, -114, -115, -199, 13, 7, 43, -140, 67, 52, 21, 67, -234, -78, -87}
, {-116, -28, -57, 42, 14, 24, 157, -2, 25, 14, 13, 4, 2, 90, -7, 62, -18, 15, 69, -62, 90, 7, -14, 18, -244, 21, -53, 24, -112, -137, 2, 51}
, {-187, -28, -49, -21, 19, -43, 65, -28, -27, -67, -51, -2, -49, -65, -18, 46, 5, -47, 4, 19, -11, -45, -116, -127, -38, -127, -224, -178, -201, -54, 10, -46}
}
, {{-164, -13, 14, 56, 39, 61, 221, -6, 25, -27, -9, 36, -7, 14, 2, -3, -15, 55, -13, -17, 97, 83, 5, 22, -130, 18, -75, -3, -37, -69, 19, 40}
, {-93, -12, -25, -59, 99, -35, -21, 5, -29, -15, 32, 2, -82, -55, -13, 41, 30, -13, 9, 10, 127, -39, -90, -52, -88, -72, -88, -29, -50, -2, 69, -75}
, {77, -36, 65, -1, -4, -39, 99, -47, -11, -8, 27, -17, -1, -120, -44, -30, -32, 0, -65, 54, 10, -68, -30, -55, 6, -39, 76, -32, 32, -14, 5, -36}
}
}
, {{{-12, 35, 17, 67, -46, 54, 43, -16, 51, 28, -31, 36, 1, 27, -2, -163, 17, 32, -141, -56, -89, -1, 50, -41, -18, -38, -2, -30, -23, -110, 16, 86}
, {50, -53, 10, -24, -95, -58, -3, -60, 18, -60, 93, -45, 35, -14, -29, -4, 36, 18, -79, -16, -115, -5, -10, -55, -9, -4, -49, 18, 19, -60, 12, -80}
, {-48, -102, -85, -18, 56, -74, 16, -22, -117, -115, 62, -84, -62, -41, -46, -75, -23, -52, -37, 28, 105, -78, -105, 19, -23, -71, -98, -50, 61, -98, 40, -80}
}
, {{-39, 48, 14, 12, 49, -59, -164, 42, -15, 17, -37, 21, 3, -6, 92, -105, 10, -9, -33, 81, -21, 62, 2, -38, 36, -34, -92, -164, -103, 50, 55, 6}
, {21, 83, 146, 33, 69, 51, -52, 65, 64, 110, 59, 16, 69, -35, 55, -285, -30, 55, -105, 93, -31, 1, 93, -55, 90, 40, 108, -67, 8, 91, -21, 49}
, {44, 13, 12, 7, -69, 40, -46, -27, 20, 40, 50, 43, 49, -9, -33, -290, 36, 27, -224, -161, -138, 7, 84, -97, -230, 82, 120, -9, 101, -23, 10, 2}
}
, {{-80, 0, -101, 4, 6, -27, -101, -25, 29, 6, -149, -17, -59, -67, -7, 10, 5, -4, -25, 49, -18, 17, -68, 36, -1, -75, -21, -89, -59, -14, 46, -26}
, {-65, 30, -61, 4, 56, -40, -55, 43, -30, -15, -219, -47, -45, 48, 62, -65, 10, 46, 23, 63, 43, -63, 28, 41, 71, -91, -96, -134, -231, 39, 67, -42}
, {92, 75, 73, 54, -13, 54, -37, 27, 52, 18, -89, 55, 1, -32, 18, -40, -39, 58, -10, 26, -19, 21, 10, -60, -43, 4, 46, -130, -88, 21, -5, 97}
}
}
, {{{112, -26, 47, 11, -17, 47, 103, 22, 45, 12, 38, 51, 65, -64, -11, 14, -15, 33, 33, -30, 13, 72, -62, -211, 23, -15, 142, -40, 78, 68, 35, 42}
, {-16, -36, -129, -38, 60, -1, -127, 7, -18, -42, -123, -12, -90, -35, 6, 2, -22, -83, -19, 7, -7, 4, -63, 0, 29, -37, -8, -30, -46, 48, 73, -66}
, {19, 65, 103, -27, 8, 9, 55, 64, 29, 6, 1, 73, 5, 20, 65, -176, -29, 66, -106, 46, -76, 36, 59, 36, -121, 42, 34, 31, 57, -136, -1, 26}
}
, {{53, -42, 42, 7, 82, 8, 78, -94, 0, -44, 78, -17, -31, -184, -62, 44, 33, -1, 72, 41, 113, -80, -117, -137, -30, -115, 82, -54, 152, 29, -5, 14}
, {-87, -43, -113, -137, 0, -153, -185, -8, -201, -141, 50, -131, -90, -5, -21, 39, -6, -137, 64, 27, -32, -129, -26, 1, 40, -73, -148, -57, -68, -75, -27, -205}
, {-63, 36, 53, 3, 30, 37, 169, 74, 81, 81, -83, 65, 55, 71, 70, -317, -14, 33, -174, 61, -188, 54, 65, 159, -166, 32, -135, 83, -84, -66, 37, -9}
}
, {{7, -72, 103, 8, -34, 16, -31, -99, -48, -123, 29, -36, 21, -119, -34, 87, -5, -76, 72, -18, 88, -79, -35, -53, 16, -46, 3, 7, 15, -20, -28, 8}
, {23, -25, -73, -103, 34, -59, -170, -4, -22, -85, 20, -57, -41, 28, 0, -75, 35, -55, -63, -40, -138, -44, -31, 16, -44, -30, 20, 0, -19, -125, 13, -52}
, {-112, 6, -38, 48, 5, 16, 142, 102, 42, -4, 104, 20, -10, 2, 53, -220, -26, 33, -214, 0, 45, 51, 37, 145, -315, 22, -142, 59, -83, -188, 33, 44}
}
}
, {{{24, 13, 25, 3, -17, 12, 0, 34, -33, -39, 1, 63, 52, -64, -15, -7, -42, 6, 65, 35, -30, -41, 25, -47, -16, 25, -74, -31, 29, 88, 11, 31}
, {41, 72, 78, -12, -91, 42, -39, -26, 17, 46, 10, 7, 61, -8, 25, -28, -9, -3, -37, 114, -93, -9, 65, 4, 18, 4, -6, -15, -24, 0, -51, -1}
, {-69, 10, -66, -13, -114, -7, -79, 40, -17, 9, 29, -18, 6, -41, 46, -54, 28, -9, -114, -122, -95, -20, 39, -23, 32, -66, -81, -52, 59, -48, -59, -3}
}
, {{54, 11, -19, 57, -147, 49, 15, -33, 43, 0, -43, 15, 93, 10, 45, -143, -15, 55, -80, -21, -122, 77, 69, 45, -157, 81, 20, 41, -78, -115, -146, 69}
, {-36, 18, 1, 30, -45, 71, -86, 35, 56, 80, -86, 90, 29, 19, 53, 23, 31, 40, 15, 36, -48, 100, -1, -168, -16, 33, -26, -63, -168, 23, 15, 42}
, {-1, 65, -4, 11, 23, -3, -83, 14, 61, 28, -9, 57, 51, 9, 18, -17, 25, 6, 57, 5, -16, 40, 12, -221, 88, -52, -62, -234, -105, 82, 9, 33}
}
, {{-168, 44, -24, 64, -19, 95, 12, 1, 28, 49, 25, -23, 37, 4, 49, 53, -4, 75, -106, -62, 17, 45, 103, -23, -225, 44, -51, -35, -174, -208, -32, 42}
, {-180, 28, -71, 47, -67, -22, -101, 6, 53, -2, -30, 20, 34, -50, 35, -9, -16, -3, -119, -121, -20, -15, 14, -188, -74, -106, -138, -305, -75, -78, -174, -40}
, {-171, -11, 26, 70, -110, 39, -43, -43, 42, 16, -51, -38, -50, -88, -1, -9, -8, -12, -117, -128, -52, -14, -57, -148, 96, -40, -91, -63, -42, 55, -26, 25}
}
}
, {{{13, 8, -55, -9, 94, -43, -18, 39, -12, -13, -76, -8, -13, 14, 35, 41, -12, -8, -21, 90, -29, 5, -3, 8, -27, 6, -73, 22, -45, 12, 54, -26}
, {-119, 50, -42, 90, 24, -2, 2, 46, 24, 46, -83, 23, 37, 57, 50, 0, -6, 37, -45, 35, -29, 30, 44, -23, -49, 0, -161, -61, -77, -82, 1, 77}
, {-54, 64, -63, 65, 66, 42, -64, 78, 64, 17, -25, 11, -10, -12, 98, -64, 24, 12, -23, 47, -81, 20, 54, -8, -71, -12, -40, -32, -64, 22, 11, -40}
}
, {{-9, -43, -153, 64, 64, 21, 80, 0, -69, -12, -4, -99, -30, 14, -3, 1, 34, -17, -4, 73, 83, -6, -54, 38, -84, 3, -109, 48, -11, -118, -1, 18}
, {-130, 9, 18, -38, -24, -44, -19, 68, 19, 66, -3, 13, -112, 48, 61, -61, 41, -25, -38, 7, -84, -13, 22, 17, -59, 1, -135, -43, -92, -58, -36, -49}
, {-104, 27, -57, 52, -23, 0, -32, 80, 53, 49, -70, 10, -17, 46, 56, -252, -26, 60, -152, -58, -111, 46, 10, 37, -143, -26, -99, -72, -41, -9, 5, 1}
}
, {{-57, -148, -86, 10, -35, 5, 102, -81, 13, -54, 71, 51, -61, -26, -108, 12, -7, -13, 69, -57, 9, -22, -131, -36, -11, -110, 57, -40, -63, -22, -58, -11}
, {-267, -25, -203, -58, 90, -75, -84, 19, -85, -21, -156, 8, -102, 2, 107, -103, 29, -14, -51, 89, 51, -38, -74, 9, 78, -131, -203, -103, -202, 78, 74, -115}
, {43, 50, 113, 30, 143, 79, -18, 108, 6, 70, 3, 101, -33, 37, 8, -91, 31, -15, 27, 76, -1, 12, 63, 33, 29, -41, 67, -129, -53, 167, 48, 26}
}
}
, {{{-35, 41, -8, 32, -21, -6, 26, 15, 26, 33, 13, 4, 25, -2, 56, 36, 40, 44, 86, -35, 63, 31, 17, 8, -50, 94, -35, 91, -7, 15, 99, 30}
, {49, 49, -10, 16, 79, 70, -25, 73, 70, 35, -104, 15, 34, 65, 25, -17, 22, 51, 90, 106, 65, 33, 26, 42, 46, 23, 87, 42, -24, 55, 105, 50}
, {82, 42, 146, 64, 58, 100, -101, 88, 68, 58, -86, 89, 77, 3, 41, 0, 31, 88, 19, 70, 65, 121, 79, -95, -31, 35, 152, -3, 56, 35, 69, 76}
}
, {{-146, 24, -134, 2, -30, -26, 17, 38, 4, 16, 37, 12, -48, -74, -3, -36, 6, 40, -30, -34, -2, 33, -69, -13, -33, -115, -137, -182, -54, -66, 13, 26}
, {-191, -83, -140, -18, -14, -63, -53, 23, -64, -52, -3, -14, -71, -5, 8, 21, 18, -92, 12, 18, -13, -51, -134, 70, -10, -115, -131, -109, -1, -11, 3, -108}
, {-197, 72, 11, -30, 104, -14, -100, 17, -15, 26, -303, 33, 40, -24, 79, -128, 34, 78, -18, 70, -54, 49, 26, 67, 35, -55, -119, -87, -143, -13, 81, -14}
}
, {{-19, -57, 7, -36, -45, 11, 48, -76, 3, -9, 55, 6, 35, -183, -117, -34, 36, 21, -2, 23, -19, -51, -101, -107, 35, -56, 81, -123, 25, 44, -63, -2}
, {-120, -49, -216, -176, -20, -154, -105, -16, -146, -110, 18, -206, -123, 7, -19, -31, -20, -111, -109, -100, -109, -60, -35, 13, -49, -65, -105, -73, -69, -84, -51, -201}
, {-165, 5, -90, -53, 6, -28, -3, -8, 13, -1, -166, -45, -27, 60, 22, -68, -41, 12, -80, -58, -158, -16, -22, 60, -33, -9, -213, 48, -125, -124, -9, -44}
}
}
, {{{-124, -6, 6, 40, -1, 4, 67, 21, 9, 3, 44, 5, -59, 9, 8, -7, 38, 32, -11, -8, -58, 52, -81, -27, 12, -65, -33, -143, -56, 1, 94, 55}
, {-99, 5, -37, -9, 21, -36, 56, 59, -64, 28, 31, 74, -14, -8, 17, -76, 40, -12, -75, -3, -99, 1, -41, 81, -17, -108, -119, -103, -123, -54, -23, 17}
, {-25, 36, 61, -48, -70, -46, -76, -11, -40, 23, 8, -77, -39, 41, 8, -96, 28, 6, -16, 54, -135, -14, 28, 33, 4, 42, -20, -9, 29, -24, -54, -19}
}
, {{-2, -55, -9, -21, -28, -5, -66, 3, -64, -29, 62, -57, -50, 31, 17, -127, -18, 3, -105, 13, 41, -13, 31, 23, -13, -31, 10, -21, 83, -45, 8, -26}
, {40, -18, 37, -13, 23, 11, -68, 57, 18, 47, -33, 55, 65, 7, -14, -181, -40, 30, -101, -17, -58, 10, 80, 68, -43, 75, 33, 28, 41, -36, 6, 40}
, {-4, 66, -24, 82, 116, 26, -48, 56, 29, 51, -128, 37, 18, 45, 13, -101, 39, 18, 20, -1, 38, 88, -18, -34, -75, 16, 22, -26, -7, 110, 107, 34}
}
, {{-42, 7, -65, 35, 73, 6, -11, -32, 25, 29, -147, 35, -13, 24, -19, 73, -1, 2, 77, 60, 62, 32, 2, 12, -55, -57, 127, -39, -87, 8, 29, 33}
, {-159, -15, -123, 25, 81, -44, 28, -2, -18, -41, -108, -9, -128, -56, -46, 82, -29, -43, 127, 116, 102, -58, -155, -22, 27, -166, -133, -220, -173, 29, 73, 12}
, {-65, 4, -129, 11, 18, -118, -133, 8, -45, -121, -150, -81, -36, 9, 42, 37, -23, -23, 21, 1, -20, -34, -47, 15, 51, -104, -67, -72, -120, 22, 50, -22}
}
}
, {{{123, -257, 9, -119, -33, -146, -116, -166, -134, -223, -17, -161, -72, -167, -104, -9, 41, -145, 26, -4, -3, -245, -4, -3, 11, 111, 33, 135, 100, 120, 2, -149}
, {9, -223, -10, -129, 1, -185, -209, -115, -250, -217, -37, -197, -98, -254, -89, 66, -13, -144, 200, 141, 63, -258, -28, -6, 104, 9, -36, 41, 123, 154, 121, -215}
, {-50, -185, 4, -169, 21, -169, -133, -108, -224, -167, -16, -105, -88, -112, -83, 86, 3, -139, 38, 109, 47, -160, -100, -48, 46, -84, -13, -105, 39, 44, 109, -211}
}
, {{41, 20, -14, 100, 30, 66, -13, 12, 72, 49, -19, 78, -12, 2, 0, -60, -20, 78, 7, 46, 66, 38, 27, -104, -75, 60, -33, 37, 1, -22, 47, 31}
, {38, 56, 46, 47, 69, 91, -47, 79, 74, 74, -8, 100, 30, 29, -22, -69, -30, 52, -29, -10, 47, 29, 63, -101, -92, 8, -18, 29, -63, -35, 62, 46}
, {17, 15, 61, 45, -8, 33, 50, 6, 18, 21, 55, 34, 31, -11, -66, -41, 29, -12, -85, -162, -57, -15, -55, -88, -37, 10, 16, -15, 3, -31, -39, 38}
}
, {{53, -10, -26, 28, 43, 7, 70, 32, -64, -9, 14, -3, 8, 13, -28, 0, 22, 12, -2, -5, 45, -21, -41, -1, -19, -7, 24, 27, 2, -65, 49, 14}
, {-46, -22, 8, -36, 52, 35, -5, 22, 61, 36, -30, -12, -5, 29, 24, 21, -15, -15, -57, 107, -58, -2, 23, -8, -15, 17, 1, -71, -41, 40, 16, 6}
, {20, -31, 29, 8, 89, -6, 33, 54, 25, 21, 32, 12, -18, -61, -11, -9, -14, -8, -65, 4, -32, 20, -50, -82, 39, -21, 82, -70, -25, 47, 51, 12}
}
}
, {{{-14, 65, 5, 28, -1, -16, -87, -29, 22, 89, 3, 26, 6, -29, 40, 43, 25, -4, -10, 79, -90, 33, -31, -11, 24, -29, 0, -56, -64, 40, 9, -19}
, {25, 33, 117, 44, -4, 25, 74, -51, -5, 14, 22, 23, 18, 24, -17, -18, -27, -28, -15, -18, -71, 37, 29, -13, 6, -14, 9, -39, -53, 40, -11, 55}
, {43, 22, -45, -26, -103, 9, -94, -8, -10, 4, 52, -30, 26, 22, 30, 9, 17, -71, -13, -103, -70, -20, 42, -50, 40, 51, 34, 3, -18, -51, -127, -44}
}
, {{-63, 19, -112, 20, -6, 26, -211, 30, 13, 21, -77, -42, 28, 52, 26, 11, 6, 55, -60, -97, -141, 73, -27, -35, -85, 8, -37, -75, 9, -77, -67, -45}
, {-3, 59, 15, 2, -93, 21, 0, 41, 56, 69, -124, 49, 70, -42, 41, -131, -12, 19, -114, -107, -76, -1, 4, -12, -149, 43, -120, -36, -45, -195, -33, -28}
, {-4, 53, -17, 38, -42, 87, -66, 48, 55, 79, -5, 90, 89, 54, 32, -149, 18, 70, -136, -104, -18, 44, 65, -33, -153, 26, -18, 28, 50, -82, -75, -6}
}
, {{-7, 66, -9, 65, 17, 19, -35, 70, 42, 60, -157, 28, 39, 28, 75, -35, 20, 17, -13, 4, 63, 34, -29, -4, -22, -13, 2, -1, -28, -75, 29, 32}
, {-109, 2, -33, 50, 65, 17, -6, -12, -33, -5, -68, 39, -9, 7, 16, -29, 41, -2, -78, -46, 4, 45, -26, -15, -92, -89, -55, -60, -118, -22, 32, 55}
, {-121, 25, 22, -63, 23, -58, -41, 17, 0, 36, -41, 13, -21, -53, 49, -107, -41, -39, -61, 31, -4, -14, 49, 35, 38, -109, -148, -117, -48, 0, 36, -69}
}
}
, {{{71, -31, 21, 7, 7, 19, -33, -9, 27, -23, 72, 45, -21, 43, -30, -19, -37, -43, -62, -91, -17, -2, 8, -83, -17, 35, 16, -4, 0, -39, 11, 6}
, {69, -6, -29, 26, 34, 15, -35, 14, 30, 39, -8, -15, 11, -5, -21, -22, -6, 52, -37, 31, 5, 4, 50, 19, -27, 32, -31, 62, 43, 32, -9, -12}
, {62, -4, -29, 43, 100, 33, -42, 36, 60, -24, -18, 0, 52, 17, -23, 12, 1, 31, 14, 5, 72, 10, 57, -31, -18, 16, 19, 100, 120, 108, 26, -6}
}
, {{-52, 51, -23, 11, 64, 46, -61, 37, 6, 11, -179, 72, -4, 41, 77, 61, 23, -44, 32, 68, 34, 46, -16, -34, -12, -40, -103, -91, -109, -1, 63, -35}
, {185, 30, -21, 71, 66, 40, -45, 70, 66, 70, -151, 81, 79, 49, 28, 46, -11, 46, 88, 84, 39, 55, -44, -48, 10, -14, 130, 72, -5, 99, 57, 57}
, {28, 54, -87, 76, 55, 33, -24, 42, 87, 47, -180, 108, 9, 104, 31, 35, 32, 14, 1, 14, 58, 128, 5, -5, -23, -29, 65, -1, -132, 59, -14, 66}
}
, {{96, -104, -52, -101, -34, -139, -89, -58, -103, -80, 0, -122, -53, -65, -45, 23, -11, -106, 34, 75, -37, -117, -77, 7, 48, -23, 131, 14, 84, 60, 71, -127}
, {74, -146, -84, -119, -53, -118, -86, -60, -143, -181, -110, -166, -151, -158, -108, 36, -6, -186, -8, 25, -69, -223, -38, 39, -2, -89, 66, 11, 67, 57, -57, -153}
, {-41, -98, -48, -221, -68, -111, -62, -98, -130, -131, -178, -131, -28, -151, -99, 112, -13, -69, 42, -30, -64, -141, -43, -77, 81, -42, -70, -34, -51, -19, -72, -120}
}
}
, {{{14, 9, 55, -31, -142, 17, -59, -105, 5, -12, 53, 1, 5, -42, -15, -98, -16, -13, -111, -199, -235, 21, 65, -6, -28, 54, 92, 1, 32, -98, -197, -37}
, {-34, -47, 3, -4, -53, 18, -30, -50, 26, 3, 27, 4, 14, -6, -28, -123, 29, 32, -164, -164, -154, 22, 15, 21, -75, 37, -11, -16, 40, -198, -114, -17}
, {39, -77, 30, -69, -60, 25, 40, -144, -46, -74, 74, -19, 23, -38, -17, -37, -4, -17, -96, -185, -91, -11, 13, 35, -82, 66, 10, 38, 53, -21, -124, -26}
}
, {{-63, 45, -1, 43, 99, -12, -26, 92, 48, 106, -41, 110, -15, 5, 57, 43, -35, -17, 31, -9, 61, 38, 6, -112, -24, -65, -22, 2, -59, 65, 29, 41}
, {71, 63, 44, 25, 20, 19, -29, 44, -2, 6, -140, 85, 57, 25, 36, 59, -19, 26, 135, 55, 66, 6, -37, 30, -11, 59, 20, 87, 15, 80, 110, 21}
, {55, 71, -62, 82, 112, 82, -67, 61, 104, 52, -105, 17, 58, 79, 89, 12, 13, 106, 53, 65, 94, 70, 50, -76, -43, 5, -6, 63, -30, 13, 47, 103}
}
, {{-115, -44, -14, -36, 17, -90, -20, -26, -73, -52, 20, -98, -29, -77, -8, -31, 22, -4, 6, 14, -55, -54, -92, -12, 82, -115, -42, -128, -52, 40, 50, -51}
, {-137, -87, -120, -31, 24, -91, -70, -103, -81, -86, -140, -109, -157, -79, -12, 39, 30, -49, 74, 32, 61, -125, -173, 2, 65, -193, -87, -244, -136, 108, 112, -69}
, {-85, -57, -42, 10, 25, -136, -23, -18, -90, -82, -124, -92, -137, -30, -37, 65, 30, -72, 75, 61, 63, -172, -115, -29, 27, -129, -53, -135, -96, 54, 15, -118}
}
}
, {{{48, -32, -1, 32, 77, 1, -25, -62, -36, -10, -75, 19, 24, 6, 64, 71, -7, 57, 71, 41, 22, 37, -5, -4, 47, 47, -20, -16, 5, 52, 3, 50}
, {-162, 43, -52, 51, 71, -29, 44, 53, 10, 54, -189, 17, -20, 7, 48, -21, 39, 1, -60, 19, -36, 2, 13, 29, -64, -57, -107, -64, -158, -61, 24, -41}
, {48, 68, 49, 41, -145, -2, 94, 9, 75, 71, -15, 66, 48, -5, 9, -122, -38, 8, -195, -154, -110, 3, -13, 45, -98, 0, 22, -21, -10, -198, -121, 26}
}
, {{-30, -61, -45, -42, 100, -42, 26, -3, -17, -22, 14, -38, -60, -52, -82, 99, 29, -56, 97, 75, 50, -77, -61, -80, -29, -46, -2, -23, -77, -37, 16, -17}
, {-93, 37, 46, -33, -27, -58, 135, -46, -17, 4, -162, -30, 2, 52, 12, -69, -17, 9, -115, -10, -63, -20, 68, 11, -93, 6, 12, 2, -59, -207, -11, 20}
, {-170, 98, 3, 40, -145, 9, 6, 39, 57, 70, 42, 36, 46, 4, 74, -32, 16, 26, 3, -29, -31, 47, 87, 61, -138, -24, -49, -31, -185, -125, -118, 47}
}
, {{-6, -8, -17, -96, -52, -48, -21, -19, -60, 0, 28, -90, -27, 52, 58, 56, 15, -66, -9, -81, -63, -37, -27, 29, -25, 46, 35, 33, -19, -94, -3, -108}
, {-124, 28, -47, -38, -17, 40, 155, -32, 28, -24, -80, 48, 20, 48, 17, -155, 14, -17, -258, -93, -88, 0, -21, 71, -182, -15, -123, -23, -105, -161, -27, 19}
, {-74, -23, 43, -4, -151, 18, 68, 47, -24, 28, 82, 42, 1, -19, 16, -120, 11, 37, -202, -198, -100, 31, 57, 29, -233, 2, -91, -6, 3, -230, -130, -15}
}
}
, {{{1, 55, 13, 123, 90, 70, 38, 27, 39, 21, 13, 68, 28, 16, 28, -27, 20, 4, -109, -14, 9, 85, 68, 100, -124, 79, 22, 54, 5, -128, 4, 12}
, {-19, 6, 3, 12, -37, -21, 60, -3, 24, 62, 60, -15, 12, -26, 95, 36, 14, 35, 50, 29, 23, -35, 55, -55, -20, -13, 34, -77, -17, -125, -27, 9}
, {-133, 2, -70, 24, 11, 14, 28, -71, -57, -73, 116, -96, -101, -137, 11, 23, -37, 16, -31, 46, 7, -48, -97, -161, 45, -127, -46, -174, -37, 4, -7, 9}
}
, {{-69, 45, -27, 52, 7, 93, 68, 72, 23, 14, 57, 57, -41, 66, 45, 20, 1, 33, 58, 16, 57, 32, 33, 65, -150, 0, 37, 135, -34, -55, 28, 72}
, {-180, -95, -122, 69, 60, -11, 14, 25, -14, -2, 0, -25, -76, -14, 4, 45, 36, 52, 34, -80, 57, 29, -118, -126, 6, -161, -213, -231, -156, -11, -21, 54}
, {-126, -50, -62, 3, -23, -149, -31, -79, -73, -116, 98, -100, -201, -117, -199, -7, -1, -77, -11, -64, 25, -159, -169, -38, -41, -131, -170, -39, -69, -89, -85, -105}
}
, {{-230, -49, -45, 51, 125, 32, 12, 21, 57, 10, 25, 78, -31, -11, -12, 61, -4, 63, 9, 3, 126, 33, -100, -67, 28, -86, -117, -57, -197, 68, 47, 43}
, {-99, -105, -80, -4, 18, -99, -84, -39, -25, -105, -40, -12, -108, -181, -96, 57, 28, -61, 39, 24, 94, -108, -112, -188, -13, -155, -173, -103, -142, -19, 15, -112}
, {-88, -1, -83, -81, 28, -134, -155, -41, -39, -72, -23, -51, -158, 18, -72, -9, 5, -49, -76, -49, -4, -135, -113, -29, 47, -60, -126, -90, -57, -14, -12, -135}
}
}
, {{{7, -94, 42, 46, 38, 33, -8, 0, 45, 15, -18, 18, -33, 29, -30, -44, -19, -18, 32, 8, 14, -30, -40, 37, -6, 18, 59, -14, 51, 60, 21, 53}
, {-33, -21, -13, -69, -64, -78, -13, -31, -85, -74, 73, 19, -106, -89, -123, -18, -13, -74, -47, -114, 32, -60, -127, -44, -7, -10, -126, -63, 3, -53, -107, -22}
, {-54, -36, -52, -70, 8, -87, -170, -86, -106, -47, 27, -65, -84, -45, 10, 21, -33, -34, 31, -50, -48, -35, -14, -25, 30, -22, -20, -1, 12, 60, -5, -33}
}
, {{-25, -82, 4, -66, -156, 29, 55, -164, -68, -92, 31, -95, -1, -67, -84, 71, 33, -2, 74, -112, -23, -129, -20, -26, 43, 39, -44, 69, -18, -67, -136, -37}
, {46, -17, 6, -113, -140, -5, -216, -35, -64, -92, 12, 8, -27, 5, -40, 18, -1, 20, -4, -126, -132, -55, 73, 30, 14, 71, 6, 13, 28, -44, -123, -90}
, {52, -1, -21, -51, -214, 19, -148, -14, -11, -15, -61, 30, 61, -22, 13, -61, -29, 13, -76, -212, -210, -5, 98, -2, -33, 44, -2, 9, 48, -77, -247, 55}
}
, {{-63, 9, -37, 44, 43, 64, -164, 9, 12, 14, -78, 23, 50, -27, 27, 66, 20, 56, -7, -98, 33, 28, -14, -41, 7, -11, -25, -31, -40, -13, -106, 56}
, {-33, 79, -9, 50, 53, 57, -98, 36, 23, 48, -56, 89, 56, 84, 84, -38, 25, 65, 12, 38, -1, 52, 90, 68, -82, 47, 28, 74, -17, 49, -19, 59}
, {-19, 41, -36, 29, -28, 47, -13, 25, -3, 22, -139, 16, 3, 81, 90, -16, 17, 12, -16, -15, -46, 74, 53, 15, -105, 57, -22, 98, -53, -71, -37, 37}
}
}
, {{{-1, 55, 73, 30, -27, 36, -36, 7, 19, -27, 8, 79, 40, -32, 25, -66, 35, 50, -12, 100, 14, -11, -31, -45, 53, -14, 75, -77, -82, 49, 18, -24}
, {-39, -35, 98, -50, -47, -28, -47, -8, -30, -3, 82, -1, 58, -11, -11, -131, -25, -78, -134, -175, -120, -4, 50, -89, -54, 47, -16, -19, 40, -95, -125, -39}
, {47, -130, 56, -101, -132, -28, 5, -150, -106, -95, 141, -14, -33, -149, -129, 33, -1, -29, 1, -75, -69, -62, 6, -114, 103, 44, 113, -17, 122, 43, -123, -37}
}
, {{-35, 25, 9, 37, 31, 22, -156, -16, 21, 31, -107, -40, 23, 56, 52, -16, -23, 34, 31, 56, 12, 56, 44, -34, 32, -7, 30, -8, 14, 19, -23, 29}
, {-6, 26, 69, 40, 25, 54, -21, 25, 31, 22, 9, 83, 1, -44, 43, -137, 4, 25, 35, 78, 37, 49, 4, -16, 15, -59, 92, -73, 10, 100, 74, 49}
, {25, 64, 63, 46, 35, 65, -56, 61, 18, 77, -99, 33, 34, -53, 54, -143, -36, 7, -53, 20, -60, 55, 27, -111, 12, 30, 28, -46, 18, 9, 68, -5}
}
, {{-8, -100, -64, -29, -64, -73, 67, -81, -31, -61, 16, -61, -44, -43, -51, 20, 25, -61, 70, 22, 7, -91, -61, -1, -77, -75, -86, -29, -6, -71, -41, -73}
, {-90, 42, -108, -48, -16, -77, 5, 5, -76, -1, -34, -50, -112, 1, 78, 17, 21, 21, -35, 41, 3, -15, -29, 31, -2, -125, -63, -53, -58, 8, 33, -68}
, {16, 57, 36, 4, 48, 65, -59, 42, -46, 44, -17, 53, -10, 29, -16, -131, -12, 26, -57, 93, 54, 23, 5, 59, 48, -13, 15, -11, -98, 62, 125, 7}
}
}
, {{{57, 13, 39, 3, 14, 29, 89, -27, 7, 2, -30, -8, 52, -20, -92, -29, 38, -25, -25, -66, -37, -12, 59, 48, -58, 27, 11, 29, 3, -81, 28, 23}
, {14, -6, -11, -29, -45, -36, 48, -47, -30, -15, -13, -85, 3, 4, -71, 78, -29, 49, 68, 17, 64, 17, 3, 1, -55, 5, 23, 32, -18, -45, -9, 0}
, {-50, -55, -91, -5, 40, -43, 84, -6, 8, -27, -39, 8, -67, -19, -64, -19, -9, -46, -34, 48, 44, -12, -71, -12, -88, -26, 16, -76, -35, -49, 37, -6}
}
, {{-61, -5, 37, -2, 33, 25, 63, -3, 46, -42, 103, 40, -33, 4, 1, -39, 12, -24, -32, 43, 8, -13, -25, -7, -28, -18, -34, -62, 25, 84, 49, 19}
, {25, 1, 94, -62, 75, 6, -10, 42, -22, 36, 66, 10, -9, 15, -54, -148, -16, -47, -61, 59, -49, -6, 43, -21, -89, 13, 131, 19, 88, 26, 62, -57}
, {56, -40, 66, -48, -14, -4, 72, -39, 30, -25, 57, -27, 1, -32, -38, -106, -28, 35, -70, -41, 19, -34, 20, -72, -201, 35, 112, 93, 160, -8, 130, -38}
}
, {{32, 43, 89, 70, -27, 45, -37, 12, 42, 59, -72, -40, 31, -35, 0, -26, 39, 50, 81, 23, 62, 14, -44, -168, -50, 6, 62, -15, -3, -1, 49, 44}
, {-53, 22, -117, 62, 47, 3, -28, 46, 18, 15, -195, 82, -35, 46, 3, -36, 6, 13, 37, -4, 106, 41, -14, -79, -4, -82, -27, -72, -105, 83, 105, 68}
, {39, 46, 72, 22, 46, 24, -13, 109, 38, 48, 27, 45, 36, 11, 15, -53, -2, 17, 8, 91, -14, 38, -10, -85, -1, 12, 120, -70, -59, 36, 36, 41}
}
}
, {{{-118, 10, -197, -80, -23, -162, -122, -68, -86, -70, -58, -135, -101, 27, -31, 153, 17, -132, 72, -52, -41, -87, -41, 10, 66, -29, -196, 43, -34, -99, -125, -144}
, {-20, 31, -17, -58, -161, -17, -18, -11, -5, -24, -129, -8, 57, 5, 43, 20, -12, 9, -86, -165, -199, -8, 45, -6, -5, 27, -24, 65, 23, -208, -197, -15}
, {0, 1, -3, 54, -133, 27, 16, 11, 66, 11, -32, 17, 11, 16, 85, -13, 42, 22, -38, -227, -15, 73, -1, 8, -86, 27, -16, 48, 108, -135, -139, 36}
}
, {{-16, -2, -158, -120, 52, -168, 19, -6, -111, -53, 10, -35, -70, 30, 9, 74, -2, -131, -45, -43, -94, -58, 18, 74, 82, 23, -92, 65, 2, -5, 10, -185}
, {-18, 65, -16, 22, -114, 46, 60, 30, 37, 34, -290, 67, 3, 59, 12, -69, -10, 26, -164, -193, -266, 67, 92, -1, -41, 40, -115, 10, -130, -297, -163, 87}
, {3, 32, 73, -15, -123, 77, 93, 56, 51, 16, 19, 4, 89, -3, -15, 70, 40, 22, 7, -20, 33, -4, 55, 45, -92, -19, -30, 13, -66, -88, -136, 29}
}
, {{-144, -20, -174, -96, 113, -127, -138, 32, -82, -46, -10, -58, -113, 32, 29, 65, 30, -75, -1, 58, -6, 38, -37, 51, 128, -24, -181, -63, -170, -2, 108, -89}
, {-100, 50, 88, 0, 4, -28, 66, 52, 40, 77, -45, 32, 51, 35, 5, -207, -12, -16, -303, -146, -236, -31, 60, 25, -72, 23, -171, -25, -178, -215, -75, 15}
, {-24, 74, -19, 76, -132, 12, 18, -14, 7, 41, 28, 45, 24, -35, 56, -152, 27, 39, -244, -198, -108, 26, 5, -1, -126, -27, -2, -95, 6, -216, -56, 42}
}
}
, {{{19, -60, 64, -70, 16, -8, -9, 23, -20, -8, -13, 0, -13, -91, 36, -80, 24, -32, 21, 46, -13, 43, -29, 59, 36, -29, 61, -36, -5, 102, 9, -9}
, {-149, -9, -186, 10, 1, -54, -40, -7, -25, -19, 0, -10, -107, -48, -9, 59, -10, -14, 3, 51, 54, -24, -172, -166, 13, -165, -100, -207, -120, -7, -11, 5}
, {-77, -79, -99, -103, -34, -228, -139, -108, -189, -210, 48, -137, -173, -65, -76, 15, 9, -104, -68, -114, -52, -167, -95, -88, -46, -63, -196, 34, -84, -37, -41, -91}
}
, {{-20, -146, -83, -53, 58, -30, 24, -142, -10, -171, -85, -38, -156, -213, -145, 43, 37, -127, 159, 38, 79, -61, -147, -6, 85, -142, -137, -72, -62, 98, -3, -7}
, {8, -76, -91, -207, -77, -136, -275, -126, -201, -192, -11, -202, -64, -32, -118, 75, 7, -99, 33, -112, 29, -147, -5, 27, -33, -2, -103, 68, 27, -76, -29, -198}
, {109, 16, 38, -21, -147, 27, -139, -42, 14, 10, -54, -105, 70, 92, -55, -55, -16, 69, -73, -116, -72, -18, 64, 44, -55, 99, 52, 59, 96, -115, -49, -9}
}
, {{-25, -18, -55, -76, -63, -19, -133, -60, -34, -99, -20, -117, -35, -25, -97, 50, -19, -3, -2, -172, -15, -53, -37, 33, -32, 23, -93, 86, -27, -91, -88, -66}
, {26, 42, 1, 72, 26, 2, -45, 48, -40, 2, 46, -22, -20, 15, 24, -73, -26, -55, -92, -37, -37, -3, 71, 73, -36, 4, -13, 115, 63, 19, 34, -18}
, {68, 68, 62, 62, 88, 15, 26, -1, 56, 2, -6, 17, 50, 70, 70, -13, -1, 35, 46, 41, 47, 65, 53, 98, -75, 119, 37, 106, 109, 38, 69, 65}
}
}
, {{{15, 49, 52, 57, 31, 53, 44, 31, 24, -10, -18, 21, 28, 21, 38, -14, 32, -35, 33, 29, -21, 29, 19, -20, 31, 40, 69, -11, 52, 13, 63, 39}
, {46, 95, 119, 1, -127, 72, -3, -5, 19, 79, 47, 49, 66, -24, 54, -96, -20, 16, -152, 25, -169, 0, -20, 27, -50, 42, 76, -113, -72, -23, -141, -1}
, {-61, -126, -19, -35, -143, -31, 3, -101, -90, -102, 93, -65, -36, -187, -108, -70, -10, -88, -61, -108, -101, -145, -87, -133, 132, -103, -39, -141, 22, -12, -68, -18}
}
, {{-6, -1, 14, 8, 21, 4, 59, 18, -23, 7, -59, 21, 66, -80, 55, -135, -7, 54, -89, 10, -126, -29, 11, 49, -66, -39, 81, -23, -11, -121, 27, -2}
, {-25, 56, 59, 32, -135, -11, 41, 14, 41, 48, 36, 12, 79, 59, 75, -73, 10, 63, -172, -179, -185, 15, 17, 87, -133, -85, 24, -128, -13, -192, -112, 9}
, {-77, -105, -63, 42, -95, -20, 29, -139, -1, -62, 84, -5, -59, -100, -145, 5, 24, -72, -34, -176, -38, -61, -79, -67, 73, -77, -4, -99, -43, -30, -131, -25}
}
, {{-16, 25, 32, 20, -6, 91, 88, -21, 74, -53, -78, 35, 20, 24, 3, 70, -24, 52, -91, -61, 37, 1, 11, 10, -170, 29, 2, 42, 35, -89, -39, 113}
, {-170, -64, -72, 33, 14, 44, 41, -11, -17, 31, -61, -21, -12, -11, -28, 41, -8, -2, -5, -32, 71, 23, -58, 11, -98, -70, -92, -87, -84, -28, -8, 52}
, {-12, -45, -87, 9, -43, -46, -144, -134, -101, -138, -13, -82, -52, -26, 2, 26, 28, -11, -19, -75, 41, -112, -59, -38, 48, -21, -19, 40, -57, -63, -52, -10}
}
}
, {{{8, -6, 60, -12, 46, 47, 101, -23, -17, -8, 1, 1, 7, 85, -15, 12, -13, -22, -10, 35, -23, 27, -26, -7, 19, 80, 132, -28, 7, 46, 48, -16}
, {10, 40, 90, -29, -10, 5, 110, 2, 34, 10, 39, 16, 44, 32, -10, -40, 14, -12, -74, 40, -45, 3, -16, 35, -58, 28, 119, 56, -8, 31, 3, 10}
, {-33, 22, -4, 15, -94, 21, 9, -5, 19, 41, -15, 8, -30, -5, -27, -49, -14, 30, -5, -86, -126, 27, 66, 39, 3, 12, 29, 13, 1, -76, -66, 16}
}
, {{12, -10, -28, -16, -123, 25, -179, -20, -27, -21, 0, -12, 7, -5, 57, -63, -2, 14, -148, -140, -196, 24, 7, -63, -106, 19, -12, 6, 77, -160, -70, -34}
, {-23, -2, 9, -18, -89, -16, 17, 32, -12, 21, 68, 64, 54, -29, -36, -55, -6, 46, -19, -144, -74, 15, 22, 46, -139, 96, -90, -43, 17, -73, -23, -16}
, {-5, 12, 78, -33, -191, 42, -76, -34, -25, 29, 30, 6, 94, 36, -4, -70, 28, 2, -61, -134, -128, 29, 91, -3, -124, 77, -32, 32, 54, -156, -190, -47}
}
, {{-19, -6, 58, 47, -24, 62, -76, -31, -42, -7, -57, 49, 65, -92, 30, -18, -32, 18, 16, 20, 44, 26, -35, -120, -13, -16, 102, -14, 44, -42, 40, 22}
, {-66, 14, -91, 56, 68, 11, -57, 75, 30, 6, -111, 55, 72, 54, 55, -1, 11, 48, -11, -23, 35, 29, 12, -47, -121, 16, -72, 46, -96, 10, -29, 37}
, {-117, 5, -32, 29, -22, 43, -54, 22, -8, 48, -157, 45, 63, -35, 12, 13, 32, 57, -34, 11, -15, 18, 6, -189, 73, -73, -132, -194, -221, 29, -22, 42}
}
}
, {{{24, -35, 71, -1, -67, -25, -5, -31, -21, -5, -4, 10, -30, -134, -12, -111, -22, -16, -42, -48, -167, -35, 20, 4, 22, 64, 81, 17, 156, 75, -74, -29}
, {3, -90, 30, -98, -72, -52, 32, -74, -127, -67, -3, -65, 22, -59, -33, -54, 24, -50, -115, -31, -137, -64, -19, -4, 4, 65, 40, 15, 131, -25, -24, -51}
, {-22, -181, -85, -126, -45, -68, -31, -80, -100, -122, 30, -132, -75, -112, -110, 20, -37, -85, 31, 30, 31, -77, -44, -50, 61, -11, 17, -71, 37, 54, 27, -126}
}
, {{38, -27, -26, -9, 91, 40, -47, 53, 45, 59, -48, 33, 52, 43, 46, -126, 32, 57, 36, 16, -42, 5, 16, -30, -18, 11, 34, 40, 23, 74, 62, 11}
, {-57, 90, 93, 76, 77, 70, 66, 61, 43, 46, 7, 93, 86, 73, 11, -50, 0, 18, -39, -56, -5, 60, 18, -69, -98, -8, 100, -55, -51, 17, 31, 84}
, {26, 9, -31, 24, -27, 37, 7, -8, -12, 41, 139, -21, -20, -16, -28, -82, -42, 28, -33, -109, -42, 45, -54, -174, -71, -75, 37, -54, 2, -52, -121, -3}
}
, {{30, -83, 55, -9, -22, -76, 64, -70, -44, -83, 29, -49, 4, -26, 23, 82, 10, -22, 13, 15, 43, -33, 50, 17, -186, 92, 59, 92, 46, -155, -15, -22}
, {-64, 8, 6, -8, -114, 17, 30, -41, 10, 34, -67, -13, 11, 54, 14, -23, 34, 52, -33, -128, -7, -34, 100, 58, -67, 45, -84, 2, -129, 5, -113, 47}
, {-114, -90, -114, 14, -6, 1, -36, -72, -94, -95, 80, -24, -68, -114, -60, 36, -1, -86, -14, -48, 40, -18, -103, -147, 107, -159, 16, -81, -50, -37, 24, -18}
}
}
, {{{54, -52, 52, 42, 2, 40, 91, 0, 26, 37, 134, 61, 64, -102, -20, -34, -36, 37, 12, 4, 11, 63, -25, -96, -2, -71, 82, -52, 69, 10, -36, 48}
, {-17, -25, -32, -76, 20, -56, -85, 2, 0, -56, -1, -19, -109, -3, -23, 35, -10, -40, 17, 10, 58, -47, -64, -46, 17, -84, -40, -35, -15, 48, 18, -65}
, {14, 91, 19, -80, 1, -61, -202, 75, 41, 41, -8, 57, 1, 73, 68, -49, 28, -10, -42, 1, -51, 59, 43, 18, 35, 56, -58, 18, 28, -65, 15, -63}
}
, {{-43, -96, 24, 126, 19, 44, 132, -44, 37, -23, 119, 27, -60, -164, -54, 0, -16, 60, 38, -30, 108, -32, -154, -160, -70, -112, 69, -51, -7, 58, 3, 60}
, {-83, -29, -69, -134, -76, -80, -121, -52, -108, -62, -27, -118, -61, -11, -39, 93, -7, -124, 12, -36, -59, -183, -25, 23, -14, -70, -129, 8, -107, -58, -45, -147}
, {-18, 70, 17, -26, -31, -23, -65, 115, -14, 59, -182, -1, 66, 108, 48, -202, 22, 42, -130, -10, -167, 32, 127, 85, -46, 47, -25, 125, 14, -32, 6, -10}
}
, {{-115, -76, -93, -33, -72, -72, 9, -146, -128, -154, 80, -56, -148, -98, -140, 129, 15, -85, 105, -38, 89, -164, -98, -34, 48, -80, -150, -44, -116, -17, -93, -40}
, {-29, 67, -156, -113, -7, -130, -160, 10, -30, -65, -226, -84, -93, 83, 47, 19, 34, -52, 58, 55, -137, -8, -28, 19, 36, -31, -126, -12, -135, -17, 41, -92}
, {-7, 87, 13, 83, 75, 34, 79, 113, 83, 39, -24, 102, 43, 71, 69, -177, 19, 62, -129, 21, -31, 59, 71, 71, -99, 49, 10, 48, -35, -72, 92, 64}
}
}
, {{{-43, -85, -273, -127, 26, -116, -127, 22, -84, -51, -153, -132, -180, -24, -9, -23, -1, -99, -6, 51, -8, -40, -166, -44, 131, -160, -32, -144, 115, 147, 100, -60}
, {-62, 65, -208, 31, 62, -32, -173, 145, -5, 10, -165, -12, -67, 92, -56, -65, -40, -57, -25, -12, 83, -12, -97, 19, 91, -224, -213, -103, -41, 67, 40, -9}
, {48, 33, -40, 113, 71, 28, 26, 69, 94, 84, -94, 115, -7, 114, 52, 62, 38, 68, 34, 37, 77, 133, 0, 65, 45, 14, 34, 30, -16, 130, 115, 58}
}
, {{113, -105, 116, -57, -177, 0, -9, -143, 39, -54, 50, 15, -19, -140, -232, -24, -3, -92, -20, -39, -171, -79, 9, -162, 114, 24, 173, 26, 91, 108, -106, -12}
, {80, -275, -45, -299, -98, -100, -82, -322, -160, -289, 54, -291, -50, -270, -158, -25, 22, -141, 67, 58, -177, -137, -132, -18, 103, 28, 129, -27, 150, 127, -17, -166}
, {-18, -67, -183, -212, -78, -256, -75, -65, -173, -69, -149, -178, -144, -149, -87, 92, -41, -114, 125, 56, 36, -161, -214, -43, 163, -145, -133, -120, 2, 82, 87, -127}
}
, {{17, 58, -46, 72, 43, 65, 103, 84, 13, 49, 49, 32, -1, 77, 62, -7, -6, 28, 4, 82, -59, 51, 0, 96, -47, 14, 13, -36, -25, -67, 14, 42}
, {-39, 47, 13, 6, -44, 30, 106, 52, 49, 38, 74, 78, -4, 1, -3, -101, 4, -28, -136, -54, -166, 16, -3, 5, 3, -6, 50, -73, -42, -20, -70, 32}
, {-46, -76, 37, -86, -312, 30, 79, -108, 17, -60, 46, 46, -55, -73, -123, -26, 10, -88, -83, -348, -232, -69, -37, -67, 42, -32, 20, -69, 3, -84, -315, 6}
}
}
, {{{63, 2, 43, 17, -2, -26, 0, -38, -45, -23, 13, 43, -33, -79, -13, -18, -18, -9, 18, 12, 43, 29, -63, -18, 80, -49, 14, 56, 17, 42, 30, 16}
, {20, 15, 23, -25, 57, -20, -169, 54, -26, 23, -63, 13, 0, -6, 11, -75, -8, -12, 1, 54, -9, 26, 41, 23, 21, -28, 6, 5, -31, 92, 22, -70}
, {77, 36, 53, -7, 11, 15, 25, -45, 10, 17, 16, 69, 39, -32, 3, -113, -34, 22, -46, 7, -43, 44, 52, -13, -6, 20, 83, -22, 54, 19, 12, 0}
}
, {{-27, -4, -76, 9, 55, -52, -192, -10, -36, 3, -54, 9, -93, 2, 7, 71, -4, -73, 89, 23, 94, -59, -53, -69, 48, -78, -93, -69, -32, 133, 22, -78}
, {23, -5, -48, -28, -10, -67, -229, 61, -38, 27, -205, -34, 17, 89, 28, -8, 35, -40, -74, -40, -78, 15, 70, 19, -72, 43, -13, 20, -18, -101, -55, -101}
, {-27, 90, 22, 3, -81, 47, 96, 42, 23, 58, -76, 32, 40, 91, 68, -99, -37, 66, -141, -85, -62, 69, 115, 142, -274, 110, -23, 44, -60, -319, -134, 31}
}
, {{18, 25, -60, -136, -84, -96, -264, -38, -63, -37, -118, -138, -22, 14, 8, 73, -35, -46, 20, -147, -40, -72, 36, 24, 34, -43, -77, 52, 33, -84, -134, -127}
, {17, 58, -28, -6, -91, -12, 142, 28, 2, 4, -238, -8, 36, 51, 37, -239, 3, 52, -138, -83, -123, 50, 60, 22, -208, 87, -2, 95, 2, -245, -101, 49}
, {-170, -67, -150, 81, -23, -48, -10, -65, -27, -42, 38, 1, -29, -54, 22, 133, 6, 43, -40, -92, 28, -10, 13, 0, -288, -19, -114, -4, -147, -181, -151, 22}
}
}
, {{{-22, -28, 18, -3, -86, -19, 16, -61, 6, -17, -39, -32, -38, 7, -71, 30, -37, -49, -83, -138, 14, 2, 0, 1, -21, 38, -32, 13, 32, 1, -99, -28}
, {-51, -101, -186, 21, -31, -91, 36, -111, -53, -100, 2, -97, -61, 7, -62, 85, 13, -53, 52, 2, 83, -65, -65, 7, -24, -66, -71, 75, 18, -29, -11, -96}
, {-89, 29, -179, -12, 101, -89, -38, 102, -1, 7, -57, -17, 18, 91, 49, 59, -33, 57, -26, 77, 82, 37, 45, 135, -32, 53, -116, 14, -163, -20, 108, -53}
}
, {{21, 7, 45, 3, 44, 30, 37, 78, 20, 81, 19, 68, 89, 24, 39, -55, -17, -3, -25, 90, 92, 4, 4, -56, -11, 37, -8, 26, -19, 57, 89, 14}
, {48, -65, 49, -16, -77, 2, -50, -31, 3, -50, 124, 4, 8, -49, -75, -133, -12, -64, -151, -158, -89, 45, 11, -97, -3, 16, 87, 43, 80, -136, -123, 4}
, {-45, -165, -145, -80, -16, -52, 34, -108, -122, -103, 124, -92, -102, -60, -121, 53, -37, -58, 80, 31, 7, -62, -118, -32, 42, -4, 2, -33, 81, 27, -22, -105}
}
, {{59, 47, 101, -9, 40, 13, -84, -24, 74, -2, -21, 29, 18, -26, -24, -138, -25, -4, -16, 42, -14, -25, -28, -26, 28, 32, 100, -46, 90, 38, 46, -42}
, {55, 82, 118, -17, 130, 40, 2, 57, 25, 112, 63, 36, 51, 31, 71, -339, 35, 27, -153, 132, -43, -4, 19, -14, -58, 19, 161, -32, 59, 78, 171, 39}
, {26, 32, 141, 21, -32, 56, -42, 79, 14, -17, 111, 27, 36, -29, -67, -214, 30, 30, -225, -77, -208, -6, 16, -118, -124, 60, 68, 30, 105, -191, -76, 37}
}
}
, {{{-193, -10, -191, -6, -57, -28, 102, 3, -26, -18, -120, -9, -141, 8, -26, 41, 6, -24, 14, -40, -15, 6, -103, 24, -18, -128, -150, -71, -124, 16, -2, 10}
, {-101, -17, 33, -30, 67, -16, 11, 31, -13, 4, -81, -26, -33, -16, 28, -12, -31, -91, -21, 24, 1, -42, 31, 39, -34, -23, -93, -43, -35, -78, 17, -14}
, {77, 27, 71, -26, 43, -21, 86, 75, 6, -34, 35, 33, 66, 81, 64, -219, 26, 19, -166, 98, -92, 49, 12, 50, -137, 81, 27, 71, 45, -78, 43, -54}
}
, {{-56, -74, -93, -151, -31, -143, 39, -76, -220, -157, 19, -135, -146, -69, -58, 50, 6, -160, -28, -2, -17, -123, -167, -56, -6, -180, -41, -208, 3, -21, 25, -163}
, {-276, 4, -75, -109, 50, -79, -25, 62, -16, 11, -138, 19, -87, 77, 24, -60, 9, -53, -74, 44, -73, -4, 38, 52, 68, -60, -297, -47, -276, -36, 2, -139}
, {-29, 52, 124, 31, 62, 59, 126, 62, 101, 46, 65, 123, 46, 46, 67, -237, 20, 70, -120, 93, -70, -10, 51, 92, 13, -9, 113, -32, -55, 31, 138, -15}
}
, {{15, -124, 33, -36, -77, -59, 35, -161, 32, -178, 97, -39, -86, -84, -235, 33, -20, -87, -34, -147, -15, -89, -27, -14, 4, -12, 78, 45, 107, -9, -191, -54}
, {-82, -68, -90, -174, 135, -142, -258, 11, -194, -73, 1, -93, -41, -48, -53, -15, -31, -48, 33, 130, 61, -114, -73, 42, 86, -23, -92, -33, 40, 146, 149, -128}
, {-48, 23, 36, 5, 66, -9, -21, 32, -41, 40, 78, 34, 8, -29, 24, -67, 20, 55, -63, 143, -10, -23, 36, 75, 75, -68, -33, -83, -53, 52, 58, 24}
}
}
, {{{-102, 16, 74, 0, 20, 26, 5, 91, 2, 26, -5, 91, -27, -14, 32, -38, -21, 9, -25, 42, -86, 30, -37, 14, -10, -89, -60, -105, -73, -66, 53, 24}
, {-39, -1, -10, -14, -102, -26, -30, -40, -35, -52, -29, 1, 6, 7, -20, -43, -29, -13, -75, -55, -114, -46, -15, 40, -66, 24, -44, 13, -22, -110, -81, -27}
, {5, 76, 28, 14, -109, 3, -129, -56, 35, 22, -101, -60, 37, 86, 65, -20, -22, 39, -136, -100, -57, 44, 81, 107, -152, 87, -6, 121, 9, -81, -91, 11}
}
, {{-54, 68, -17, -25, 4, 41, -118, 83, 45, 15, -43, -19, 86, 38, 51, -136, 13, 23, -84, 4, -42, 58, 51, 18, -45, 27, 61, -23, -33, 21, 34, 17}
, {-53, 93, 6, 95, 38, 100, -34, 95, 74, 13, -26, 54, 28, 92, 91, -105, 37, 62, -1, -65, 70, 123, -1, -83, -126, -2, 96, -38, 16, -21, 50, 39}
, {-131, -11, -101, 60, 86, -12, 67, 1, 26, -17, -149, 65, -62, -123, -21, 20, -23, 34, 39, 64, 164, 32, -109, -148, -73, -137, -250, -178, -94, 86, 120, 66}
}
, {{-154, -54, 1, 39, -27, 8, 36, 2, -10, -13, -17, 3, -72, -51, -65, 67, -33, 45, 13, 39, 0, -51, -62, -55, -3, -74, -122, -90, -155, 46, 41, -18}
, {-6, 50, 51, 2, 53, -76, 18, -13, -1, -4, -59, 23, -38, -48, -10, -77, -38, -27, 79, 140, 4, -69, 4, -8, 105, -156, 42, -173, 12, 123, 67, -13}
, {74, 0, 68, -11, -31, 23, -21, 3, 39, -2, -16, 46, 11, -11, 42, -22, -27, -48, -80, 12, -48, -6, 3, -35, -65, -4, 170, 23, 20, -52, -21, -13}
}
}
, {{{32, 38, 18, 37, 67, 21, 19, 8, 11, 3, 73, 78, 51, -14, 31, -36, 10, -11, -53, 12, 57, 46, 42, -5, -79, -19, 60, 2, 54, -34, 25, -14}
, {17, 23, -4, 14, 62, 21, 2, 65, 67, 4, -28, -14, -1, 80, 4, 32, -4, 11, 52, 83, 63, 84, 31, 123, -31, 65, 41, 38, 3, -4, 65, 26}
, {-6, 14, -103, 71, -6, 101, 65, -39, 70, 31, -53, -6, 43, 50, 53, 60, 31, 84, 9, -13, 58, 92, -29, -102, -26, -56, -13, 27, -33, 13, -23, 34}
}
, {{20, 55, -81, 11, 88, -9, -22, 33, -2, 50, -76, 31, -15, 11, 21, 129, 25, 6, 95, 34, 103, -22, 48, 41, -23, 27, -15, 45, -94, 31, 10, 1}
, {-90, -7, -147, 18, 18, 49, -19, 63, 91, 7, -110, 32, -27, 80, 3, -6, 15, 4, 29, 34, 34, 43, -67, 28, -99, -24, -63, -14, -188, 22, 54, 20}
, {-274, -117, -201, 3, -53, -20, 123, -96, -13, -6, -30, 61, -206, -163, -143, 67, 35, -42, -57, -129, 19, -9, -232, -382, -17, -236, -143, -256, -190, -53, -51, 41}
}
, {{-78, -65, -85, -31, 21, -47, -36, -42, -36, -28, -20, -67, -30, -42, -83, 67, 38, -33, 86, 45, 52, -24, -39, -41, 101, -39, -124, -99, -55, 71, 24, -42}
, {-70, -122, -186, -71, 117, -199, -88, -88, -71, -209, -62, -89, -178, -106, -143, 68, -8, -113, 65, 117, 82, -148, -199, -98, 92, -154, -244, 38, 9, 71, 30, -126}
, {-207, -155, -123, -195, -192, -182, -109, -266, -185, -194, -105, -170, -164, -262, -167, 49, 0, -141, -46, -95, 9, -205, -137, -293, 32, -165, -163, -154, -76, -152, -276, -195}
}
}
, {{{30, -71, 51, 54, -3, 9, -5, 10, -23, -6, 43, 35, 7, -85, -50, 30, -4, 19, 56, -28, -7, 39, -77, -71, 21, -35, 13, -53, -63, 105, -36, 32}
, {-11, 19, -32, -22, -2, -67, -131, 38, -43, 7, -21, -87, -70, 4, -25, -41, -30, -39, -10, 33, -44, -68, -35, 48, -6, 55, -27, 20, -64, 92, 43, -58}
, {9, 66, 13, 31, -15, -9, 2, 58, 11, 55, -59, 8, 66, 24, 53, 27, 34, 35, -18, -27, -73, 50, 75, 60, -15, 67, 9, 8, 24, 10, -90, 12}
}
, {{93, -7, 32, -12, -59, 20, -79, -54, -50, -29, 12, -11, 54, -20, -52, 23, -21, -36, 75, -72, -11, 1, 36, -26, 1, -28, 51, 25, 71, -32, -136, -42}
, {97, 84, 44, -17, -88, 31, -84, 35, 81, 66, -236, 61, 51, 74, 54, -163, 31, 74, -187, -59, -235, 72, 38, -21, -302, 86, -19, 46, 28, -305, -104, 43}
, {-29, -28, 2, -38, -57, 80, 11, 8, 88, 38, -12, 60, 21, 31, 51, 2, -20, 56, -7, -69, -3, 71, -16, -132, -192, -7, 28, -31, -80, -100, -10, 111}
}
, {{59, 27, -3, -45, -165, 26, -187, -9, -27, 30, -131, 9, 50, -10, 115, -49, -41, 28, -46, -115, -182, -9, 83, 43, -55, 27, 37, 25, 99, -205, -153, -20}
, {-134, -39, -44, 89, -13, 70, 70, -42, 52, 54, -108, 18, 26, 40, -5, -42, 4, 68, -78, -153, -47, 44, 5, -32, -341, 33, -124, -11, -148, -271, -66, 22}
, {-98, -125, 29, -22, -66, 34, 10, -15, -74, -102, 39, -85, -77, -122, -49, 118, -10, -73, 41, -37, 36, -77, -78, -112, -88, -105, -124, -73, -94, -94, -117, -7}
}
}
, {{{66, 58, 61, -4, -56, 27, 15, 46, 40, 62, -50, 18, 99, 44, 33, -5, 40, 34, 12, -20, -45, 43, 76, 9, -14, 34, 50, 15, 32, -32, 11, -12}
, {-57, -50, -13, 67, 26, 81, 26, 6, 63, -1, -141, 57, -10, -4, -30, 33, -42, -37, -9, 27, -4, 82, -36, -56, 46, -33, 31, -56, -139, 37, 42, 95}
, {10, 25, 68, -38, 56, -46, -143, 41, -99, -51, 47, -5, -72, 0, 21, -24, -10, -29, -11, 21, -15, -86, 17, 53, -39, -70, -63, -57, -21, -85, 25, -22}
}
, {{-52, -78, -24, 25, 32, -66, -32, 5, -114, -50, -4, -29, -65, -45, -76, 34, 33, -109, -7, 22, 1, -40, -26, 24, -15, -51, -38, -24, -25, 18, 43, -28}
, {69, 7, 79, -124, -93, -12, -36, -8, -23, 20, 52, -58, 63, -79, 6, 3, -8, -38, 45, 18, -116, -139, 49, 95, -48, 35, 115, 5, 157, -143, -53, -67}
, {-23, 51, -62, -9, -13, 42, -130, -5, 29, 1, -82, -51, 41, 75, 86, -230, -30, 29, -109, -38, -141, 2, 20, 129, -192, 67, -62, 69, -9, -112, 16, -11}
}
, {{26, 63, 6, -85, -96, 14, -252, -6, -32, 75, -116, -18, 81, 20, 9, -30, 41, -6, -48, -82, -32, 44, -9, 43, -14, 4, 40, 34, -15, -23, -55, -37}
, {-38, 28, -116, 59, 18, 78, 87, 7, 60, 62, -179, 7, 36, 2, 45, 43, 15, 27, 96, -41, 51, 15, 21, -41, -55, 32, 6, 44, -98, 2, 34, 76}
, {-174, -67, -105, -28, 18, -25, 11, -40, -17, 7, -71, 39, -78, -16, -57, 85, 42, -13, 135, 24, 54, 57, -71, -173, 31, -122, -107, -91, -149, 49, 49, 26}
}
}
, {{{-35, -12, -79, -40, -86, -26, -33, -85, -42, -10, 60, -42, -23, 59, 6, 5, -28, -26, -57, -91, 36, 16, 23, 52, -53, 24, -14, 96, -4, -75, -84, -63}
, {-71, -25, -167, 3, 5, -17, 82, -1, -3, 6, -33, -32, 13, 36, 23, 85, -10, 9, 20, -29, 98, 46, -10, 32, -141, 64, -55, 118, -6, -144, -7, 29}
, {-105, -32, -85, 75, 70, 25, 7, 71, 51, -23, -56, 36, 0, 147, 21, 88, 8, 10, 5, -55, 119, 6, -22, 64, -96, -5, -144, 96, -120, -76, 31, 14}
}
, {{-28, -56, 17, 18, 17, 10, 143, 4, 60, -57, 8, 36, -30, 58, -48, -51, -3, -16, -71, -42, 76, -26, -25, 13, -156, 4, 20, -1, 5, -127, 9, 3}
, {-4, -36, -21, -67, -28, -43, 37, -50, -64, -61, 137, -95, -11, -86, -58, 2, 2, -30, -9, 2, -3, -96, -12, -18, -70, -2, -63, 90, 85, -97, -7, -102}
, {-44, -97, -135, -65, 97, -101, -31, -75, -110, -111, 55, -148, -26, -20, -11, 9, -29, -75, -56, 3, -64, -38, -86, -60, 7, -59, -30, -22, 69, -77, 11, -92}
}
, {{88, 12, 105, -17, 28, 31, -86, 63, 59, 38, 54, 22, 11, -4, 4, -145, -39, 0, -71, 52, 32, -10, 6, 7, -33, -4, 86, -41, -16, 97, 98, -18}
, {86, 88, 79, 23, 178, 47, -90, 85, 62, 74, 10, 63, 91, 79, 37, -389, -13, 5, -161, 108, -83, 19, 24, -43, -150, 63, 104, -35, 165, 59, 175, 17}
, {74, -1, 97, 7, 2, -4, -54, 21, 3, -28, 152, -55, 58, -46, -29, -122, 9, 16, -40, 95, -59, 9, 32, -101, -199, 42, 136, 41, 115, 39, 48, -43}
}
}
, {{{-32, -20, -95, -64, 72, -120, -188, 21, -95, -76, -197, -81, -62, 17, 25, 110, -12, -70, 103, 69, -16, -3, -41, 48, 44, -36, -76, -59, -74, 18, 98, -85}
, {10, 75, -48, 20, 19, 3, 77, 54, -7, 80, -97, 29, 17, -50, 32, -173, -40, 54, -142, 63, -44, -12, 15, 63, -25, -3, -5, -55, -79, -19, 94, 25}
, {7, 10, 28, 81, -7, 35, 59, -32, 23, 8, 36, 67, 21, 58, 13, -95, -25, 45, -52, -70, -16, -22, 65, -31, -111, 2, 2, 26, -38, -130, -24, 26}
}
, {{-28, -54, -159, -67, 110, -51, -6, -12, -95, -106, -20, -92, -71, 22, -28, 46, -19, -137, 21, 135, -52, -53, -60, -11, 4, 3, 11, -15, -39, -3, 101, -117}
, {-145, 2, 89, 21, -57, -16, 125, 59, 28, 11, -44, 82, -5, 6, 11, -198, -27, 45, -223, -65, -188, 42, 37, 46, -117, -63, -44, -33, -72, -133, -24, 0}
, {-34, 2, 57, 12, 11, -39, 38, -18, -43, 32, 83, -38, 19, -52, -16, -162, 37, -1, 25, 77, 45, -33, -32, -20, -21, -49, -7, -198, -70, 34, 62, -23}
}
, {{-30, -66, -114, -144, 159, -75, -26, 11, -50, -92, -62, -103, -68, 63, -42, 60, -28, -102, 15, 109, -16, -69, 14, 22, -14, -34, -115, 32, -103, -39, 125, -168}
, {-97, 6, 94, -19, 75, -9, 94, 29, 12, 12, 6, 48, -1, 17, 9, -282, -32, 0, -150, 44, -90, -14, -1, 53, -6, -111, -104, -141, -79, -9, 62, 35}
, {14, 27, 68, -55, -34, -56, -35, 51, -58, 39, 95, 1, 21, 25, 4, -73, -7, 17, -98, 55, -96, -1, 50, 14, 25, -71, 26, -117, 41, 91, 11, 16}
}
}
, {{{-19, 6, 62, 72, 87, 18, -38, 15, 6, 27, 14, 43, -2, 18, 17, -7, 5, -7, 32, 88, 55, 25, -3, -53, -77, 35, 7, 25, -23, 52, 33, 58}
, {57, -3, 67, 9, 49, 50, 34, -22, 45, 43, 84, 17, 50, 9, 39, -27, -19, 65, 0, 51, 4, 46, 17, 3, -97, 12, -3, 46, 28, -17, -14, -20}
, {18, -25, 40, 8, 69, 33, 29, 30, 44, 60, -43, 54, -14, 63, 2, -43, 1, 38, -3, 56, 26, 63, -57, -71, -55, 20, -12, 26, 110, 77, 14, 57}
}
, {{-144, 29, -121, -34, 45, -80, -51, 75, -45, -7, -73, -28, -56, 53, 52, 56, 34, -44, -13, 18, 34, -51, -26, -24, 15, -104, -141, -99, -133, 32, 70, -51}
, {23, 114, 65, -35, 67, 37, -93, 65, 48, 66, -196, 91, 87, 55, 25, -64, 21, 30, -24, 80, -3, 62, 34, 40, 23, -102, 53, -226, -143, 86, 109, 33}
, {126, 59, 80, 52, 87, 123, -52, 18, 87, 21, -14, 28, 46, 31, -6, 13, -35, 74, -4, 21, 49, 74, 53, -74, 71, 16, 107, -35, -6, 42, 32, 59}
}
, {{17, -235, -46, -109, -50, -102, -109, -152, -153, -151, -30, -166, -89, -199, -79, 4, -6, -133, -6, -76, -92, -196, -134, 12, 39, -54, 53, -102, -45, 46, -67, -156}
, {17, -68, -146, -155, -70, -170, -261, -62, -207, -152, -101, -248, -140, -111, -89, 27, -1, -140, 66, 65, -99, -148, -100, 44, 92, -79, 14, -170, -40, 96, 36, -255}
, {14, -54, -105, -58, 20, -81, -72, -70, -133, -70, -149, -51, -118, -103, -71, -8, -36, -26, 98, 81, 38, -112, -112, -47, 71, -52, -151, -67, 9, 26, 9, -76}
}
}
, {{{18, 28, 17, 90, -12, 40, 45, 7, 66, -57, -101, 29, 32, -38, -46, -49, -7, 41, 47, -43, -9, 3, 31, -4, 8, 21, -20, -33, 4, -99, -47, 30}
, {0, 82, 37, 4, -153, 48, 53, 36, 41, 28, 57, -30, 38, 44, 50, 26, 40, 6, -42, -4, -96, 13, 46, 74, -130, 36, 94, 36, -33, -167, -110, 29}
, {-88, -46, -51, -2, 42, 25, -54, 21, -57, -81, 5, -12, -27, -86, -49, -7, 2, 0, 86, 36, 10, -21, -150, -194, 45, -142, -103, -200, -21, 47, 95, 5}
}
, {{-43, 27, -8, 79, -48, -33, 85, 1, 16, 44, 43, -15, -26, -19, 32, -122, -40, -7, -144, -39, -126, -12, 12, 93, -56, -18, -52, -1, -130, -145, 3, 35}
, {-147, 53, 23, 33, -87, 15, 83, -62, -10, 85, 62, 1, 67, 67, 54, -39, 28, 38, -97, -146, -62, 5, 25, 116, -106, -50, 38, -126, -124, -111, -144, 72}
, {-17, -162, -58, -82, -67, -99, 0, -132, -123, -63, 104, -27, -117, -131, -130, 48, -28, -129, -2, -4, 19, -153, -71, 36, 110, -113, -42, -69, 39, 56, -9, -56}
}
, {{-168, -56, -45, 27, 8, 27, 169, -47, -60, -38, 56, 12, 18, 81, 62, -26, -19, 4, -219, -139, 42, -21, 26, 78, -239, 51, -127, 85, -66, -188, -54, 31}
, {-154, 53, 43, 39, -63, 36, 86, -9, -37, 94, 55, 21, -7, -72, -5, -30, -23, 68, -46, -174, 60, -26, 21, 13, -128, -98, -89, -160, -35, -98, -31, 74}
, {-28, -33, -57, 30, -9, -69, -63, -95, -87, -89, 26, -85, -71, 18, -23, 32, -37, -71, 1, -59, -9, -64, -47, 83, 12, 4, 9, 71, -13, -32, 15, -87}
}
}
, {{{-56, 70, 43, 16, 44, -43, 34, 84, -84, 43, 106, 55, -12, -5, 15, -87, -42, -51, -129, 27, -31, -1, -26, 140, -57, -59, -20, -38, -67, -14, 34, -73}
, {-110, -12, -101, 22, 36, 28, -28, 35, 40, 71, -40, -22, -14, 107, 38, 7, -1, 63, -29, 23, -53, 80, -31, 31, 3, -39, 1, -53, -157, 62, 59, 60}
, {-110, -6, -13, 69, 78, -32, -75, 15, -48, -22, -23, 9, -112, -29, 10, 52, -41, -17, -2, 21, 1, 12, -75, -47, -10, -140, -162, -136, -45, 10, 97, 42}
}
, {{-104, -135, -111, -58, 87, -111, -47, -51, -94, -96, 0, -66, -275, -117, -85, 2, -16, -167, 47, 107, 71, -136, -259, -22, 138, -236, -164, -122, -121, 160, 86, -33}
, {1, -26, -88, -142, -3, -291, -157, -77, -182, -161, -91, -244, -54, -90, -58, 98, 30, -144, 124, 86, 31, -245, -35, 23, 1, 23, -36, 60, 60, 49, 23, -259}
, {50, 18, 32, -20, -149, -25, -168, -87, 12, -49, -133, -53, 67, 36, -14, 13, -25, 5, -48, -57, -170, -3, 59, 45, -56, 28, 16, 14, -8, -126, -155, -30}
}
, {{16, 38, -81, -304, -99, -125, -424, -40, -114, -56, -141, -235, -27, 65, -8, -46, -36, -99, -20, -131, -96, -7, 8, 49, -61, 11, -81, 59, 3, -72, -107, -161}
, {70, 70, 59, 139, -62, 34, 14, 21, 95, 73, -91, 38, 85, 92, -15, -97, -40, 92, -121, -71, -65, 60, 76, 64, -140, 106, 48, 64, 9, -84, -99, 78}
, {46, 21, -72, 64, 2, 54, 26, 41, 13, 6, -94, 61, 4, 50, -19, 170, 28, 79, 152, 9, 73, 47, -34, -50, 2, 14, 75, 10, 20, 96, 38, 61}
}
}
, {{{-16, 46, 21, -1, 82, -54, -117, 60, 1, -24, -90, -50, -27, 41, 58, -27, -7, -49, 53, 97, 37, 9, 20, 68, -42, 6, 21, 14, -11, 72, 132, -75}
, {68, 49, 108, 43, 119, 115, 45, 111, 47, 69, 44, 81, 39, 46, 46, -228, 39, 19, -162, 67, -49, 49, 46, 40, -164, 16, 76, 31, 33, -64, 112, -1}
, {29, -60, 11, -17, -73, 26, 28, -100, -28, -2, 42, -51, 17, -73, -109, -77, 7, -14, -101, -127, -83, -43, -15, -255, 38, -34, 120, -97, 86, -119, -100, -34}
}
, {{-121, -43, -48, -33, 57, 15, -6, 1, -83, -14, 24, -61, -92, -3, 37, 113, -14, -89, 119, 60, 41, -30, -40, -25, 51, -40, 54, -102, 21, 8, 65, -57}
, {-137, 34, 107, 0, 56, 2, 95, 23, -74, 28, -124, 12, -6, -5, 32, -275, 29, 16, -190, 79, -111, 11, 61, 97, -60, -6, -16, -62, -169, -72, 91, 6}
, {-8, -58, 65, -25, -135, 66, 47, -6, 30, -9, 72, 36, -20, -170, -24, -179, 27, 1, -215, -101, -166, -29, 18, -263, -186, -49, 105, -139, 18, -217, -262, -7}
}
, {{91, -82, -19, 13, -7, -20, -106, -29, -13, -99, 12, -21, -4, -32, -63, 2, -33, -66, -11, 34, -10, -51, 21, -29, -34, 45, 31, 56, 135, -47, -42, -4}
, {-99, 12, -56, -20, -20, -9, 44, 37, 4, 101, -255, 64, 56, 58, 47, -292, 17, 15, -187, -1, -93, 25, 51, 95, -117, -1, -161, 1, -179, -109, 6, 29}
, {50, -24, 45, 30, -38, 3, 58, -42, 6, -16, 154, 27, -21, -58, -36, -76, -30, 17, -132, -36, -21, 25, -40, -64, -127, -55, 63, -107, 9, -60, -104, 36}
}
}
, {{{7, -24, -85, -130, 0, -144, -101, -55, -70, -41, 2, -86, -141, -55, -57, -59, 23, -88, -38, 11, -128, -115, -116, 63, 31, -94, -52, -64, 20, 14, -15, -96}
, {-110, 64, -113, -35, 3, -66, -139, 44, -66, 69, -26, -9, -9, 42, 12, -54, -13, -29, -60, -4, -25, -11, -27, 29, 7, -118, -178, -96, -115, -50, -22, -34}
, {-99, -36, -120, 88, 63, 44, -87, -15, 98, 6, -93, 64, -77, 55, 37, -20, 2, 9, 0, 15, 37, 107, -136, -2, -3, -100, -137, -174, -166, 80, 93, 81}
}
, {{80, -202, 60, -125, 26, -130, -112, -163, -152, -117, -29, -114, -27, -161, -133, 58, -12, -163, 78, 88, 132, -134, 8, 72, 78, 20, 50, 71, -57, 135, 83, -157}
, {89, -154, 72, -211, -45, -98, -225, -250, -219, -249, 38, -239, 1, -169, -149, 15, -35, -162, 100, 133, 59, -214, -3, -18, -2, 24, 77, 35, 85, 180, 19, -202}
, {130, -66, 28, -143, -98, -36, -174, -133, -139, -59, -36, -163, 11, -24, -55, 88, -18, -109, 81, 57, -17, -96, 6, -43, 29, 45, 47, 22, 136, 32, -52, -164}
}
, {{38, -38, -45, -92, -48, -20, -139, 15, 2, -30, 11, -4, 7, 27, 1, -78, -40, 22, -153, -145, -108, 67, 19, 106, -102, 59, -79, 13, 36, -107, -77, -41}
, {73, -12, 63, 37, 22, 20, -137, 47, -17, 31, -29, -6, 62, 12, 84, -130, 37, 7, -132, -29, 25, -20, 79, 76, -159, 47, -40, 100, 99, -67, -4, -31}
, {80, 94, 45, 52, 32, 48, -107, 78, 56, 94, -100, -22, 35, 52, 48, -113, 37, 61, -28, 15, 72, 71, 76, 44, -114, 118, 54, 118, 111, 12, 86, 65}
}
}
, {{{-45, 32, -56, 105, -67, 49, 20, -30, 50, 35, -54, 64, 54, 8, 80, -53, 38, 34, -15, -14, -40, 26, 19, 47, -152, 35, -36, 9, -108, -119, -109, 86}
, {-132, 66, 34, 38, -19, 14, -11, 19, 8, 38, -29, 22, 10, -35, 72, 32, 8, 27, -28, -126, -49, 22, 38, -71, -103, 3, -100, -103, -110, -90, -94, 83}
, {-12, 14, 82, -17, 30, 11, 25, 69, 34, -20, 37, 7, 56, -50, 36, -105, -35, 0, 3, -54, -21, 14, 9, -168, -14, -59, 41, -141, -29, 29, 20, 31}
}
, {{-172, 7, -89, 83, -21, 63, 112, 23, 46, 23, 24, 128, -37, 32, 71, 8, 28, 79, -76, -114, 12, 56, -63, -60, -223, 29, -190, -15, -255, -155, -71, 59}
, {-183, -35, -51, 10, 63, -16, 41, 77, 23, 50, -22, 30, -117, -87, -28, 2, 2, 19, -26, 31, 68, -11, -76, -114, -144, -147, -151, -240, -131, -11, 59, -12}
, {-12, -31, 30, 18, 44, -37, -17, 13, -57, -26, 75, -30, -62, -44, 44, 5, 24, 9, 70, 77, 23, -95, -5, -10, -4, -36, -21, -21, 25, 85, 45, -33}
}
, {{-152, 75, 39, 59, 122, -41, 53, 42, -36, -10, 52, 45, -117, -54, 31, 84, 29, -20, 26, 99, 180, 10, -32, -8, 7, -60, -169, -65, -121, 44, 9, -1}
, {-36, 37, -100, -12, 36, -96, 14, -15, -73, -9, -2, -57, 23, -88, -29, -8, 12, -18, -44, -1, -59, -65, -82, -47, 16, -123, -90, -225, -40, 18, 77, -63}
, {-2, -12, 12, 17, 44, -55, 17, -2, -38, -11, 39, -2, -27, -42, -22, 24, 10, -40, 86, 51, 6, -106, -79, 25, 54, -15, 72, -75, -9, 113, 63, 9}
}
}
, {{{-16, 15, -92, 31, 9, -20, -159, -15, -64, -63, -136, -94, -5, 8, 8, 109, 13, 20, 49, 24, 45, 12, -7, 11, 40, 36, -37, 35, 14, 15, 20, -37}
, {-2, 15, 55, 28, -49, 5, 54, 6, -18, -3, -162, 8, 25, 9, 40, -17, 3, 33, -62, 36, -68, 17, 40, 126, -54, -24, 85, 34, -53, -62, -11, 42}
, {-31, 12, -133, 31, 31, 8, 66, 29, 5, 13, 16, -3, 4, -10, 79, -13, 16, -1, -33, 8, -16, -9, -23, 83, 1, -48, 5, -101, -73, 12, -44, 27}
}
, {{4, -14, -56, -88, -22, -111, -326, 0, -65, -16, -103, -96, -39, 1, 10, 71, -30, -71, 28, 13, -72, -48, 30, 38, -10, 44, -14, 72, 87, -14, -22, -103}
, {3, 75, 4, 1, -49, 82, 86, 19, 56, 74, -58, 57, 92, 98, 124, -139, -26, 22, -172, -83, -38, 56, -5, 74, -320, 45, -2, 75, -36, -251, 15, 65}
, {-63, -99, -48, 76, -6, 78, 117, -37, 35, 4, 70, 90, -60, -138, -103, 34, -17, -37, 2, -62, 73, -58, -105, -167, -88, -107, -101, -164, -92, -129, -55, 39}
}
, {{-11, 13, -74, -33, -9, -37, -129, 21, 41, 5, -257, 34, 43, -6, -21, -37, -8, 75, -80, -80, -71, 9, 25, -18, -91, 61, -29, 44, 25, -100, -70, -30}
, {-155, 36, -28, 33, 49, 36, 10, -4, 29, 14, 64, 52, -8, -19, -20, 56, -38, 18, 15, -65, 72, 0, -29, -5, -280, 12, -133, -8, -178, -99, -7, 42}
, {-59, -151, -16, 13, -10, -76, -40, -177, -94, -132, 65, -85, -101, -144, -74, 96, 17, -82, 40, -86, 14, -123, -147, -128, 25, -56, -39, 15, -26, -107, -96, -51}
}
}
, {{{-69, -75, -90, -19, 26, 1, 55, -17, -50, -34, 98, -16, -123, -88, 51, 37, 4, -3, -17, 32, 72, -13, -142, -64, 16, -49, 17, -82, -86, 16, -2, -13}
, {-8, -95, -31, -57, -35, -144, -70, -101, -78, -113, 60, -70, -102, -97, -121, 42, -30, -65, 19, -129, -53, -136, -86, -19, -7, -50, -203, -92, 50, -73, -29, -115}
, {90, -28, -2, -64, -129, -65, 50, -7, 1, -25, 9, 25, 17, -29, -14, 10, 7, -2, -111, -134, -105, -21, 16, 64, -28, -7, 4, 12, 59, -26, -86, 9}
}
, {{-64, -69, -124, -40, -137, -134, -84, -64, -103, -168, -104, -96, -135, -44, -107, 90, -25, -90, 29, -187, 13, -80, 10, 50, 76, -47, -195, 26, -80, -38, -215, -166}
, {-27, -15, -65, -147, -133, -121, -35, 7, 29, -50, -118, -82, 30, -11, 28, -3, -32, -17, 57, -99, -87, -1, 3, -31, 14, -18, -24, 5, -43, -62, -129, -75}
, {-26, 35, -14, 1, -204, -66, 24, -46, -44, 34, -36, 12, 56, -38, 30, -30, -17, -13, 22, -71, -106, -4, -18, 37, -23, -6, -58, -33, -1, 3, -129, -8}
}
, {{44, 32, -3, -147, -204, -56, -294, -65, -68, 50, -81, -122, -17, 63, 86, -24, -8, 20, -71, -206, -86, 33, 59, 111, -33, 32, -5, 79, 44, -134, -236, -49}
, {110, 12, 40, 68, -181, 92, 80, 39, 53, 50, -45, 2, 73, 54, 36, -148, -30, 81, -81, -229, 36, 37, 53, 59, -216, 96, 78, 70, 60, -209, -110, 27}
, {30, -38, -1, 105, -47, -16, 21, -27, -4, -29, 10, 37, -64, -49, -36, 101, 28, 63, 86, 23, 105, 61, -50, -131, 7, 1, 78, -20, -2, -61, -27, 42}
}
}
, {{{12, 21, -92, 13, -42, 14, -148, 0, 28, 58, -130, 44, 12, 59, 17, 97, 36, -15, 30, -30, -50, 1, 18, -22, 66, 22, 85, -16, -8, 100, -15, -5}
, {-122, 20, -80, -6, -16, -77, -136, 15, -22, 28, -106, -39, -76, -60, 44, -30, -36, 36, -13, 73, -33, -41, -26, 18, 63, -105, -68, -70, -92, 92, 50, -56}
, {-8, 40, 34, -23, -24, -25, 31, -11, -24, -10, 70, -47, -40, -45, -42, 55, -12, -14, 65, -49, 40, -17, 56, 18, 17, 49, -8, -5, -89, 9, -66, 13}
}
, {{9, 14, -88, -11, -156, -9, -246, -7, 17, 25, -175, -17, 27, 16, 33, 24, 39, -2, -37, -136, -70, -23, 4, -23, 20, 53, -42, -34, 30, -33, -105, -15}
, {-40, -2, 34, 80, -136, 31, 83, -12, 83, 63, -73, 26, 63, 21, 26, -172, 24, 39, -173, -171, -135, -8, -1, -14, -173, 58, -34, 71, -52, -240, -143, 44}
, {48, 52, 53, -17, 48, 77, 17, 58, 51, -18, -13, 17, 26, 45, -36, -151, 2, 29, -29, 14, 53, 36, 21, -23, -86, 8, -25, 20, 12, -1, 36, 50}
}
, {{3, -6, -113, 33, -105, 96, -127, -28, 51, 41, -255, 15, -5, 30, -10, -34, -16, 28, -117, -114, -79, -6, 28, -73, -37, -19, 4, -49, -2, -170, -51, 68}
, {-94, 21, -12, 64, 149, -3, 67, -15, -4, 38, 28, 40, 53, 53, 28, -10, 28, 4, 63, -27, 34, -7, 18, 57, -95, -81, -16, -52, -169, -59, 79, 40}
, {21, -67, 6, 60, 27, -20, 140, -22, -82, -85, 87, -15, -69, -97, -2, -59, -20, -52, 70, 72, 76, -61, -35, 11, 74, -86, -68, -14, 23, 58, -11, 6}
}
}
, {{{-125, 34, -140, 46, 35, 8, 30, 19, -1, 39, 52, 42, -123, -55, 36, -11, -24, 50, -18, -22, 78, 6, -143, -56, -12, -166, -72, -173, -24, 42, -26, 14}
, {-69, -121, -120, 18, -85, -191, -97, -68, -159, -116, -19, -71, -223, -51, -141, 62, -17, -165, 38, -51, 20, -105, -62, -40, 7, -25, -249, 18, 4, -22, -11, -151}
, {65, -23, -26, -76, -32, -100, -203, -87, -62, -14, -217, -55, 9, -18, 9, -60, -19, -27, 26, -12, -70, 22, -21, 25, 15, -20, -120, 59, 54, -29, 3, -57}
}
, {{-123, -87, -129, -117, -119, -139, -49, -157, -192, -159, -120, -149, -129, -82, -183, 94, 15, -134, 112, -78, 49, -186, -33, 68, 17, -88, -196, -32, -44, -81, -172, -178}
, {39, 118, 15, -113, -145, -64, -251, 71, 40, 33, -157, -107, 59, 68, 65, 34, -30, 29, -66, -158, -187, 52, 35, 54, -65, 62, -40, 56, 31, -166, -170, -41}
, {77, 74, -23, 47, -3, 112, 78, -30, 95, 43, -99, 70, 44, 70, 32, -116, -30, 84, 12, -95, 99, 43, 70, 26, -305, 48, 76, 67, 6, -75, -65, 99}
}
, {{-16, -3, -39, -115, -103, -109, -210, -66, -50, 1, -185, -189, -1, 30, 4, 30, 12, 1, -35, -56, -96, -31, 15, 72, 85, 42, -80, -19, -53, -31, -96, -139}
, {-15, 15, -116, 41, 69, -40, 28, 81, 34, 18, -107, 60, -20, 20, 13, -64, 14, 16, 41, 57, 41, 22, -19, 31, -34, -50, -41, -25, -54, -5, 112, 38}
, {-51, 32, -37, 37, 20, -25, 35, 17, -2, 9, 87, -13, -2, 1, 25, 44, -37, 26, 33, 5, 14, -17, 13, 108, -83, -10, -102, 20, -104, -149, 11, 23}
}
}
, {{{88, 2, 49, 1, -77, 1, 35, 11, 15, 63, -1, 15, 37, -31, -63, -89, 19, 49, -63, -82, -71, -18, 32, -65, -98, -4, 66, 42, 51, -70, -42, -23}
, {62, -67, 19, -37, 37, -84, -30, -30, -18, -84, 106, -82, -48, -91, -81, -75, -9, -26, 3, 72, 23, -20, -53, -3, -29, 25, 35, 8, 109, 13, 108, -45}
, {-38, -24, 28, -10, 74, -102, 32, -44, -90, -6, 75, -69, -22, -70, -28, -12, -7, -51, -49, 12, 46, -101, 19, 26, -53, -43, 28, -38, 37, -78, 13, -32}
}
, {{27, 51, 6, 38, 1, -16, -27, 16, 4, 86, 50, 44, 3, -20, 68, -12, 1, 57, 31, 68, -15, 52, -7, 50, 42, 71, 53, -28, -48, 49, 28, -42}
, {75, 22, 76, 16, 25, 9, 7, -29, 59, -4, 31, -6, 20, 5, -52, -134, -12, 50, -16, 62, 9, -18, -8, -46, -54, 29, 79, -30, 6, 31, 65, 25}
, {-17, 57, 41, -19, -55, 17, 10, 27, 8, 16, 46, 40, 26, 40, -11, -57, -24, 52, -43, -47, 17, 54, 109, 23, -164, 20, 49, 38, 56, -70, 15, -15}
}
, {{58, -22, 15, -7, 6, 16, -2, 19, 7, 29, -1, 19, 70, -33, -42, -34, -4, 45, 24, -42, 15, 6, -8, -62, -60, 3, 67, -39, -21, -56, -22, 38}
, {30, 34, -7, -3, -44, 15, 14, 14, 29, -1, -72, 27, 13, 39, 17, 131, -10, -2, 63, 28, 23, 39, 44, -70, -46, 83, 54, 59, -110, -47, 12, 29}
, {-53, -91, -106, 15, 73, 1, 96, -22, -118, -67, 56, -49, -75, 30, -9, -19, 8, 42, 71, 111, 0, -15, -89, 20, -18, -22, -43, 3, 20, -4, 58, -5}
}
}
, {{{-60, -24, -110, -53, -148, -40, -74, -64, 21, 41, -132, -10, 13, 16, 82, 35, -13, 29, 3, -110, -244, 7, 93, -7, -23, 37, -85, 10, 8, -89, -133, -7}
, {14, 68, -44, 65, -71, -19, 50, -12, 31, 37, 18, -25, 34, 27, 74, 27, 23, -13, -70, -26, -44, 6, 63, 56, -355, 23, 43, 31, -28, -231, -83, 29}
, {-4, -26, 35, 93, 55, 31, 45, 13, 35, -16, 33, 48, 16, -13, 20, 51, -27, -8, 79, 43, 105, 69, -40, -59, -123, -23, 91, -59, -52, 48, 127, 54}
}
, {{-111, -31, -115, 47, -107, 53, 68, -55, 60, -19, -68, 52, 40, -36, 9, -133, -38, 30, -142, -188, -123, 33, 13, -41, -91, -6, -67, -50, -145, -172, -127, -8}
, {-99, 22, -8, 11, -29, -13, 86, -36, 6, 7, 100, 22, -28, 81, 5, 20, 37, -29, -74, -30, -37, 30, -29, 48, -238, -18, -94, -2, -123, -121, -50, 28}
, {-12, -103, 36, 14, 107, -73, 0, -54, -62, -35, 51, -18, 19, -32, -15, -6, 6, -58, 69, 76, 59, -82, -78, -120, 67, -102, -14, -55, 0, 108, 71, -41}
}
, {{-159, -4, 27, 49, -33, 39, 29, 19, 13, 21, 84, -12, 52, 23, 23, -116, 11, 36, -138, -116, -20, 0, 36, 18, -96, 19, -62, -64, -33, -53, -63, 48}
, {24, 67, 92, 19, 37, -10, -42, 50, -17, 61, 79, -1, 67, -30, -26, -123, -9, 43, -60, 23, 20, -31, 12, 45, 4, -8, 52, -115, 130, 81, 44, 21}
, {49, -15, -13, -8, 89, 16, 18, -21, 30, -49, 24, -9, -51, 17, -26, -24, -6, -3, 20, 39, 105, -37, -23, -106, 55, 40, 71, 23, 19, 103, 118, -18}
}
}
, {{{9, 10, 62, 38, -39, 30, 63, 40, 7, 0, 69, 54, -1, -8, -42, -30, -29, 0, -127, 24, -37, 3, 16, 29, 5, 37, 105, 5, 26, -49, 33, -14}
, {58, -76, 31, -23, 9, -21, 36, -35, -54, -25, 45, -40, -7, 4, -14, -11, 25, -82, -93, 28, -6, -61, -35, 81, -34, 1, 145, -10, 73, -63, 68, 22}
, {-11, -66, 15, -18, -161, 31, 85, -85, -30, -23, 92, 19, 3, -57, -140, -77, 16, -42, -159, -218, -150, -22, -104, -35, -12, -59, 141, -71, 29, -71, -109, 21}
}
, {{72, 1, 94, -15, -20, -24, 87, 43, 12, -15, 151, 48, 21, 26, -15, -35, 36, -22, -44, -2, -25, 17, 45, 14, -50, 42, 77, 20, 14, -94, -56, 38}
, {27, -1, -34, -41, -152, 36, 28, -32, -49, 23, 64, -17, 34, -43, -14, -101, 6, 26, -133, -51, -115, 27, 6, 25, -36, 31, 23, 3, 50, -94, -24, 15}
, {-1, -89, 123, -72, -27, 9, 156, -69, -57, -2, 51, 19, 8, -61, -100, -16, 21, -12, -14, -121, -59, -81, -44, -34, -15, -21, 7, -54, 53, -93, -45, 4}
}
, {{45, -51, 50, 25, -43, 72, -22, -5, 32, -12, 63, 1, 33, 11, 45, -18, -22, 47, -22, -77, 1, 60, 29, -21, -78, 60, 25, 57, 67, 22, -43, 81}
, {-18, 54, 113, -9, -53, 15, -2, -18, 54, 43, -6, 55, 35, -17, 60, -39, 17, -12, -82, -88, 0, 30, 71, -2, -165, 65, -1, 57, 107, -72, -57, -15}
, {39, 69, 45, 39, 13, 60, -20, -20, 50, 33, -5, 18, 70, 69, 10, -78, 39, 48, -165, -93, 24, 0, 83, -22, -130, 94, -2, 57, 31, -65, 53, 18}
}
}
, {{{-102, -110, -79, 116, 70, 53, 39, 3, 36, 11, -9, 69, -129, 12, -65, 31, -23, 15, 3, -2, 67, 13, -135, -69, 19, -89, -121, -91, -137, -3, -41, 69}
, {-89, -105, -55, -74, -44, -162, -50, -113, -160, -157, -55, -96, -122, -65, -57, 41, -31, -90, 37, -61, 27, -119, 11, 24, 21, -47, -160, 12, -12, 2, -95, -105}
, {13, -67, 78, -148, -155, -64, -164, -87, -39, -55, -10, -100, -15, -91, -97, -40, 0, -53, -93, -128, -181, -32, 5, -58, 49, -12, 29, 13, 60, -117, -170, -110}
}
, {{36, 17, 29, -44, -172, 56, -15, -73, -22, -46, 45, -66, 47, 22, -79, 20, -33, -1, -45, -161, -89, -79, -8, 1, -51, 56, 3, 76, 29, -165, -139, -126}
, {23, -17, -20, 38, -124, 81, -192, -50, 60, 30, -71, 6, 58, 78, 4, -32, -11, 34, -144, -280, -20, 36, 24, -40, -57, 24, 1, 87, 0, -171, -116, 68}
, {106, -24, -9, 33, 44, 43, -1, 17, 23, -36, -2, 10, 71, 31, -38, 79, 21, 40, 125, 70, 148, -8, 33, 5, -138, 29, 34, 60, 83, 80, 43, -26}
}
, {{-8, 18, -34, 83, 36, 48, -29, 17, 40, -19, -51, 59, 30, 0, 22, 10, 20, 31, 52, 38, 73, 49, -56, -40, -21, 28, 111, 8, -5, -5, 69, 35}
, {10, -5, -23, -16, 71, 114, 47, 36, 77, 6, -144, 66, 35, 9, 8, 56, 20, 54, 16, 8, 26, 35, 25, -11, -34, 3, -16, -13, -48, -63, 48, 72}
, {-3, 4, 28, -30, -30, -21, 29, 29, 45, 41, 0, 11, -8, 19, -5, 24, -15, -32, -6, -57, -77, 8, 17, -11, -97, -34, 81, -14, 43, -85, -59, 31}
}
}
, {{{-32, -55, -22, 35, -36, 8, 47, -137, -36, -40, 26, -44, -2, 26, -15, 28, -7, -41, -36, -85, -46, 3, -31, -51, -55, 60, -61, 75, -53, -85, -75, 4}
, {-92, -49, -102, -20, 118, -106, -57, -29, -55, -46, -62, -10, -44, 34, 10, 15, 11, -46, 50, 71, 93, -51, -35, -18, 15, -46, -121, -26, 42, -15, 41, -39}
, {-102, -55, -40, -35, 81, -85, 15, 5, -86, -60, 18, -23, -148, -56, -50, 40, -40, -79, -17, 12, -36, -121, -98, -24, -11, -134, -80, -112, -38, -64, 38, -40}
}
, {{34, 50, 30, 25, 17, 71, -55, -8, 13, 8, 102, 48, -7, -10, -1, -159, 13, 23, -183, -19, 43, 15, 59, -63, -83, -4, -17, 27, 58, 32, -42, 13}
, {84, 8, 72, 9, 18, 82, -92, -1, 20, -6, 49, 30, 71, 20, 13, -201, 32, -29, -232, -1, -22, 17, 43, -112, -42, 87, 73, 13, 35, -38, 1, 56}
, {70, 5, 2, -2, -15, 50, -46, -39, 27, -33, 38, -37, 16, 34, -3, -159, 14, 29, -68, -130, 17, 18, 4, -90, -63, 43, -18, 44, 49, 20, 26, 14}
}
, {{13, 28, -36, 84, 88, 31, -151, -14, -15, 32, -50, 3, -43, 15, -15, 23, 3, -17, 67, 101, 103, -32, -110, 50, 8, -91, 53, -29, -15, 78, 108, 19}
, {62, 53, 59, 57, 90, 54, -86, 33, 2, -2, -166, 29, -16, 18, 63, 46, -8, 59, 110, 78, 112, 8, 10, -57, 154, 6, 93, -57, -123, 39, 104, 64}
, {25, 12, 80, 34, 42, 80, -43, 36, -5, 12, -79, 24, 38, -10, 0, 20, 6, -27, 60, 62, 0, 74, 4, -65, 20, 10, 28, -28, -47, 18, -35, -16}
}
}
}
;

#undef INPUT_CHANNELS
#undef CONV_FILTERS
#undef CONV_KERNEL_SIZE_X
#undef CONV_KERNEL_SIZE_Y
#undef CONV_GROUPS