/**
  ******************************************************************************
  * @file    weights/conv2d.cc
  * @author  Pierre-Emmanuel Novac <penovac@unice.fr>, LEAT, CNRS, Université Côte d'Azur, France
  * @version V2.0
  * @date    24 march 2020
  * @brief   Template generating plain C code for the implementation of Convolutional Neural Networks on MCU
  */

#include <stdint.h>

#define INPUT_CHANNELS     16
#define CONV_FILTERS       32
#define CONV_KERNEL_SIZE_Y 3
#define CONV_KERNEL_SIZE_X 3
#define CONV_GROUPS        1


const int16_t conv2d_7_bias[CONV_FILTERS] = {139, 13, -96, -18, -35, 16, 79, -44, 25, -4, -15, 34, -25, -15, -22, 68, -59, -55, -1, -15, -36, 84, -14, -52, -1, 6, -2, -6, -45, -13, -38, 19}
;


const int16_t conv2d_7_kernel[CONV_FILTERS][CONV_KERNEL_SIZE_Y][CONV_KERNEL_SIZE_X][INPUT_CHANNELS / CONV_GROUPS] = {{{{125, 144, 56, -29, -34, 83, 108, -56, 159, 25, 10, 60, 144, 69, 96, 29}
, {100, 136, 17, -50, -8, -14, 80, -3, 87, -18, -68, 36, 132, 17, 86, -13}
, {56, 95, 7, 120, 100, -35, 119, 5, 145, 51, -3, 2, 84, 10, 35, -14}
}
, {{70, -39, -63, -129, -137, -7, 10, -110, 6, -114, -125, -35, -17, -17, -7, -62}
, {-52, -68, -186, -216, -165, -107, 3, -11, -18, -169, -150, -130, -121, -94, -49, -195}
, {-33, -44, -73, 99, 61, -73, 34, 7, 57, -26, 5, -241, 30, -133, -145, -72}
}
, {{-44, -12, 4, 45, -67, -9, 39, 85, -36, -25, -4, -8, -32, -32, -55, -9}
, {-200, -292, -102, 24, -208, 13, -112, 67, -1, -182, 43, -13, -253, -13, 53, -60}
, {-271, -264, -251, -136, -152, -171, -55, -113, 201, -201, -305, -314, -153, -329, -26, -219}
}
}
, {{{-6, -1, 20, 29, 1, 38, 75, 34, 91, 80, 32, 41, 35, 86, 36, 79}
, {-28, -166, -61, -37, -248, 46, -231, -34, 29, -98, 47, 6, -101, -12, 132, -73}
, {-149, -113, -168, -80, -58, -191, -73, 91, -36, -262, -18, -141, -109, -172, 12, -232}
}
, {{58, -52, 75, 128, 204, 74, -73, 60, 150, 98, 47, 57, 65, 15, 106, 57}
, {15, -97, 21, -78, -187, 27, -267, -174, 65, -82, 19, 0, -39, 10, 100, -36}
, {-324, -261, -132, 96, 13, -165, -278, -62, -32, 61, -83, -117, -111, -112, -118, -100}
}
, {{101, -30, 90, 15, 144, 76, -98, -133, 98, 112, -42, 41, 100, 82, 64, 24}
, {-49, -97, -50, -102, -269, -72, -216, -203, -1, -288, -237, -171, -188, -47, -3, -154}
, {-128, -172, -67, 51, 57, -136, -68, 68, -200, 76, -59, -22, -48, -69, -258, 2}
}
}
, {{{-6, -29, 23, 4, 32, 21, -57, 89, 37, 38, 110, 37, -48, 23, 54, 14}
, {-75, 71, -98, -76, -13, -97, 52, 110, -33, -93, 39, -81, 1, -105, 44, -77}
, {-17, 39, -49, -19, 34, -66, 55, 33, 29, -51, -80, -40, -8, -10, 115, -6}
}
, {{58, 58, 42, -58, -16, -26, 99, -39, -2, -14, -31, 70, -5, 40, 87, 17}
, {-64, -44, 21, -148, -129, 23, 51, 75, -37, -18, 135, 51, -4, 42, 109, 14}
, {-68, 33, 16, -164, -38, 14, 48, 38, 17, 25, 50, -41, 6, 18, 55, -13}
}
, {{36, 113, 58, -231, -67, 32, 34, -47, -83, 38, 50, 15, 52, 53, -17, 22}
, {95, 114, 36, -206, -84, 86, 159, -7, -68, 0, 119, 98, -7, 36, 70, 23}
, {-23, 77, 29, -235, -41, 0, 170, 38, -59, 34, 162, -15, -11, 17, 54, 14}
}
}
, {{{-24, -220, -26, -58, -24, -28, -202, 40, 35, 9, -11, 26, -10, -9, 49, -5}
, {-47, -174, -50, 22, 36, -6, -212, -19, 56, 2, -17, -15, 2, -58, -44, -21}
, {-17, 28, 12, 54, 62, -35, -111, 76, 11, -15, 105, -1, -15, 2, -3, -2}
}
, {{2, -66, 18, 56, -41, 2, -62, -12, 123, 18, -49, 18, 13, 50, 40, -17}
, {9, -245, -23, 141, 10, 19, -223, 1, 98, -31, -20, 44, -54, -33, 160, -18}
, {-35, -45, -89, -28, -103, -34, -144, -92, 53, -88, -98, -96, -34, -48, 53, -79}
}
, {{-2, -104, -21, 30, 7, -1, 67, 33, 11, -35, -166, 28, 9, -1, 53, 13}
, {52, -119, 15, 95, 41, 50, 48, 1, 119, 55, -42, 90, 1, 22, 156, 66}
, {20, -292, 50, -37, -136, 28, -128, 103, 113, -3, 160, 128, -38, 25, 208, 14}
}
}
, {{{26, -62, 19, -77, -86, 26, -25, 23, 47, -59, 20, 38, -36, 3, -6, -18}
, {-48, -72, -99, -16, -67, 25, -57, 70, 15, -138, 8, 35, -96, -46, 44, -42}
, {-91, -64, -241, 164, -107, -133, 17, -156, 20, -182, -210, -211, -102, -190, -114, -178}
}
, {{66, 65, 16, -164, -49, 10, 157, -34, -12, 58, 99, 85, 8, 27, 24, 44}
, {21, 99, 89, -40, -175, 114, 223, 9, -12, 143, 86, 95, -2, 79, 49, 96}
, {-118, -156, -58, -174, -208, -45, -10, 17, 173, -129, 105, -6, -177, -6, 192, -25}
}
, {{22, -52, 15, -111, 24, -29, 40, -47, -67, 28, 53, -38, 35, 6, -81, -4}
, {8, 78, 21, 9, 37, 19, 85, -47, 1, 66, 78, 4, 86, 35, 54, 50}
, {-8, -68, 106, -215, -119, 80, -2, -38, 7, 12, 62, 42, -52, 118, 30, 40}
}
}
, {{{9, -112, -10, 118, 31, 21, -181, -16, 102, -3, -67, 28, 80, 14, -8, 48}
, {58, -5, 40, 57, -12, 38, -79, -65, 47, 24, -5, 0, 8, 43, 9, 40}
, {14, 41, -44, -145, 21, 11, 25, 87, 6, 34, 25, 12, 11, 29, 53, 28}
}
, {{-21, 0, 32, 176, -24, 28, 78, -164, 83, -47, -74, -16, 34, 24, 87, 20}
, {44, -8, 39, 223, 61, -4, 29, 6, 21, 98, 51, 87, 12, 67, -22, -9}
, {59, -3, 64, 86, 66, 76, -15, 41, -38, 107, 80, 38, 82, 69, -38, 55}
}
, {{-9, -71, -146, 19, -150, -95, 182, -166, 9, -156, -126, -163, -93, -139, -26, -157}
, {15, 123, -134, -165, -176, -148, 180, -11, -131, -162, -84, -236, -23, -169, -232, -246}
, {-72, 161, -207, -230, -198, -179, 13, -40, -115, -244, -186, -244, -116, -156, -248, -209}
}
}
, {{{-28, -20, 11, 104, 7, -21, 91, -101, -45, 37, -134, -80, 21, 20, -79, 25}
, {59, 53, 56, 194, 102, 54, 22, -19, -7, 53, 87, 64, 62, 69, 42, 39}
, {105, 138, 124, -16, 82, 155, 43, 8, -55, 91, 49, 53, 156, 112, -37, 47}
}
, {{-95, -15, -219, 2, -71, -205, 223, 23, -219, -148, -258, -278, -24, -236, -227, -168}
, {26, 139, -90, -67, -144, -146, 164, -16, -291, -155, -197, -342, 134, -139, -317, -129}
, {-19, 151, -73, -241, -132, -156, 103, 61, -161, -178, -137, -197, -78, -73, -243, -173}
}
, {{-171, -173, -98, -191, -113, -146, -131, 68, -68, -57, 59, -40, -160, -84, -29, -16}
, {-261, -320, -72, -61, 81, -137, -353, 121, -30, -33, 170, 33, -215, -88, -24, -58}
, {-74, -492, -51, -39, -17, -22, -484, 64, -108, -11, 124, 59, -100, -44, 12, 18}
}
}
, {{{51, -44, -27, 73, 6, -40, 24, -65, -149, 12, -114, -1, 20, 4, -255, -44}
, {48, -118, 52, -36, -1, 30, -68, -39, 49, 49, 27, 76, 34, 78, -6, 8}
, {-56, -103, -39, 130, -185, -15, -45, 36, 27, -27, 27, -2, -2, -68, 44, -30}
}
, {{-11, -14, -103, 117, 66, -27, 0, -135, -4, -41, -144, -72, 40, -78, -141, -33}
, {78, -91, 31, 109, 2, 60, 25, -227, -47, 108, -159, 60, 71, 82, -7, 80}
, {28, -82, 61, -84, -298, 73, -75, -24, 21, 20, 42, 55, -60, -6, 57, -33}
}
, {{-102, -12, -100, 21, -37, -96, 23, -100, 47, -17, -247, -84, -4, -129, -26, -34}
, {62, -114, 2, 121, 113, -13, 80, -221, -6, 63, -203, 28, 81, 53, 47, 56}
, {50, -166, -13, -72, -168, 86, -106, -128, 111, -32, 9, 70, -27, 36, 186, 38}
}
}
, {{{47, -44, 28, -38, -77, 25, 62, -21, -43, 39, 51, -11, 24, 39, 29, -3}
, {-82, -97, -98, -159, -311, -47, -27, -4, -36, -162, 58, -34, -110, -65, 36, -79}
, {-28, -71, -82, 72, 56, -86, 125, 9, -10, -15, -75, -133, 32, -113, -55, -90}
}
, {{24, -109, 85, 53, 55, 56, 90, 39, 25, 84, 109, 79, 2, 65, 49, 59}
, {17, -490, 19, -18, -142, 72, -368, -8, 38, -39, 62, 17, -27, -2, 109, -15}
, {-273, -228, -150, 270, 42, -136, -140, -59, 125, -151, -100, -123, -64, -152, 111, -145}
}
, {{9, -94, 68, 146, 94, 56, 26, 13, 95, 48, 40, 51, 50, 57, 85, 24}
, {73, -106, 88, 33, 24, 131, -155, 6, 130, 61, 31, 55, -12, 71, 142, 22}
, {-88, -169, -55, 44, -37, 14, -155, 59, 112, -105, -56, -22, -50, -90, 125, -41}
}
}
, {{{-48, 42, -34, -53, 7, -31, 95, 33, -133, -25, -31, -48, -78, -32, -59, -101}
, {20, -129, -33, -62, 8, 11, -35, -10, -245, 7, -78, 7, -5, -48, -284, 59}
, {60, -108, 25, 25, 7, 51, -240, -16, -10, 18, -30, 30, 47, 55, -9, 17}
}
, {{-58, -155, -21, 69, -55, -54, -147, 72, -216, -11, -85, -74, -61, -74, -165, -20}
, {24, -246, 47, 129, 41, 40, -249, 13, -57, 80, -90, 30, 50, 66, -195, 38}
, {69, -50, 59, -40, -33, 35, -262, -140, 162, 54, -94, 63, -45, 89, 48, 3}
}
, {{6, -117, -49, 87, 43, -27, 6, -24, -268, -21, -87, 17, 8, -6, -249, 25}
, {22, -30, 6, 169, 51, 1, 12, -63, 64, -11, -129, 22, 74, 72, 3, 83}
, {27, -49, 37, -25, -90, 68, -108, -196, 53, 40, -150, 51, 0, 0, 44, 29}
}
}
, {{{-6, 6, 9, -4, -72, -3, 46, -39, 6, 3, 70, 35, -9, 63, 62, -3}
, {20, -132, -22, -4, 47, -43, -63, 13, 54, -22, 28, 44, -17, 13, 83, 7}
, {-15, 21, -17, 17, 19, -35, 29, 15, -34, -20, 94, -4, -6, 0, 17, 20}
}
, {{57, -113, -30, -65, 81, -10, -102, -72, -32, 78, -26, 10, 10, 35, -77, 47}
, {100, -166, 11, 34, 77, 62, -113, -29, 68, 46, 109, 67, 63, 49, 16, 29}
, {35, -3, -13, -126, -85, 39, -28, -98, 27, 31, -84, -26, 55, 20, 63, 40}
}
, {{60, -157, 19, 11, 79, 36, -229, 28, 10, 21, -114, 72, 2, 24, -29, 1}
, {36, -111, 23, 74, 46, 23, -320, -181, 65, 28, -197, 44, -14, 42, 27, 45}
, {20, -1, -2, 30, -96, -40, -87, -102, 125, -74, -173, -67, -45, 5, 43, -24}
}
}
, {{{88, -2, 54, 193, 68, 49, -1, -9, 116, 59, -60, 33, 7, 87, 111, 47}
, {19, -5, 13, -75, -22, 36, -47, -61, 52, -74, -310, -108, 31, -9, -1, -81}
, {-23, -34, -57, -94, -27, -89, -81, -17, -118, -84, -161, -64, -78, -81, -362, -12}
}
, {{38, 76, 81, -107, -235, 82, -51, -131, 83, -156, -49, -6, 87, 67, 130, -24}
, {-189, -135, -156, 20, 80, -264, -102, 53, 220, -66, -313, -117, -229, -164, -159, -102}
, {-17, -224, 19, 33, 12, 54, -161, 136, -135, 73, 83, 50, 44, 17, -125, 71}
}
, {{-182, 47, -178, -59, -44, -272, -136, -116, 15, -215, -323, -277, -305, -163, -221, -228}
, {-29, -268, 21, 134, 96, -46, -128, 18, -101, 71, -65, 18, -21, -44, -444, -34}
, {45, 4, 88, 103, 107, 51, 1, 94, 145, 81, 45, 42, 55, 73, 50, 38}
}
}
, {{{14, 21, 6, 107, 68, -44, 33, -135, -79, -72, -104, -125, 20, -53, -53, -97}
, {16, 23, 9, -2, 95, -18, 119, -88, -106, 93, -75, -14, 94, 6, -6, 71}
, {20, -53, 26, 124, 104, 65, 73, -31, 91, -8, -19, 66, -3, 62, 83, 57}
}
, {{-172, -66, -174, 12, -59, -131, -58, -51, 62, -273, -32, -98, -127, -145, 85, -123}
, {-7, 37, 16, -33, 48, -114, 113, -222, -198, -8, -261, -92, 61, -70, -71, -54}
, {73, 53, 46, 194, 47, 20, 209, -165, 62, 100, 2, 63, 112, 126, 114, 92}
}
, {{-140, -78, 7, -132, -98, 14, -178, 25, 24, -49, 141, 45, -176, 7, 43, -36}
, {-152, 21, -123, -107, -20, -66, 149, 1, -25, -60, 27, -54, -7, -167, 71, -76}
, {1, 89, 59, -8, 53, -17, 194, -79, -123, 30, -58, -44, 50, 5, 8, -11}
}
}
, {{{-16, -5, -5, -84, 15, -17, -53, 46, -4, -3, 87, 1, -27, -17, 39, -21}
, {-67, -136, -17, 137, -14, -1, -59, 100, 58, -36, 83, 35, -52, -16, 35, -7}
, {-33, -105, -71, 86, -106, 20, -82, -70, 49, -97, 144, 1, -61, -39, 147, -57}
}
, {{5, -114, 15, 3, 10, 27, -76, -20, 64, 23, -52, 26, 3, -39, 118, 16}
, {20, -136, 15, 6, -5, 28, -44, -44, 37, 42, -27, 60, -23, 19, 117, 32}
, {-51, -76, 61, 32, 7, 17, -93, 83, 42, 71, 145, 75, -114, 62, 53, 43}
}
, {{28, -7, -9, -188, -21, 8, -33, 5, -2, 28, 13, 5, 50, -22, -35, 24}
, {-15, -18, 40, -81, 5, -11, -114, -40, -74, 48, -92, 36, 43, 33, -72, 94}
, {78, -10, 4, -23, -7, 46, 19, -12, -140, 51, -31, 12, 81, 30, -83, 60}
}
}
, {{{-11, 41, -19, -9, -41, 6, 25, 31, -57, -1, -1, 71, -31, -19, -48, -10}
, {-15, 78, 8, -139, -60, -17, 62, -17, -227, 10, 69, 29, 10, 43, -128, 23}
, {-5, -38, 21, -94, -11, -10, 27, 2, -88, -6, 30, 21, -68, 45, -51, 34}
}
, {{-16, 63, -53, -13, -10, -70, 93, -64, -162, -72, -139, -156, -4, -89, -173, -75}
, {-45, -13, -33, 39, 40, -55, -1, 57, -260, 21, -55, 24, -24, -24, -298, -35}
, {72, -74, 37, 113, 133, 88, -28, 0, -96, 90, 20, 85, 121, 45, -82, 65}
}
, {{-105, -105, -85, -28, 76, -76, -134, 73, -132, -14, -20, -22, -46, -89, -249, -28}
, {58, -132, 64, 85, 79, 23, -84, 8, -236, 8, -46, 7, 33, 22, -142, 37}
, {23, 21, 28, 97, 51, 30, -32, -89, 123, 40, -170, -20, 59, 33, 100, 37}
}
}
, {{{44, 5, 58, 51, 119, 34, -16, 70, 54, 24, 26, 60, 116, 18, 48, 50}
, {77, 22, 30, -21, 122, 63, -52, -65, 15, -8, -96, 63, 84, 30, 60, 43}
, {33, -9, -49, 63, -66, 10, -70, -228, 167, -64, -86, -57, -59, -12, 135, -63}
}
, {{37, 41, 71, 101, 47, 46, -41, 50, 57, 68, -50, 74, 83, 47, -12, 62}
, {77, 76, 32, 111, -116, 36, -90, -333, 36, 23, -116, -63, 114, 93, 27, -5}
, {-118, -22, -119, 22, -184, -83, -110, -79, 141, -336, -294, -230, -149, -80, -29, -170}
}
, {{2, 128, -9, 31, -139, -28, 58, -117, 0, -94, -241, -115, -65, 6, -26, -68}
, {-124, 131, -91, -94, -215, -136, 41, -38, -58, -234, -266, -126, -175, -99, -142, -146}
, {-226, -171, -71, 122, -140, -129, -159, -27, -38, -116, -39, -63, -139, -65, -133, -76}
}
}
, {{{-4, 81, 20, -20, -50, 53, 24, -124, -9, 5, 138, 2, 28, 11, -27, -28}
, {9, 14, -40, 71, 40, -19, -53, -51, -114, -60, -96, -51, 3, -41, -186, -2}
, {11, -60, 14, -33, 60, -20, -74, 79, -16, -45, -28, 37, -81, -34, -91, -23}
}
, {{-62, -201, 0, -56, 9, -113, -290, 69, -164, -64, 0, -9, -118, -72, -102, 11}
, {-2, -228, 52, -95, 136, 65, -299, 122, -208, 102, 203, 91, 40, -28, -226, 75}
, {64, 78, 47, -221, 90, 85, -41, -15, -43, 37, 127, 49, 124, 76, -76, 32}
}
, {{64, 10, 63, -137, 50, 106, -50, 105, -173, 76, 86, 102, 109, 27, -138, 37}
, {73, 91, 11, -22, -23, 29, -73, -187, -27, 17, -52, -15, 84, 20, -93, 9}
, {16, 4, 6, -190, -144, -34, -103, -146, -15, -115, -241, -71, -77, 1, -57, -40}
}
}
, {{{73, -82, -9, 53, -44, 22, -28, -81, 57, -39, -78, 11, -28, 14, 64, -23}
, {30, -87, -46, -106, -45, -25, -130, 1, -46, -36, 9, -4, 3, 36, -75, 36}
, {-34, 6, -40, -112, -55, -10, 8, 19, -99, 13, 88, 52, 7, 33, -21, 72}
}
, {{53, 66, 36, 35, -44, 5, 63, 15, -88, 13, 11, 25, 9, 11, 28, 59}
, {43, 104, 42, -134, -64, 47, 86, -47, -67, 40, 11, -4, 30, 45, 80, 28}
, {-2, 95, -8, -318, -79, -21, 171, 14, -10, 26, 3, 25, -8, -54, 9, -9}
}
, {{-6, 90, -68, 51, -11, -82, 136, -318, -88, -50, -387, -159, 34, -45, -13, -38}
, {57, 87, 43, -18, -95, 31, 211, -147, -66, 42, 15, 14, -2, 25, -2, 13}
, {22, 20, 60, -138, -71, 44, 53, 12, -12, 47, 117, 18, 15, 52, 35, 39}
}
}
, {{{-44, -25, -77, -59, 59, -38, -34, -13, -108, 33, -32, 13, -13, 22, -86, -21}
, {21, -2, 15, -24, 72, 24, -85, 81, -51, 21, -15, 34, 59, 18, 4, 44}
, {89, 75, 60, -27, 20, 86, -31, -137, 34, 71, 14, 74, 181, 87, -22, 74}
}
, {{35, -6, 57, -20, 83, 13, -121, 138, -28, 61, 31, 39, 54, 34, -35, 6}
, {33, 107, 27, 68, 63, 39, -52, -66, 13, 36, 53, 27, 107, 20, 60, 17}
, {-61, 24, -23, -216, -213, 0, -99, -360, 66, -192, -248, -151, -24, -37, 58, -131}
}
, {{27, 126, 30, -20, -71, 22, -28, -154, 46, -5, -120, -15, 51, 24, 6, 21}
, {-24, 97, -89, -165, -348, -125, -23, -102, 11, -220, -109, -113, -89, -38, -96, -154}
, {-152, -101, -53, 32, 29, -174, -135, 46, -52, -103, 92, -61, -188, -97, -92, -34}
}
}
, {{{28, -16, 31, 5, -48, 26, 5, -14, -62, 8, 36, 46, -8, 15, 37, 30}
, {-9, 44, 52, 20, 16, 58, 189, 1, -97, 62, 102, 66, 67, 16, 18, 49}
, {27, 33, 16, -209, -90, 54, 163, 75, -167, 77, 90, 67, 32, 110, 30, 56}
}
, {{38, 32, -57, 62, -30, -33, 73, -61, -35, -35, -188, -63, -9, -21, 3, -39}
, {29, 78, -26, -76, -93, -49, 151, -157, -263, -51, 225, -125, 47, -8, -171, -44}
, {70, 76, 56, -21, 9, 60, 120, -83, -82, 66, 206, -12, 29, 67, -79, 32}
}
, {{-85, 54, -29, -65, -73, -48, 39, 72, -30, -130, 204, -12, -69, -75, -15, -45}
, {-142, -219, -210, -39, -8, -164, -214, 12, -189, -93, -23, -70, -200, -195, -72, -75}
, {20, -62, -70, -11, 36, -14, -9, 11, -83, -55, 19, -31, 23, -78, -112, 11}
}
}
, {{{23, 41, 46, -38, 27, 17, 15, 12, -14, 4, 64, -22, -11, -13, -37, -18}
, {38, 33, -22, -146, -22, -32, 68, 73, -24, -30, -11, 13, -28, 25, -32, -10}
, {-9, -28, -2, -70, 44, -6, 19, 55, -110, 23, 64, 35, 54, -39, -24, 33}
}
, {{44, 106, 26, -131, 40, 35, -41, 102, -8, 5, 15, 43, 30, 4, -12, 3}
, {85, 69, -13, -126, 78, 25, 6, 97, -47, 42, 77, 68, 40, 29, -130, 58}
, {73, 164, 16, -50, -1, 21, 54, -180, 16, 95, -60, -81, 89, -12, -26, 47}
}
, {{-4, 33, -10, -18, 12, -3, -10, -71, 52, 9, -51, -34, -20, -1, 19, -16}
, {44, 23, -6, -13, -70, -7, 42, -205, 41, -13, -266, -87, 49, -47, 42, -42}
, {-4, -92, -103, 88, 20, -124, -3, -33, 31, -88, -187, -60, -116, -111, 60, -95}
}
}
, {{{24, 46, 53, 33, 30, 34, -22, -18, 92, 16, 8, -1, 25, 37, 114, 34}
, {41, 78, 65, 224, 62, 5, 97, 17, 73, 4, -59, 6, 11, 75, 39, 12}
, {79, -4, 43, -17, 108, 45, 28, 68, 2, 46, 65, 47, 37, 4, -3, 71}
}
, {{-2, 88, 5, 176, -79, -46, 158, -68, -42, 104, -23, -41, -9, 6, -142, 35}
, {22, -31, 51, 180, 5, 90, 68, 37, -39, 100, 210, 36, 44, 23, -55, 56}
, {25, 72, 23, -3, -100, 104, -31, -179, 3, 23, 51, -75, 71, 34, -105, -37}
}
, {{-87, 15, -182, -96, -130, -198, 184, 115, -115, -296, 147, -120, -130, -162, -63, -149}
, {-56, -20, -312, -196, -168, -326, 123, 119, -92, -454, 18, -147, -140, -297, -164, -326}
, {-148, -182, -279, -404, -182, -244, -186, 198, -90, -283, 100, -54, -296, -242, -245, -188}
}
}
, {{{12, -15, -71, -34, -59, -22, -63, 69, -33, -101, 23, 38, -75, -20, 65, 21}
, {-88, -6, -109, -105, -57, -88, -23, 116, -59, -211, -18, 21, -198, -67, 13, -31}
, {-114, -108, -150, -155, -35, -87, -10, 127, -95, -94, 44, 44, -192, -74, 17, -79}
}
, {{48, 97, 59, 31, -46, 51, 26, 76, -143, 76, -24, 63, 118, 46, -42, 48}
, {100, 103, 54, 47, -2, 49, 143, 33, -57, 96, 100, 98, 75, 86, 19, 52}
, {47, 159, 88, 5, 35, 75, 79, 39, -88, 104, 41, 32, 89, 106, 24, 102}
}
, {{-24, 103, -48, -30, -120, -62, 87, -193, -76, -72, 6, -126, 30, -91, -35, -76}
, {-6, 52, -70, 31, -85, -105, 79, -173, -113, -122, -350, -117, -4, -34, -127, -67}
, {50, -3, -54, 1, -25, -37, 78, -96, 13, -78, 76, -57, 23, -49, -21, -77}
}
}
, {{{-14, -1, 3, -18, -56, -29, 4, -5, -18, 27, 53, -8, -15, 43, 32, -3}
, {-4, -122, 1, -32, -8, 35, -96, -7, -13, -49, -21, 39, -58, 6, 125, -21}
, {-28, -13, -39, 114, -19, -61, 6, 1, 75, -112, -18, -25, -27, -53, 153, -79}
}
, {{3, 16, -34, -7, -52, -55, 16, -99, -81, 33, -65, -40, 20, 17, -128, 6}
, {41, -4, 61, -38, -49, 17, 120, -74, -85, -38, 25, 20, 54, 39, 33, 52}
, {-18, -26, 76, -216, -94, 78, 103, 4, 80, 18, 114, 60, -14, 121, 67, 32}
}
, {{-16, -4, -21, -145, -83, 8, -39, -145, 2, -65, -107, -35, -76, -8, 28, -41}
, {3, 188, 7, -48, 7, -67, 206, -281, -189, -23, -380, -127, 38, -65, -109, -58}
, {37, 124, 69, -75, -12, 26, 197, -111, -32, 27, 177, 25, 32, 78, 32, 54}
}
}
, {{{-12, -46, -83, -6, 22, -42, 47, 5, -253, -13, -17, -18, 14, -48, -395, 0}
, {87, -191, 65, -11, 52, 104, -160, -46, 2, 70, 50, 43, 20, 44, -54, 39}
, {19, 44, 41, 47, -205, 58, -10, -209, 33, -50, -68, -55, 28, 2, 120, -9}
}
, {{-50, -164, -49, 57, 48, -54, -110, 64, -383, 4, -13, -19, 40, -47, -279, -13}
, {84, -219, 112, 185, 85, 84, -379, -168, 126, 116, -35, 89, 69, 103, 43, 66}
, {-45, -116, -19, 29, -342, -22, -197, -106, 72, -179, -9, -33, -63, -58, 102, -60}
}
, {{-37, -186, -21, 139, 15, 58, -179, -14, -49, 5, -69, 20, 81, -24, -29, 66}
, {62, -71, 29, 111, 24, 86, -56, -218, 89, 50, -187, 49, -26, 50, 76, 23}
, {-24, -36, -85, -85, -82, -54, -72, -2, -9, -89, 32, -53, -17, -76, 5, -74}
}
}
, {{{-109, -43, -99, 221, 79, -132, 143, -86, -167, -42, 72, -219, -23, -143, -134, -101}
, {60, 128, 50, 119, -11, 19, 96, -173, -140, 110, -134, -210, 113, 14, -276, 36}
, {16, 94, 23, 110, -38, -9, 84, -161, -29, -40, -229, -130, 82, 25, -192, -14}
}
, {{-170, -14, -247, -164, -90, -241, 36, 171, -120, -182, 201, -64, -285, -212, -78, -143}
, {-221, -36, -305, -337, -77, -218, 11, 69, -168, -228, 39, -55, -302, -214, -43, -106}
, {-111, -178, -95, -173, -44, -81, -135, 91, -174, -74, 139, -1, -173, -133, -124, -45}
}
, {{41, -17, 53, 38, 55, 72, -45, 32, 33, 31, -11, 30, 61, 33, 41, 50}
, {40, 66, 35, 38, 84, 79, 49, 85, 66, 98, 59, 81, 10, 63, 63, 65}
, {46, 118, 62, 6, 50, 72, 35, 118, -48, 25, 25, 73, 55, 49, 45, 35}
}
}
, {{{-215, -52, -212, -44, -96, -115, 40, 40, -51, -318, 27, -54, -258, -197, -15, -207}
, {-63, -17, -189, -99, -201, -241, 92, -27, -229, -305, -190, -280, -93, -288, -166, -151}
, {23, 95, -166, 55, -88, -177, 161, -181, -159, -143, -340, -206, 0, -164, -46, -70}
}
, {{-24, -8, 81, -18, -32, 71, -107, 101, -31, 24, 123, 40, -5, 49, -22, 67}
, {-82, -140, -32, 37, -45, 23, -155, 66, -53, -13, 93, 72, -73, -7, 41, -26}
, {-94, -81, -56, -74, -53, -31, -2, 81, -3, -8, 7, 71, -114, -19, 124, -35}
}
, {{25, 107, -7, 30, 52, 17, 34, -16, 46, -7, 96, -15, 102, 37, 8, 32}
, {112, 81, 100, -6, 21, 48, 123, 32, 10, 33, 23, 92, 88, 67, -14, 37}
, {14, 119, 21, -84, -16, 17, 156, 58, -23, 37, 100, 56, 26, 47, 47, 81}
}
}
, {{{7, 13, 8, -65, 1, -31, 50, -22, -85, -26, 25, 40, 9, 35, -10, 18}
, {17, -94, -15, -19, -1, 10, 28, -3, 67, 19, 85, 44, 6, 21, 119, 48}
, {-1, -154, -39, 41, -15, -10, -68, 29, 52, -30, 22, 3, -52, 1, 56, 8}
}
, {{-44, -48, 16, -76, 35, -20, -14, -66, -201, -16, -28, -22, -28, 19, -184, -43}
, {68, -107, 12, -58, 35, 10, 9, 20, 25, 37, -38, 74, 32, 64, -4, 46}
, {-15, -74, 55, -75, 54, 72, -65, -9, -67, 61, 36, 48, -17, 68, 43, 30}
}
, {{-25, -81, -29, -131, 57, 46, -89, 170, -174, -17, 15, -24, 44, -85, -204, 26}
, {76, -59, 54, -18, 53, 41, -102, -58, 22, 78, -145, 9, 28, 13, -92, 4}
, {90, -45, 49, -52, -36, 44, -38, -162, -12, 38, -129, -43, 48, -26, 61, 29}
}
}
, {{{-48, 23, -7, -23, 38, -41, 54, 46, -11, -33, 36, -37, -21, -16, 51, -13}
, {2, 6, -5, -180, 44, 3, 15, 116, 53, -13, -2, 30, -94, -6, 57, 24}
, {-33, -58, -16, -113, 68, -11, 9, 102, -72, 56, -11, 9, 3, 8, -14, 17}
}
, {{14, 101, 33, -100, 29, -4, -95, 58, -61, 15, 104, 26, 2, -7, -75, 18}
, {14, 133, 77, -110, -4, 11, 19, 30, -28, 15, -41, -12, 129, 46, -17, 3}
, {16, 102, 51, -219, -52, 36, 33, 57, -63, -2, 28, -1, 85, 27, 6, 39}
}
, {{31, 56, -18, -40, -46, 41, -83, 27, 23, 25, 46, -2, 14, 9, 11, -10}
, {-24, 140, 24, 3, -64, -24, 121, -60, 23, -10, -40, -72, 39, 33, -27, -38}
, {-47, 114, -62, -4, -11, 1, 187, 61, 42, -42, -53, -28, 40, -38, 80, -3}
}
}
, {{{-25, -50, -35, 118, 18, 13, -22, 10, -80, -36, -26, 20, -17, -16, -70, 11}
, {57, -6, 25, -30, 12, 30, 5, -32, -74, -2, -103, 15, -17, 3, -18, 0}
, {17, -61, 5, -105, -1, -52, -8, 59, -84, -9, 45, 3, -64, -34, -5, -4}
}
, {{96, -60, 29, 23, -10, 46, 21, -1, -136, -47, -10, 44, 25, -35, 43, 14}
, {29, -21, 43, -31, -18, 56, -62, 40, -163, 21, -66, -10, 14, -28, -138, 68}
, {79, -5, 11, -34, -6, 84, 20, 30, -204, 88, 14, 90, 88, 40, -155, 58}
}
, {{13, 117, 27, -16, 29, -14, 50, -29, -101, 40, 91, 15, 23, 20, -64, -19}
, {-11, 72, -28, 85, 11, -19, 55, -170, -32, 4, -40, -121, 30, -9, -47, 12}
, {89, 48, 19, -2, 41, -51, 101, -153, -57, -51, -178, 60, 24, 30, -13, 13}
}
}
, {{{1, 2, 7, 93, 93, 12, -100, 48, -5, 36, 59, -16, 58, -30, -61, 24}
, {-1, 31, 16, 66, -24, -46, -93, -104, 42, -64, -150, -123, 22, 14, -77, -57}
, {-57, -80, -46, 10, 18, -60, -65, -31, 2, -47, -88, -25, -115, -55, 12, -41}
}
, {{-19, -100, -22, 54, 22, -8, -189, 54, 4, -20, -68, -4, -3, 33, 84, -48}
, {-35, -220, -87, -176, 11, -52, -286, 190, -12, -63, -6, 26, -76, -66, -71, -12}
, {-8, 35, 1, -70, 89, 29, -235, 89, -58, 81, 125, 63, 23, 0, -43, 15}
}
, {{58, 53, 34, -111, 66, 4, -55, 119, -22, 49, 33, 41, -35, 6, -36, 21}
, {76, 117, 78, -89, 48, 92, -94, 193, -96, 122, 38, 94, 117, 73, -32, 76}
, {38, 11, 22, -73, 9, 51, -47, 16, 6, -1, -38, -10, 33, 32, -43, -1}
}
}
, {{{-64, 3, -48, 51, -173, 25, 106, -7, 47, -61, 270, 98, -38, -13, 101, 5}
, {-117, -122, -107, 71, 10, -220, -6, -15, 135, -116, -65, -169, -49, -152, 41, -119}
, {39, -104, 29, 46, 115, 19, -23, 84, -177, 71, -73, 46, 26, 68, -268, 41}
}
, {{52, -73, 91, -163, -40, 77, -155, -63, 97, -73, 95, 6, 14, 82, 111, 58}
, {-170, -240, -108, 165, 8, -130, -64, -69, 49, -17, -181, -143, 39, -133, -40, -58}
, {55, -101, 76, 218, 94, 47, 4, 41, -62, 106, -149, 30, 14, 36, -17, 54}
}
, {{4, 1, -57, -125, -84, -62, -100, -54, 49, -115, -80, -22, -131, -16, -13, -111}
, {-83, -43, -79, 14, -55, -147, 96, -1, -49, -44, -117, -73, -37, -120, -184, -42}
, {97, -4, 29, 115, 53, 60, 43, -65, 9, 85, -127, 44, 86, 46, -8, 29}
}
}
}
;

#undef INPUT_CHANNELS
#undef CONV_FILTERS
#undef CONV_KERNEL_SIZE_X
#undef CONV_KERNEL_SIZE_Y
#undef CONV_GROUPS