/**
  ******************************************************************************
  * @file    weights/fc.cc
  * @author  Pierre-Emmanuel Novac <penovac@unice.fr>, LEAT, CNRS, Université Côte d'Azur, France
  * @version 1.0.0
  * @date    24 march 2020
  * @brief   Template generating plain C code for the implementation of Convolutional Neural Networks on MCU
  */

#include <stdint.h>

#define INPUT_SAMPLES 512
#define FC_UNITS 128


const int16_t dense_bias[FC_UNITS] = {35, 14, -13, -34, 92, -11, -38, -34, -39, 29, -7, 53, 40, -10, -25, -25, 62, -5, -39, 53, -15, 44, 53, -35, -5, -13, 30, 33, 22, -12, 38, 57, -2, -9, -48, 17, -28, -19, 51, -41, -3, -4, 9, -24, 54, -3, 48, -8, -38, -16, 18, 13, 24, 4, -14, -37, 8, -11, -46, 17, -16, -1, 50, 14, -14, 11, 70, -23, 44, -30, -41, 50, 35, 3, -10, 7, -47, -26, 35, 84, -20, -11, -22, 30, -13, -29, -44, 14, 12, 38, 40, 13, -7, 41, 17, 12, -6, -10, 64, 5, -20, -37, -38, -20, -40, 46, 16, -3, -20, 23, -14, -15, 46, 99, -54, 25, 67, 74, 9, 34, -5, -18, -15, 1, -1, 26, -8, 49}
;

const int16_t dense_kernel[FC_UNITS][INPUT_SAMPLES] = {{75, -23, -114, 70, 78, 27, 20, 19, -35, -29, -10, 16, -10, -36, 30, -99, -36, 0, 31, 21, 50, 119, 15, -100, 23, -12, 2, -57, 64, -15, 95, 59, -9, 29, 11, -42, -3, -41, 104, 28, -6, 47, -47, 6, -15, 12, 41, 4, 5, -10, 12, 44, -25, -20, -35, 11, 60, 4, -55, 7, -146, 39, -77, 50, 69, -13, -24, -19, 16, -2, 75, 45, -178, -20, -120, -13, 34, -38, 24, 35, -73, -45, 30, -65, 56, -34, -10, -19, 41, -19, 82, 40, 52, -4, -78, -2, 34, -38, -50, -82, -70, 18, 29, -25, 35, 0, 18, -62, -29, -59, -174, 30, -26, 16, 49, -8, 18, -89, 64, 1, -55, -88, 1, 25, 11, -22, 50, -53, -59, 60, 21, 34, 101, -35, -173, 45, 29, -28, -36, 22, 18, -100, 38, -262, 26, -13, -21, 48, -44, -30, 21, 7, 78, -68, 16, 64, -61, 2, 44, 20, 101, 11, 19, -51, -55, -33, 13, 68, -32, -19, -62, 69, -31, 13, -38, -62, 44, 54, -35, -80, -152, 27, -1, 53, -21, -26, 14, -82, -197, -19, -181, -13, -189, 48, -110, -22, -153, -18, 92, 36, -166, 33, -27, -10, -5, 15, 60, 73, 16, -55, 97, 55, 57, 18, -155, -188, 49, -2, -38, -30, -58, 36, -98, -44, -75, -139, -65, -17, -23, 71, 67, 7, 19, -217, -12, -130, 3, -110, -2, 3, 15, -38, -127, 26, -68, -93, -67, -21, 62, 0, -90, 46, -11, 8, -47, -77, -150, 65, 9, -138, -57, -37, -20, -4, -40, -5, -32, 8, -11, 43, -1, 20, 47, 10, -109, -3, -2, -138, -73, 41, 16, -125, 69, 11, 70, -98, -9, -104, 62, 59, 63, -62, -25, 55, 35, 8, -16, 12, 31, -18, 50, -37, 51, 45, 102, -37, -13, 15, 46, 59, 135, 23, 6, 66, 21, 49, -140, 17, -64, 109, -33, 63, -113, -14, -39, 14, 29, -92, -23, 38, 35, 1, 24, -24, -61, -154, -1, -53, -78, 4, -139, -8, 13, -1, 67, -77, -25, -64, 122, -91, 85, 15, 19, -83, -35, 44, 28, -19, 23, -79, -30, 85, -24, 1, 165, -54, -44, -18, -93, 80, -29, 21, -46, -37, -35, 127, 34, -26, -35, 38, 78, -28, -70, 28, 74, -11, -1, 15, -6, 11, 19, 74, -100, -30, 21, 87, 17, -6, 24, 2, -18, -15, 31, 49, 13, 9, -24, -33, -63, -9, 10, -69, 24, 24, -48, -119, -108, -28, -16, 46, -21, 42, 102, -35, 8, -107, 96, 39, 2, 71, 24, 41, 32, 45, -33, 18, 28, -90, -52, 47, -64, 87, -10, 68, 21, -18, 66, 8, 125, 53, 35, 12, -16, 75, -17, -16, 13, -9, 28, 103, 14, -27, -30, -44, -65, -53, 31, -118, -19, 7, -35, 23, 3, -2, -16, 64, 19, -54, -41, -61, -21, 23, 46, -38, 113, -74, -81, 35, 39, -23, 96, -67, 50, -40, 11, 80, 59, -25, 73, 24, 34, -13, 30, -7, -49, -36, 88, 8, -28, 116, 155, -29}
, {37, -17, -110, -9, 35, 62, 6, -137, -15, 37, 8, -25, -50, 8, -36, 90, -71, 78, 79, 10, -36, 73, -39, 0, -36, -34, 22, -158, -27, 56, 65, 14, 56, 10, -37, -15, 36, -86, 17, -15, -20, 74, 2, -15, 32, -4, -65, 34, 48, -20, -31, 11, 49, -135, 43, 39, -138, -56, -53, 84, 102, -3, 91, 3, -22, -26, -24, 89, -41, -36, -21, -54, 20, 1, -16, 7, 37, -56, -68, -133, -93, 79, -30, -120, -50, -113, 27, 40, -61, 24, 5, 97, 93, -236, -13, 5, 40, 21, 37, -31, -144, 3, -61, 14, -96, 69, 0, 1, -19, 26, 94, -30, -10, 8, 59, -15, -23, 9, 30, -64, -19, -59, 123, 11, 17, 51, 32, -24, -46, -42, -137, 15, 50, -54, 69, 31, 18, -20, -25, -45, -9, -4, -9, 116, -21, 26, -37, -72, -25, 29, 28, 31, -33, -76, 15, -17, -98, -46, 35, 71, -6, -11, 31, -19, 33, 61, 95, -67, 48, -53, 42, -80, -23, -35, -37, 14, -72, 62, 77, -29, 41, -22, -41, -34, -79, -43, -98, -14, 28, 24, 130, -75, 79, -35, -7, -42, 40, -54, 9, -25, -70, -106, 0, -68, 40, 23, 64, -29, -49, -46, 24, 34, -13, 76, 15, 104, -10, 15, -41, 40, -26, -88, -73, 39, 64, 48, 23, -14, -18, 45, -88, 35, -62, -19, -7, 77, 13, -6, -44, -27, 15, -71, 4, -38, 90, 100, 40, -97, 1, 22, 33, -61, 86, 36, -53, -29, 64, -3, -224, 5, -12, -16, 47, -20, 1, -6, 17, -67, 48, -30, 17, -53, -6, 9, 100, 13, -25, 68, 30, 14, 46, -37, -60, -20, -28, -39, 36, 60, -45, 107, 89, -9, -175, -176, -3, -189, -173, -95, 95, 4, -47, 0, -74, 45, -23, -33, 80, 87, -69, -24, -43, -20, 90, -96, -56, 2, 74, -3, 20, -74, 56, -188, 8, 27, -28, 35, -72, -14, 14, -44, -146, -88, -51, 103, -78, 68, 103, -14, 70, -73, 73, 77, 14, 11, -35, 11, 113, 17, -71, -36, 73, 12, -42, 144, -1, -6, -4, -13, -73, 46, -26, -146, -109, -34, -107, 206, 18, 38, 60, -71, 13, 23, 4, 34, 58, -21, -100, 35, 110, -44, 2, -40, 50, 18, -78, -42, 35, -26, -20, 85, 67, -155, 8, -51, -35, 40, -14, 63, 31, -22, 4, -30, 45, 118, 31, -22, 30, 15, -2, 89, 73, -26, 0, 27, 31, 47, -10, -18, -40, 65, 60, -51, 40, 135, -94, 97, 4, -18, 18, 0, -18, -9, 60, -101, -46, 53, 7, -9, -32, -30, -22, -57, 124, -29, -41, -24, 14, 33, 33, 35, 20, -63, 15, -17, 40, 4, -75, -90, 22, 32, -65, 44, -78, 0, -40, -33, 84, -95, -25, -3, -69, -33, -137, 37, -18, -74, -15, 38, -44, -77, 60, -108, 24, -17, -17, -52, -6, -50, -66, 11, 68, -32, -130, -52, 16, 2, 90, 57, 45, 17, -74, -1, -44, -34, 85, -50, -33, 97, 18, -59, 42, -15}
, {-52, -6, 171, -94, 42, -71, -17, -25, -54, -90, 31, 31, 45, -38, 10, -68, 19, -97, 33, 11, -12, -99, -71, -44, -36, 43, -45, -24, -66, 9, 6, -75, -33, -57, 3, -14, 26, 79, -65, -39, -54, -29, -53, -12, -82, 18, 50, 82, -80, -10, -21, 0, -68, 21, -38, 4, 50, -62, 51, 25, 111, -19, -96, -19, -30, -18, 29, 0, -19, -23, 43, -15, 34, -20, -24, 26, 53, -10, -6, 14, -25, 64, -16, -14, 25, 2, 23, 6, -114, 33, -27, 5, 59, 4, 55, -65, -45, 37, 84, 74, 37, -10, 22, -78, -64, -56, 26, -25, -82, -25, 70, -11, -38, -78, -14, 25, 88, 34, -40, 9, 25, 28, 0, 24, -61, -51, 69, -86, 12, 35, 125, -23, 10, 7, 88, 36, -44, -25, 48, 60, -64, 17, 48, -30, 88, 82, -45, 21, -44, 35, 72, 112, 2, 52, 47, 30, -45, 59, -50, -27, 10, -48, -67, -43, 10, 32, 45, -45, -118, -75, -11, -54, 102, 46, 33, 0, -31, 22, -94, -26, -29, -50, 63, 20, -86, -123, -84, -8, 16, 2, 38, -10, -100, -33, -18, 69, 49, 11, -50, 40, 16, -15, 55, 32, -34, 34, 94, -21, -31, 125, -131, -62, -48, 41, 114, -39, -29, 53, 25, 17, -23, 84, 42, 68, 20, 16, -50, -66, 26, 31, 31, -80, 2, 90, 120, 81, 86, 30, -47, 35, -3, -34, 53, 40, 5, -31, 39, 20, 69, -90, 80, 55, 41, 44, 37, 11, -12, -53, -18, 97, -87, -20, 35, 27, -17, 46, -44, 28, 33, 0, 11, -54, 4, 45, -83, -26, -53, 79, -45, 29, -30, 129, -87, 44, -9, -25, -37, -42, 52, -43, 1, -33, 12, -55, -44, -80, 100, -115, -62, -67, 19, 41, -8, -119, -65, -3, -24, 10, -46, 0, 25, -105, 27, -106, 49, -46, 18, -18, -23, -20, -5, -19, 44, 0, 179, -36, -4, -48, -39, -104, -15, 5, 14, -48, 214, 37, -127, -96, 56, 138, 68, 14, 45, 48, 57, -20, -57, -5, -61, -26, 92, -83, -35, -41, -15, -8, -10, -18, 80, -5, -74, -132, 23, 30, -9, 50, 38, 3, -2, 16, -22, -7, -15, 49, -22, -42, -13, -28, -31, 11, -62, 28, -3, 12, 59, -6, 64, -72, 53, -153, 6, 23, 83, 91, -8, -28, -67, -50, 166, 4, 80, 32, -114, -147, -60, -7, -105, 10, -13, -91, -158, -71, 68, 75, -28, -46, -2, 99, 76, -32, -46, -10, -78, -47, 120, 41, -60, -131, 91, 21, 40, 75, 29, -37, 67, 97, -82, -30, 37, -38, -32, 84, -56, -48, 17, 78, -56, 70, -131, 120, 35, 39, -36, -97, 83, 30, 33, 97, -89, -14, 76, 47, 123, 96, 47, 81, -66, 47, 186, -12, -54, 30, 68, -37, 72, -41, 61, 56, 120, 166, 19, -4, -39, 12, -86, 54, -130, -124, 64, -56, -106, -75, 49, -20, 123, -10, -132, -45, -152, 45, 30, 16, 46, -55, -18, 27, 70, -37, 60, -37, -20, -54}
, {1, 4, 102, -58, 67, -43, 38, 30, 30, -107, 45, 15, -6, -34, -17, 40, -19, -40, -34, -10, -47, -54, 50, 55, -28, -2, -42, 11, -14, -6, 25, -19, 56, -13, 22, -16, 35, -16, 16, 69, -37, -66, 3, 15, 40, -65, 37, 80, 11, 78, -32, 7, -21, -27, 21, -44, -27, 76, 56, 12, 68, -9, -25, -56, -13, -12, 61, 8, -7, 9, -96, 40, 59, 67, 32, -23, -44, -11, -64, -85, -33, 66, -56, -6, -48, -31, 2, -2, 67, 120, -2, 49, 48, 28, 9, -18, -19, -50, 35, 32, 11, -8, 69, -1, 17, 27, 32, 23, 58, -108, 109, -66, 81, -74, -7, 12, 54, -58, 8, 0, -10, -8, 49, 9, 45, -52, 33, -45, -3, 32, -107, 70, 25, -86, 6, 105, 21, -5, 39, -59, 43, -20, 67, 1, -78, -3, 26, -53, -62, -31, -35, 10, 13, -46, -14, 42, -15, -56, 10, 59, 36, 51, 2, -3, -13, 117, 21, 34, 27, 30, 104, -35, -10, -81, 100, 77, -15, 57, 10, -18, -27, 10, -23, -38, -1, 80, 64, -50, 45, -74, 29, -13, 74, -58, -28, -44, 23, 35, 27, 7, 44, 55, -5, 5, -31, 11, -4, -46, 84, -65, 41, 73, 3, -37, 15, -21, 104, -59, -19, 44, 59, -56, -59, 11, 14, 32, -36, 27, 8, -3, 8, 45, 60, -73, -54, 19, -17, -30, 92, 2, 59, 61, -66, -24, 48, 43, -5, -56, -30, 98, 79, 6, -109, 55, -34, 13, 23, -72, -31, 13, 30, -3, 63, -70, -43, 8, 11, -67, -36, 19, 76, 19, -119, -32, 21, -18, 9, 128, 23, 18, 131, -155, 49, -151, 91, 76, -21, 71, -32, -4, 22, -42, 110, 13, 89, 64, -4, -58, -106, -159, 18, 22, -92, -18, 75, 74, -19, -36, 27, 21, 15, 47, 60, -78, -179, 61, 67, 31, -19, 27, 21, 10, -50, -35, -33, -24, -10, 60, 24, -82, -92, 16, 40, -25, -83, -17, -32, -25, -39, -195, 122, -109, 55, 12, 29, 60, 54, 71, 1, 40, -124, -85, -8, 5, -9, 87, -92, 35, -30, -26, -140, 59, -16, 24, 29, 4, 61, 53, 41, -67, 44, 27, 73, -76, -6, -3, 19, -38, -1, -78, 51, -38, 44, -110, -33, -17, -148, 14, 51, 8, -5, -39, 36, -12, -13, -46, 25, 88, 52, -60, 24, 24, -54, -20, 33, 5, 6, 31, 58, -12, 65, 51, -33, -30, -3, 171, 2, -68, 36, -95, 35, -171, 24, 25, -55, 32, 18, -61, -3, -13, -36, -117, 82, -3, -48, -72, 36, 110, -160, -33, 24, -20, 52, -64, -81, 20, -12, 86, 13, 25, -86, -57, 79, -16, 81, 119, -47, -128, -10, 4, 54, 9, -44, 0, -66, -133, -65, -63, 22, -49, -9, -113, -14, -176, -135, -136, -78, 38, -101, 41, 44, 12, -171, -3, -33, 7, 46, 15, -121, 31, -35, 61, -47, -23, -158, 85, 23, 113, -45, -10, -15, 36, 5, 0, -35, -42, -74, -14, 63, 2, -97, -61}
, {59, -38, 48, 96, -50, -27, 24, -64, 1, -138, -34, -87, 44, -40, -8, 23, -84, -125, 48, -3, 39, 33, 35, 64, 79, 5, -49, -53, -35, 32, -24, -15, -19, 47, -45, -75, -37, 106, -24, 27, -40, -9, -98, -14, -6, -90, 27, 35, 6, 9, -34, -55, 2, -34, 37, 20, 14, -33, -55, -64, -93, 42, -13, 1, 7, 55, -32, -11, -72, -7, -24, 11, -26, -53, 8, -104, -50, -14, 41, 80, -47, -59, 47, 55, 5, 1, -31, -43, -38, -134, 4, -60, 54, -23, -53, 77, 56, -11, -78, -12, 5, -62, -34, -65, 29, 23, -64, 11, -22, -73, -158, -3, -116, -41, -49, -4, -35, -9, 69, 74, -88, 4, -45, -54, -73, -74, 25, 56, 63, -99, 5, -84, -46, 10, -4, -92, 40, 13, -5, -65, -84, -139, -60, -108, 46, -6, -74, 21, 0, 29, -37, -29, -6, -9, -39, -90, 13, 57, -26, -81, 5, 57, 8, 10, -106, -51, -64, -92, 74, -69, -9, -5, 2, 7, -114, 5, 52, -95, 52, 11, -162, -20, -10, -20, -7, 2, -66, 38, -26, -7, -144, 24, -6, 8, 17, 28, -138, -2, 84, -94, 11, -42, -114, 22, 71, 27, -100, -44, 53, -40, 74, 4, -51, -9, -77, -161, 72, -40, -55, -19, -11, -11, -30, -21, 3, 32, -9, -4, -38, -34, -37, 13, 9, -114, -78, -174, 19, -29, 21, 35, -34, 14, -2, 30, -81, 6, 47, 49, 23, 7, -58, -157, 29, -123, -41, -42, -57, -44, -60, 30, -3, 45, -85, -85, 59, -57, 39, -43, -55, -15, -45, -5, -17, -79, 28, -74, -33, 32, 18, -102, -99, 55, -54, -30, -23, -60, -43, 7, 45, 3, -93, 29, -15, -101, -25, 12, -77, -58, 35, -11, -29, -76, -1, 92, -95, 55, 29, 46, -48, -31, -34, -6, -111, -3, 44, 8, 103, -22, -9, -113, 30, -66, 27, 45, -34, 87, 25, -17, -98, 10, -81, -17, -49, 36, 48, -21, 37, -7, 61, 3, -82, 58, -43, -87, -89, -17, -52, -100, 57, 54, -45, 74, -42, 50, 77, 58, -20, -132, 78, 38, -63, -44, 150, -38, -132, 128, 119, 63, -50, 19, -6, -8, 126, 41, 55, 42, -126, 64, 18, -67, -31, 29, 89, 7, -26, -174, -36, -44, -3, -7, 30, -194, -13, -8, 43, -52, -88, -38, -167, 92, 37, -87, 1, 4, -86, 2, -86, 66, -75, 0, -30, -23, 27, -62, 63, -28, 132, 42, -10, 59, -93, -36, -101, -54, -143, 91, 62, -23, -29, -124, -11, 25, -107, -93, 31, 59, -49, -40, -68, -20, -83, -128, 77, -91, 48, 4, 115, 14, -33, -132, -31, -11, 12, -114, -101, -61, -61, -24, -29, -62, 34, 67, 62, 57, -7, 45, 101, -49, -59, 67, 35, -88, -100, -36, -54, -39, 110, 60, -3, -16, -42, -111, 36, 9, -60, 77, 6, -59, 49, -45, 73, 52, -135, -51, 36, 71, -44, -14, -46, -3, 67, -40, -163, -51, 91, 50, -64, 11, 15, -99, -35, -112}
, {44, 12, -38, 56, -109, -162, -100, 3, 45, 136, -35, -49, -17, 53, -53, 1, 2, 26, 4, -26, -40, 10, -85, -12, -4, 9, -60, -34, -75, -12, -30, -58, 3, 38, 77, -76, 12, 36, 2, 3, 46, -69, -149, -19, 41, -9, -130, 56, 15, -76, 7, -10, 23, -23, 28, -27, 50, 2, 41, -18, -3, 9, -28, -104, 20, 5, -8, 67, 5, 24, 46, 15, 30, 15, -78, -58, 87, 67, 50, 62, 36, -60, -36, 2, 0, 28, 66, 16, 57, -38, 22, -75, -6, 25, -31, 56, -10, 70, 45, -18, -55, -44, -60, -16, -114, -42, -100, -61, -41, 24, 63, -36, 40, 26, -35, 66, 18, 33, 17, -48, -70, 30, -52, -37, 20, -111, -9, 11, -34, -65, -44, -20, -7, -94, 100, -64, -73, 16, -1, -49, 8, -7, -98, 116, -5, -4, 108, 42, -115, 7, -23, 30, 20, 69, -72, -21, 10, 0, 6, 67, 62, 6, 5, -57, 49, -22, 57, -12, 60, -36, -104, -34, -4, -73, -38, 48, -46, -10, 0, 35, 0, -108, 29, 48, -28, 61, 1, 41, 69, -18, 96, -64, 81, 29, 29, -86, -20, -74, -8, 9, 21, -100, -73, -38, -4, 22, 10, -43, -41, 132, 42, 5, 31, -23, -45, -13, 37, -8, 27, -11, -78, -130, 96, -65, 26, 2, 129, 21, -24, 6, -36, 20, -115, 55, -60, 16, -11, -42, 32, -8, 42, 55, 22, 29, 93, 35, -36, -60, 17, -43, 30, -66, -5, -19, 14, 18, -27, -4, 9, -85, -41, 53, 6, 81, -40, 114, -23, -19, 7, -31, -23, 31, 39, -75, -74, 20, -68, -143, -34, -59, -35, 65, -25, 65, -57, -24, 22, 63, -57, 28, 36, 40, 24, 42, 5, -3, -72, -60, -17, 5, 33, -87, 64, 40, -47, -151, -82, -43, -17, 111, 19, -50, -8, 72, 32, -73, -122, -93, 1, -7, -69, 55, -75, 42, -42, 11, -51, -11, 98, 54, 10, 84, -135, -28, 43, -33, -20, 4, -9, -38, -74, 38, -37, 63, -86, 8, -67, 90, 19, -51, -30, 10, -150, 74, 3, 29, 82, 20, -24, -105, 93, 0, -49, -46, 12, 51, -125, -85, 8, -37, -26, 20, -66, -21, -107, 74, 6, 15, -58, -25, -34, -16, 1, 87, 93, -28, 72, -32, 31, -34, 85, 59, -37, -165, 14, 101, -33, -49, -68, -45, -81, -21, 147, 27, 105, 17, 59, -27, 30, -115, 82, -112, -106, 67, -47, -52, -106, -61, -16, 63, 103, 143, 34, -5, -65, -119, 45, 2, -25, 26, 37, -36, -17, -51, -102, 73, 24, -54, 58, 74, 49, -28, -109, -32, -1, -93, 59, 11, 66, 11, 63, -29, -55, 67, -128, -160, 1, -58, 10, 89, -73, -130, -98, -155, -94, 44, 9, -131, -58, -52, -3, -9, -17, 37, 173, -7, -18, -111, -41, -128, -126, -30, 30, -43, -97, -47, -158, -10, -31, 18, -47, 2, -82, 54, -24, -78, 85, -100, 125, -30, -53, 16, 76, 174, 12, -48, 24, 60, 29, -24, 91, 99}
, {-93, 54, 21, -20, 8, -13, 20, 58, 31, 72, -31, 33, -69, 23, -28, -21, -2, -14, -40, 3, 5, -124, 62, 91, 10, 58, 18, -1, -50, -21, -98, -25, -117, -37, 61, -104, 8, 49, -19, 12, 56, -81, -4, -6, -41, -7, -75, 49, 4, -18, -9, 31, 50, 25, 54, 23, 50, -99, 15, 30, -65, -29, -43, -6, -62, 35, -7, 54, 53, 28, -35, -76, -63, -7, 38, 42, 15, -17, 62, 1, 35, -37, -8, -30, 48, 13, 38, 66, 24, -108, -84, -106, 22, 33, 12, 31, -9, 37, 24, 24, 35, -56, -23, -75, -8, -11, -38, 5, -14, -104, 65, 32, 56, 1, -12, 38, -45, 45, -11, 18, -1, -44, 9, -73, 0, -46, 81, 29, 27, 85, -99, 38, -68, -7, -46, 77, -66, 2, 30, 45, 106, 53, -31, -83, 70, 57, 48, 74, 56, 11, 67, -13, 73, -56, 56, 48, 44, 14, 31, 32, -37, 14, -20, -4, 42, -60, -1, 48, -49, 31, 64, -7, -62, 23, -120, -2, -1, 85, -70, -4, 40, -66, 98, -10, 17, -8, 134, -5, -107, -65, 11, 34, -51, 31, 34, -10, 19, 99, -59, -3, -7, 6, 88, -79, -40, -68, 47, -89, -11, -123, 9, -17, 30, -78, 24, -62, 44, -39, -49, 6, -64, 66, -29, -19, 4, 3, 23, 3, 16, -58, 51, -9, -86, -13, 46, -37, 101, 60, -6, 49, -39, 5, -10, 37, -45, 16, -28, 79, 41, -35, -107, 14, -2, 9, 31, -78, 39, -74, 90, 69, -104, -61, -1, 7, -78, -48, 5, 74, -55, -18, 10, -109, -12, 5, -74, -44, -35, 123, 15, -3, -41, 160, -83, 16, 15, -116, 9, -54, 36, -12, 36, 93, -32, 11, -82, -86, 46, -78, 26, -91, -30, -20, 52, -87, -113, -6, -27, -8, -87, -31, -3, 42, 58, 21, 14, 29, 40, 87, -93, -5, 1, -66, 15, -119, 60, 25, 57, -51, 45, -27, -18, -4, 30, -28, 82, 4, -11, 104, -64, 73, 62, -66, 19, 121, 149, -15, 29, 34, 44, -37, -26, -60, -51, 44, 26, 27, 46, 5, -28, 69, -26, -61, -35, -62, -130, 86, 162, 93, 40, 40, 4, 19, -7, 40, -35, -97, 80, -48, -56, 24, -146, 9, 17, -36, -71, -44, 35, -94, 117, -152, 28, 26, 103, -20, 36, -76, -60, 92, -17, 67, -45, -114, 1, -152, -62, -76, -92, -7, -69, 21, 5, -10, 112, -29, -146, -30, 36, 14, 22, -99, -34, -4, -23, -72, -49, 35, -61, -44, 52, 29, 7, 9, 19, 23, 13, -47, -25, -44, -103, -57, -73, 108, 167, -160, 22, -66, 134, -5, -50, -141, -43, 112, -18, -56, 33, -74, -29, 76, -76, 85, 60, -33, 66, 94, 55, -26, -111, 151, 53, -58, -53, 17, 35, -9, -84, -31, 67, 46, 53, 104, -12, -104, -45, 92, 8, 28, 45, -216, -83, -18, -3, 10, 66, -34, 0, -32, -63, 23, -56, 39, 67, 31, -22, 1, -89, 18, -43, -67, 21, -5, -57, 14}
, {-78, 23, 83, -60, 22, -57, -24, 24, 54, 23, -29, 15, 8, 11, -62, -64, 50, -95, -42, -66, -36, -93, -40, 102, 79, 38, -32, -10, -5, -44, -47, 43, -18, 14, 3, -69, -100, 115, -50, 19, -39, -48, 54, 65, -27, 23, -22, -43, -3, -36, 27, 40, 29, 17, 7, 18, 45, -44, 35, -69, -151, -136, 25, 51, -62, 14, -4, 29, 64, -4, 26, -7, 110, 10, 32, 49, 53, 43, -26, -32, 118, -39, -11, 32, -25, 86, -94, -62, -65, 84, -89, -46, -39, 55, -14, -7, -23, 27, -42, -65, 48, 64, -48, -144, -36, -4, -68, 16, -57, -80, -57, -87, 15, -31, -44, -24, -37, -87, -49, 35, -1, 35, -157, -5, -37, 1, 66, 89, 45, -62, 63, -11, -109, -23, -24, 40, -72, 18, -12, 79, 14, -63, -28, -18, -10, 12, -39, -10, 6, -72, 1, -20, 26, -40, 17, 16, 55, -29, 38, -22, 34, -23, -29, -27, -70, 54, -13, -17, -66, -15, 26, 78, -50, -41, -33, 50, -9, -41, -33, 33, 24, 92, -5, -68, 6, -4, 64, 42, 5, -39, -31, 45, 40, 25, 72, -29, 42, 3, -25, 65, 28, 94, -41, 69, -13, -5, -5, -21, 12, -71, 35, 104, 8, 20, -143, -25, 31, -89, -8, -14, 14, 77, 82, 79, -12, 21, -89, -15, 7, 20, 57, 40, -4, -23, 72, 52, -27, -10, -35, 32, -12, -30, -46, 30, -70, -28, -12, 51, 41, -7, -56, 74, 1, -20, -47, -30, -13, 60, 47, 49, -4, 9, -37, -23, -69, -28, 28, 65, 59, 45, -43, -102, 0, 62, -31, 66, -135, 4, -125, -26, 64, 62, -97, 17, 106, 36, 30, -40, 5, -77, 4, -7, 75, -10, -72, 101, 69, -53, -57, -46, 34, 62, 6, -44, 23, -18, -146, -60, 0, 14, -105, -28, 50, -106, 45, -22, -159, -43, -83, 61, -57, 72, -114, -112, 157, 2, 45, 97, -18, -120, 34, 75, 54, 9, 51, 136, -62, 82, -108, 158, -41, -61, -52, -120, 118, 4, 14, -54, -96, 38, 26, -34, -105, -142, -72, -39, 66, -18, 62, -91, -35, -19, 11, 36, 97, -82, 120, -1, -52, -13, -12, -43, -60, 16, -82, 46, -36, -39, -70, -78, -20, 71, 5, -99, -26, 72, 7, -12, 28, -44, -148, 100, 14, 93, -20, -67, -6, -36, -45, -52, 42, 69, -3, -176, -35, -123, -32, 47, 75, 33, -122, 101, 81, -65, 66, 43, 53, 27, 73, -19, 12, 23, -99, -175, 52, -11, -125, 17, -33, -5, -26, 12, 9, 64, 40, -53, -79, 80, -76, -126, 61, 112, 44, -27, -35, 53, -113, -5, -123, 57, -19, 62, 110, -50, -9, 50, 44, 53, -70, -95, 27, -9, 54, 55, 135, -22, -43, 133, -19, -25, 42, 44, -4, -12, -63, -28, 35, 35, 14, 54, 40, 43, -156, 29, -28, 89, 4, -38, 12, -69, -82, -48, 63, -58, 2, -2, -207, -10, -152, -19, -56, -41, -113, -83, -14, -34, 1, -78, -30, 10, -111, 16}
, {-78, 30, 101, 11, -72, -74, -72, 37, 67, 13, 1, -54, -6, -114, -10, -99, -62, 8, 47, -11, -112, 46, -46, 44, -10, 21, -20, 26, -95, -9, -128, 1, 5, -45, 10, -41, -38, 78, -49, -52, 55, -127, -113, -12, -78, 26, -40, -43, 4, -80, -4, 27, -37, -19, 3, 37, 25, -5, -7, -19, 60, -65, -19, -86, -47, 13, -57, -60, -45, 46, -11, -19, -5, -25, 33, -8, 51, 8, 34, -2, 118, -30, -12, -31, 12, 2, -30, 10, 32, -64, 31, -26, -49, 10, 40, 42, -59, 75, 17, 76, -6, -83, -17, 6, -119, -128, -117, -75, -46, 65, 126, 26, 1, 103, -67, -41, -65, 79, -39, -46, -76, -49, -1, 5, -70, -39, 55, 73, -60, 152, -26, -1, -54, 61, 95, 21, 29, 35, -30, 31, 44, 48, -51, 52, 28, 43, 53, 42, 6, -5, -58, -18, 24, 31, 32, 10, -45, 3, -50, -52, -12, -106, 24, -85, 50, -40, 55, -6, -18, -59, 31, -14, 13, -32, 40, -104, -109, 6, -62, 77, 42, -56, 59, 52, -7, 23, 116, -13, -16, 3, -46, 25, -4, -4, -3, 24, -17, -14, 22, -45, -43, -111, 41, -29, -94, -81, -51, -19, -46, 74, -45, -20, -1, -46, 43, 35, 28, -27, 88, 103, -144, 33, 63, -48, -125, -25, -1, -21, -53, -135, -19, -81, -97, 66, 52, 70, 55, -8, -42, 27, 18, 64, 178, -9, -69, -19, -15, 97, -41, -65, 39, -4, -2, -31, 139, 42, -132, 80, 85, 9, -61, -21, 1, -90, -36, 44, 0, 15, 60, -14, -139, -5, -62, -43, 25, -101, -94, -14, 47, -66, -35, 57, -74, 36, 23, -80, -9, 38, -77, -23, -98, -16, 73, 64, -45, 110, 65, -55, -15, -18, -15, -93, 44, -42, -61, -61, 48, -40, -54, -62, 41, -76, -55, 123, -57, -150, 1, -144, -65, -72, 68, 63, 12, -91, 95, -38, -3, 8, -29, -14, 97, -57, -100, -16, 17, -54, -36, 118, -53, -17, 8, 15, -80, -78, -49, 49, -24, -18, -15, -53, 6, 13, -140, 6, 71, 35, -25, 12, -25, -61, -6, 34, -87, -26, -10, -54, 55, 16, 56, -97, 17, -33, 40, -76, -2, -48, 38, -65, -16, -20, -13, -96, 1, 6, -52, -66, -21, 32, 87, -49, 20, 55, -41, -118, 14, 7, 2, -7, -60, 63, 50, -72, 30, 29, -73, 27, -85, -23, -56, 31, 6, 6, 28, 70, -83, -142, -72, 13, 6, -27, 70, 22, 57, -115, 0, -194, 17, 47, 97, 24, 95, 45, -46, -7, -122, -45, -30, -43, 82, 59, 49, 79, 53, 48, 50, -17, 85, -34, 99, 7, -17, 67, 25, 71, -150, -56, -2, 21, 54, 8, -28, -103, 76, -6, -91, 22, -47, 22, -125, -113, -13, 35, 87, -2, -29, 49, -43, 30, -84, -90, -72, -24, 35, 31, 47, -72, 23, -41, -3, 67, -4, 66, -53, 20, -22, -92, -27, -96, 9, 5, 12, 37, 17, 26, -100, -147, 2, -8, -92, 55, 13, 8}
, {-47, -7, 165, 39, -46, 7, 18, -48, -16, -132, -12, -101, -66, 30, 16, 80, -65, -67, -46, 17, -22, -58, -42, -72, -71, -65, -26, 17, -54, -57, -2, 15, -2, -74, -103, -39, 27, 225, 23, -36, -107, -14, 77, -160, -30, -96, -26, 71, -74, -22, -88, -12, -26, -53, 71, 65, -141, 48, 5, -47, -10, 11, 52, -86, 20, -103, -41, -32, -43, 56, -31, -44, 156, -125, 94, -132, -83, -30, 26, -5, 26, 23, -39, 19, 47, -84, 93, 94, -89, -39, 88, -49, 74, -93, -85, 50, 14, 30, -49, 70, -58, -88, -77, -5, -41, 46, -42, 94, -58, 50, -47, 35, -112, -32, 60, -3, 18, 57, -7, -93, -26, -4, -100, -163, 6, -142, -22, -49, 5, 32, -54, -18, -9, -132, 42, -25, 52, 31, -15, -66, -160, -25, 26, -8, -48, -51, -100, -42, -26, 44, 14, -23, -99, 16, -79, -38, -25, 17, 26, -97, -34, 67, 24, 64, -55, 26, 14, -45, 57, -36, 65, -84, -7, 26, -22, -67, 2, 2, 73, 38, -25, 77, -36, 32, -13, 68, -100, 2, 1, 42, 36, 31, 15, -136, -14, 71, -5, -70, -22, -14, -33, -23, 48, -5, 43, 2, -30, 31, 24, 69, 62, -85, -22, -19, -33, -14, -141, -14, 95, 31, 80, -10, 50, 2, -23, 6, -39, 24, 21, 12, -132, 8, 10, 22, -44, -51, 0, 11, 50, 16, -5, -69, -1, -6, 58, -41, -76, -134, -1, 27, -1, -45, 59, 51, 54, -102, -33, -138, -94, -129, 21, 13, 51, -68, 100, -38, -40, -162, -42, -11, 27, 19, -41, -56, 124, -11, 46, -43, 71, -42, -47, -97, 92, -142, -50, -55, -51, 70, -22, 84, -9, 35, 43, 0, 87, -95, -152, 53, -4, 42, 32, -80, -104, 30, 28, -43, -19, 38, 12, -29, 82, 119, -16, -13, -64, -22, 48, 38, 100, -73, 29, -104, 58, 91, -30, 61, -62, -115, 81, -77, 22, -32, -16, 19, -53, -80, 26, -39, 54, -216, 41, 39, 98, 92, -241, 27, -51, 60, 8, -120, -30, 34, -28, 56, 30, -20, -172, -84, -123, 0, -79, 35, 111, 57, -6, -3, -13, -21, -8, -85, 86, 5, 76, 19, 46, 52, 5, -14, 49, -31, 58, -38, 114, 0, -84, -19, 16, 93, -98, -24, 14, -46, 37, -25, -34, -5, -165, -69, -110, 31, -45, -60, -100, -6, -85, 90, 1, -79, -43, 52, -68, -5, -16, -16, -61, -87, 25, 19, -113, 45, -36, -74, -60, -72, -40, 54, -19, -18, 17, -60, -24, 29, -52, -77, 33, -11, -51, -120, 4, 110, -75, -77, 90, 8, 24, 57, 45, 6, -6, -50, -103, 18, 41, -49, -98, -72, 14, 14, 24, -83, -26, 79, 19, 11, 28, 50, 82, 72, -29, -13, 34, 51, -63, -19, 13, 20, 35, 12, -77, 142, 7, -33, 74, 56, 87, 44, -36, -146, 4, 109, -64, -68, -17, 18, 40, 36, -1, -28, -20, 9, 42, -45, -66, -41, 31, 32, 15, 28, -9, -3, 50, 4}
, {-6, 81, -4, 13, 51, -44, 2, 103, 49, -37, 45, 71, 98, -51, -88, -71, 47, -9, -65, 13, -43, -20, 62, 18, 43, 2, 6, 55, 57, -42, -6, -47, -33, -56, 13, -43, -137, -56, -45, -19, 119, -1, 136, 109, 17, 39, 90, -76, 56, 54, 2, 64, -15, 104, -65, -21, 27, 3, -44, -93, -68, -99, -44, 72, -89, 4, -70, -41, 43, 31, 34, 81, -16, 17, 38, 126, 109, 41, 37, 88, 71, 1, 89, 50, -8, 173, -48, -111, -15, 82, -69, -117, -67, 112, 10, -20, -68, -73, -46, -73, 74, -2, 45, -87, 160, -124, -126, -83, 10, -80, -68, 66, 15, 24, -67, -4, -45, -15, -16, 88, 17, 77, -31, -16, -28, 42, 11, 133, 15, -7, 41, 16, -150, 28, -93, -23, 10, -52, 31, 15, -18, -88, -3, -248, 118, 15, 35, 118, 95, -61, -6, 14, 41, 84, 15, 7, 31, 41, -29, -27, -81, 19, -11, -89, -29, 28, -31, -25, -54, 46, -46, 65, -8, 22, -34, 70, 52, 5, -64, 8, 15, -45, 55, -12, 32, -48, 153, 25, -66, -20, -177, 109, -122, 46, -60, 6, 51, -22, 3, -8, 32, 59, 11, 66, -23, 26, 11, 34, 31, -37, 58, 15, 51, 4, -85, -176, 1, -86, 104, -83, 48, 73, 38, -57, 81, 21, -63, -4, -4, 55, 101, -25, -7, -129, -7, -99, -20, 6, -38, -43, -7, -9, -122, 1, -99, -92, -15, 41, -7, -11, -13, 21, 45, -6, -77, 44, -40, -7, 134, 14, 20, 36, -25, -50, -63, -35, 14, 15, -16, 43, -16, -37, -79, 7, -13, -51, -18, 6, -102, -29, -4, 59, 81, 12, 76, 94, 83, -3, -56, -32, -51, -85, 84, 67, 4, 195, 127, 50, -85, 32, 98, -3, 33, -9, 79, 37, -81, -70, 7, -36, -56, 24, -15, 87, -57, 26, 29, 96, -88, 59, 10, 151, -23, -59, 38, 9, -3, 25, -10, -53, 121, 45, 99, -44, 62, 65, -45, -22, -64, 14, 38, -71, -18, 36, 99, -61, 1, -104, 72, 17, 2, 19, 62, -131, -26, 91, -22, -40, 68, -15, -19, 3, 39, -78, 141, -189, 14, 30, -26, 36, 31, 8, 12, -49, 0, 22, 2, -75, -45, -4, 9, 91, -22, 31, -5, -54, 8, 27, 67, 9, -116, 50, 1, 34, -12, -31, -83, -6, -49, -51, -9, -55, -78, -7, 68, -43, -96, 4, -3, -80, 35, 73, 29, 25, 101, -54, 48, 57, -20, -19, -97, -82, -36, -107, 89, -15, -2, 58, 23, 89, -49, 21, -109, -9, 98, 12, -7, 81, 10, -12, -3, 39, -60, 69, 49, -39, -59, 35, 45, 85, -11, 73, -14, 34, 21, 50, -30, 87, 42, 10, 0, 16, 62, 38, 35, 51, 6, 45, 43, 77, -23, -49, 17, 33, -204, 13, -11, -31, 0, 86, -31, -41, -21, 47, 138, 45, -33, -74, 47, -60, 42, -62, 19, -25, -42, 3, -122, -57, -37, 18, 62, -21, 12, 1, 39, 66, -59, 45, -2, 13, -28, -68}
, {-20, 111, -49, 5, -1, -32, -2, 13, -11, -36, -8, 37, 52, -14, -97, -29, 74, -24, -69, 21, 13, -77, 24, 13, -8, 36, 42, 34, -10, -82, 31, -98, 42, 15, -13, 80, -23, -44, 28, -10, -15, 46, 7, -34, -52, -72, 105, -99, -46, 43, -14, -39, -26, 75, -23, 9, -99, 19, 67, -41, 39, -16, -17, 41, -67, 13, -37, -26, -16, -39, 28, -4, -82, -23, -44, -6, -58, -45, -82, 36, 5, 9, -22, 71, -49, 71, -94, -165, -15, 58, -19, 18, -149, 5, 7, -13, 67, -62, -5, -166, 82, -25, 4, 38, 111, 4, -44, -1, -46, -85, 26, -35, 21, -15, -68, -34, -71, -81, 13, 69, 37, 0, -66, 29, 17, -14, 0, -1, 6, -61, 42, -121, -150, -4, -107, -92, 14, -11, -15, -82, -64, -95, -42, -100, 18, -19, 17, -91, -26, -48, -26, 100, -64, -99, -25, -117, 36, -26, -11, 67, -38, -7, 46, 2, -130, -63, -67, -93, 32, -47, -49, -73, 28, 26, -81, 78, 45, 35, 61, 29, -104, -111, -2, -171, 38, 30, -15, 39, -29, -33, -159, 44, 5, -50, 74, -99, -19, -83, 21, -94, 96, 53, -142, -103, 91, 42, -59, 31, 101, -16, -12, 16, 38, 22, -51, -103, 54, -81, 29, -176, 97, 45, 27, 22, -31, 37, -94, 65, -81, 50, -94, 8, -16, -21, -117, -61, 22, 10, -14, 4, -20, -20, -67, -38, -135, -31, 59, -100, -108, 56, -83, -163, 52, -97, -170, -3, 56, -79, 53, -28, 42, 69, -26, 37, 40, -113, -33, 81, -54, -21, 51, 26, 23, -51, 18, 51, 6, 85, -54, -21, 38, 36, 72, -44, 113, 32, 50, 41, -7, 6, 10, -46, 78, 7, 25, 134, -33, 101, -30, -67, 112, 87, 12, 96, 113, 5, -64, 10, 29, -65, -19, 4, -29, -153, -37, 39, 17, 7, -7, -44, 28, 60, -17, 45, -23, -74, 42, -42, -33, 41, -68, -9, 7, 78, -15, 8, -15, -151, -85, -46, 16, -42, 3, 29, -9, 17, -24, -152, -73, 67, -26, -45, 3, -91, 42, 2, -8, 33, 44, -39, 2, -9, 10, -49, -45, -65, -68, 52, 26, 12, 40, 50, 55, -14, 80, 74, -41, -48, 19, -100, 40, 42, 25, -101, -7, -65, -69, 89, -28, 120, -112, 13, 5, -6, 46, -79, 6, -18, -27, -110, -6, -120, -91, -135, 31, 15, 4, 118, 51, -51, -23, 99, 81, 37, 142, 81, 68, 8, 19, 68, -92, -116, -66, -48, -42, -5, -52, -16, -53, 7, -82, -3, -56, 37, 60, -39, -23, 35, -90, -157, 21, -141, -37, 86, -1, 52, -57, -25, 30, -62, -16, 37, 15, -94, -36, 45, -78, 52, 6, -70, 38, 48, -76, 58, -8, -36, 78, -23, -13, 10, 33, -33, -6, -31, -125, -4, 30, -15, -52, 6, -91, -24, 19, 54, 30, 56, 5, 31, -22, -54, -57, -73, -76, -22, 29, 80, -99, 15, -69, 38, -96, 23, -95, -96, 91, 22, -60, -69, 42, -124, -177, -60}
, {-8, -48, 148, 24, -15, -78, 27, -114, -29, -17, 0, -132, 53, 2, 13, 25, -87, -11, -10, -28, -33, 74, 117, -13, 37, 78, 6, -35, -44, -60, 38, 36, -1, -79, -67, 22, -10, 37, -38, 17, 14, 34, -2, -73, -17, -61, 75, -17, -45, 51, -10, -34, 13, -92, -13, 25, 66, -39, -53, -19, -1, 63, 50, -88, 8, -4, -3, 3, 47, -79, -6, -29, 62, -33, 70, -162, -69, -64, 45, -49, -120, 17, -1, 7, -5, -107, 6, 86, -34, 26, 43, 34, 65, -28, -34, -69, 43, 31, 5, 48, -78, -77, 78, -23, -8, -50, 26, 17, -14, 37, -111, 44, -21, -31, -35, -2, 34, 22, 11, 25, 20, 78, 4, -89, 61, 9, -21, -27, -11, 103, -4, -4, 65, 40, 103, 44, 5, 4, -18, 52, 75, -67, 40, 11, 12, -11, -69, -35, 35, -2, -41, -48, 20, 36, 14, 38, -25, 84, -41, 4, 9, -6, 27, -43, 30, 48, -18, 33, -59, 56, 25, 18, -15, -40, 42, -70, -23, 52, -40, -21, -17, 29, 77, 16, -30, -11, 30, -27, -72, 28, -59, -41, -127, 34, -109, 31, -37, 6, -39, 22, -37, -59, 122, 91, 9, -44, -19, -19, 33, 91, -33, -28, 13, 43, -41, -44, -11, 17, 96, 93, -49, 114, -50, -36, -1, 37, -29, 27, 78, 66, 3, -99, -7, -10, 35, 27, -40, -14, -8, 14, -72, -73, -63, 4, -16, -53, -27, 52, 9, -16, 22, 44, 20, 53, 32, -34, 19, -74, -49, -9, -22, 61, -28, -13, 38, -36, 51, -58, 26, 85, -22, 70, 5, -84, 57, 24, -19, -4, 6, 29, -45, -62, 14, 0, 71, -77, 8, -13, -49, 39, -8, -28, -14, -44, -9, 1, -103, 68, 54, 16, 103, -87, -100, 77, 11, -19, 73, -39, -6, -17, 75, 111, -40, 53, -55, -6, 55, 41, -6, 33, -10, -4, 49, 54, 24, -26, 1, -151, -81, -10, -3, -73, 10, -54, -33, 9, 46, -3, 54, -104, 43, 76, 41, 44, -85, -31, -2, -28, 67, -113, 78, 54, 0, -29, 53, -17, -77, 36, 61, 47, -107, 32, -17, -1, -29, -37, -82, -10, -107, 11, 23, -30, 22, 28, 57, 30, -33, 9, -16, -56, 56, -107, 22, -9, 73, -50, -118, 101, -70, -36, -144, -84, 58, 36, -53, -125, -52, -67, -82, -80, 18, -34, 5, -143, -35, 120, -115, -2, -73, -57, 41, 15, 2, -47, 33, -91, 52, 67, 21, 60, -194, 34, 16, -22, -20, 2, -71, 52, -36, -93, -129, -12, -83, -22, 80, -185, -61, -97, -48, -31, -42, 43, -92, -14, 40, 11, -65, -22, -96, 39, -174, -45, -108, -46, -13, 28, -2, -7, -3, -58, -19, 58, 0, 39, 15, -83, 44, 74, 18, 82, -68, 27, 72, -13, -18, 96, 40, 53, -85, 32, -53, -85, 4, -62, 160, 55, 51, 5, 18, -35, -13, -22, -49, 44, 87, 109, -95, -37, -109, -8, 52, -6, 13, -20, 78, 12, -11, 50, -57, -30, -119, -109}
, {70, -82, 40, -90, -183, -110, -93, -75, -31, 85, -28, -125, 19, 8, -43, 23, -165, -8, 44, -100, -119, 44, -73, -75, -47, 47, -189, -59, 41, -54, -131, 3, 77, 14, -42, 5, 10, 33, -61, -88, 118, -86, 4, -226, -40, -48, -69, 46, 12, -38, 100, -45, -50, -46, -37, -100, 47, -21, -45, 43, 132, -21, -15, -104, 64, -177, 18, -22, 28, -14, -22, -135, 132, -100, -27, -195, 6, 33, -123, -3, -24, 41, 108, -60, -18, -19, 39, 15, -52, 9, 38, -62, -11, -39, -27, -17, -79, 64, 78, -11, -138, -31, -15, 11, -46, -19, -146, -9, -54, -46, 256, 4, 40, 3, 1, 13, -23, 81, -89, -207, -170, 57, 38, -181, -38, -157, 25, -157, 0, -24, -61, -2, -50, 46, 49, -6, 26, -80, -12, -2, 6, 10, -81, 91, -170, -74, 113, 52, 28, 50, 13, -128, -62, 78, -54, -46, -89, 48, -82, -8, 51, -52, -74, 22, 82, -71, -30, -34, 18, 4, -53, -23, 9, -84, 37, 48, -114, 26, 18, 28, -12, -90, 10, 15, 40, 68, -41, -15, -32, -66, 35, -117, 38, -115, -32, 11, 58, -59, -40, -59, 20, -103, -36, -54, -23, -95, 0, -66, -86, 13, -91, -45, 39, -170, 63, 63, -92, 23, 115, 52, 48, -10, 24, -38, 37, 2, 34, 50, -55, -141, 89, -58, -88, 62, -51, 82, -159, 94, -25, -11, -112, 58, 114, 26, 2, 86, 16, -90, 50, -68, 80, -7, -3, -46, 47, -9, -85, -33, -50, -57, 100, 61, 72, 53, 2, 67, 44, 14, 12, -33, -3, 19, -24, -23, -16, 92, 43, 23, 47, 85, -86, -21, 10, 11, -48, 78, 107, 4, -26, 87, 69, 54, -27, -42, -25, -50, -134, 57, 51, 10, 71, 16, 26, 62, 81, -134, -40, -16, -28, 30, 25, 10, -31, -39, 48, -6, -113, -75, -6, 32, 35, 31, 8, 27, -19, -6, -51, 52, 63, 9, 10, 17, 2, 70, 72, 43, 45, 67, -25, 37, -14, 48, 46, 80, 43, 0, -99, 5, -44, 0, 11, -17, -143, -7, -29, 17, 10, 6, 21, -40, 52, -82, 7, -111, 22, -19, -72, -140, 44, -118, 23, 28, -65, -41, -83, 5, 38, 66, -65, 42, 20, 45, 34, 14, 43, 13, 66, -2, -34, -4, -24, 90, -54, -96, -4, 14, -19, -46, -21, 19, -15, -7, 107, 12, 9, 2, 5, -21, 36, -135, 39, -72, -208, -45, -119, 24, -41, -30, -16, 107, -31, 111, -75, -5, -29, -127, 32, 56, -41, 66, 48, -103, 29, 12, -105, -50, 26, 12, 42, 65, 4, 93, -12, 45, -38, 56, 2, 40, -87, 41, -32, -56, -40, 114, -35, -112, 2, -110, 87, 45, -120, -95, 4, -138, -51, -25, 23, -78, -147, -94, -15, 45, 26, 15, 137, 46, -29, -152, -148, -63, -88, -27, 23, -27, -1, -14, 3, 68, -4, 40, 2, -4, -18, 6, -40, -23, 36, -38, 7, 40, -14, 7, 44, 91, -43, -56, 15, 52, -61, 33, -4, 31}
, {-40, 7, -163, -91, -16, 37, -10, 58, 11, 53, 42, 45, -54, -18, -55, -18, -1, -35, -46, 21, -59, -101, -86, 72, 7, 103, 5, 29, -31, -33, -84, -65, 3, 60, -7, 2, -6, -74, -42, 31, 113, -73, 54, 55, 44, -39, -48, -17, 5, -8, 51, 39, -53, 126, 20, 1, 19, 1, 30, 29, -76, -49, -7, 79, -44, 18, 1, -52, 72, 44, 51, 4, -154, 36, -69, 27, 36, 45, 65, 63, 162, 22, -6, 9, 3, 36, -46, -83, 63, 5, -72, -53, -93, 16, 68, -20, -46, -32, 43, 43, -9, 27, 29, -70, -1, -48, -56, 5, -58, -161, 17, 59, 47, 56, 19, 22, -137, 60, -28, -13, 38, -1, -87, 18, -33, 1, 76, 41, -12, 4, -99, 18, -75, -17, -168, 19, -39, 58, 24, -44, 66, 53, -69, 60, 15, 39, 48, 48, -36, -78, -8, 7, 6, -59, -13, -65, 37, 49, -126, 18, 14, -23, 27, -34, 16, -60, 69, 53, -5, -34, -13, 42, -35, -18, 21, 62, 28, 64, -1, 8, 111, -1, 74, -77, 1, 13, 104, -21, 35, -61, 36, 49, 23, 6, -38, -135, 43, 7, -31, -9, 29, 84, -109, -17, 4, 31, -7, -49, 51, -126, 55, 16, 27, 22, 29, -46, 10, -17, 3, -115, 36, -40, 22, 12, -3, 3, -37, -26, -21, -3, -35, 68, -14, 20, -2, -73, 17, 25, 12, 26, -64, 55, -155, 50, -88, 71, -3, 6, -76, 46, -88, -48, 52, 0, -69, -23, -66, 40, 142, 98, -63, -97, -76, -19, -34, 24, 34, 139, -82, -50, -13, -98, -32, 1, -169, 9, -118, 138, -60, 20, 33, 142, -53, 6, 113, -38, 29, -55, 16, -66, -132, 31, 75, 57, -27, 165, -34, 13, -53, -110, -85, 10, 45, -53, -33, -27, -97, 41, -117, -8, 7, 16, -15, 55, -37, -46, 72, -20, -49, 47, -55, 107, -122, -54, 88, -14, -22, 56, 152, -36, 32, -27, -72, -13, 45, -22, -203, 73, -48, 28, 26, -40, -1, 72, 59, 93, -41, -9, -20, -1, -94, -34, -65, 61, 61, 15, 18, -67, -44, -54, 73, 90, -39, -16, 17, 13, 117, 68, 42, 8, -52, -4, -25, 11, -122, -16, 24, -5, -50, -38, -35, 85, -60, -7, -36, -66, 2, -56, 95, -99, 38, 99, 11, 1, -35, -23, -29, 6, 24, -10, 62, -85, -64, 39, 58, -39, -69, 74, -23, 33, 38, 24, 146, 26, 7, -53, 16, 14, 5, -37, 76, 8, 99, -31, -82, -93, -37, 53, 56, 114, 57, -62, -6, 62, -37, 9, 9, 84, 45, -14, -21, 55, 117, 8, -31, -18, 35, 49, -132, -49, 45, 48, -14, 63, 25, -82, -67, 25, -55, 29, 24, 27, 12, 76, 40, 24, -33, 60, 37, -16, -19, -64, 60, -53, -152, 26, -9, -51, 40, -4, -143, -82, 0, 19, -9, 35, 49, -141, -38, 5, 30, 42, 29, -132, -42, -56, 3, 32, -102, -8, 22, 4, -13, 90, -26, -24, -33, -22, 31, 76, -17, 63}
, {59, -45, 101, -43, -8, 53, -58, 22, -85, -86, 27, 5, -3, -59, 55, -30, -52, -59, -54, -27, 40, -18, -27, -140, -107, 12, -55, 12, 70, 56, 6, 49, 55, -31, -110, 1, 19, 110, -52, -22, -68, 84, 42, -74, -95, 27, 66, 91, -24, 1, 18, -53, -21, -6, -168, -76, 45, 36, 14, -33, -37, 35, -138, -42, 62, -53, 27, -51, 67, -32, -16, -2, 83, 44, 88, -18, 108, -80, -36, -3, -115, -42, -11, -53, 70, -95, 28, 2, -133, 62, 55, 90, 17, 13, -68, -13, 30, 9, -129, 16, -29, -28, -68, -52, -74, -22, -32, -132, -98, -58, 102, -27, 0, -53, 4, -46, -83, -37, 7, -22, 10, 99, -15, 38, -76, -35, -206, 5, 21, 35, 121, 52, -36, -1, 43, -13, 117, -61, -28, 11, -30, 70, 35, 54, -64, -63, 22, -68, -21, 28, -15, -118, -57, 168, -42, 88, 17, -26, 39, 42, 78, -41, 27, 38, 4, -95, 66, 29, -54, 54, 22, 37, -15, -104, -14, 89, -145, -54, -58, 22, 5, 44, 19, 22, 22, 130, 116, -40, -33, -15, 8, -71, 18, -61, 16, 109, 44, 46, -17, 20, -59, 73, 151, -6, -74, -57, 73, -1, -23, 11, -34, 40, -36, -18, -6, 10, -1, 18, 57, 81, 17, 19, 7, -6, -54, -48, -1, -58, 42, 23, 92, -30, 97, 45, -16, 17, 0, -26, -60, -10, -4, -54, 3, -42, 46, -40, 70, -58, 43, 20, 24, 74, -69, -16, 11, 91, -72, 25, 26, -20, 41, 16, 32, 39, -68, 37, -41, 18, 61, 70, 25, -36, 36, 21, 7, 15, -56, -133, -66, 70, 99, 0, 21, 11, -23, 53, -68, -50, 51, 1, 45, -24, 2, 66, -8, -48, 188, 37, -80, -5, 9, 62, 48, -64, 17, 5, -12, 23, -40, -13, -3, -19, -5, -78, 93, -68, -34, 16, -6, 136, -10, 81, 30, -24, -25, -145, -16, 70, -14, -118, 92, -15, 92, -66, -13, 86, 30, 10, -72, 40, -10, -45, -58, 10, 144, 33, -62, -26, 33, -67, -23, -12, -49, -52, 19, -54, 23, 45, 146, -28, -106, 5, -21, 66, 122, -170, 42, 19, -82, 14, -78, 20, -26, 6, -22, -96, 29, -100, -97, -20, -4, 28, 23, -47, -36, 83, -14, -25, 4, -92, -79, 86, -45, 35, 33, -59, -30, 32, 62, -2, 17, 82, -60, -53, -74, -11, 20, 10, 145, 48, -54, 55, -53, 31, -67, 45, -7, -94, -7, -70, 45, 59, 49, 66, 35, -84, -52, 49, -70, -10, 10, 2, -24, 0, -36, -30, -34, -81, 39, 31, -33, 45, 28, 13, 57, 29, 66, -99, 96, 82, -4, 119, 43, 42, -91, 69, 22, -38, 34, -11, -82, -27, -35, -74, 27, 14, -21, 14, -56, 49, 19, -5, 49, -17, 1, 25, 37, 112, -28, 84, 76, 54, -43, 41, -1, -26, 28, 96, -1, 36, -76, -74, 53, -12, -19, 44, -16, 65, 22, 1, 54, 8, 30, 12, -16, -39, -36, -25, -80, 35, -23, -1}
, {80, 65, 23, 23, 105, 70, 56, 147, 37, -98, -52, -40, 5, -61, -20, -48, 9, -55, 23, -26, 33, 14, 5, -17, 63, 19, 15, 127, -43, 3, 101, -25, 51, 3, -9, 38, -2, -99, 24, -17, -23, 24, 24, -19, 22, 6, 39, 3, -4, 83, -96, 33, 0, 77, 43, -9, -84, -23, -7, -101, -108, 40, 23, 1, -18, 11, -37, 10, 73, -37, -29, 6, -36, 31, 10, -12, -6, 65, -5, 55, 1, -72, 2, -6, -82, -8, 3, 22, -82, -13, -2, -42, 22, 57, -11, -4, 6, -83, -148, -17, 16, 3, 9, 6, -1, 60, -54, -13, -11, -83, -219, -70, -77, -118, 13, -10, -69, -44, 44, 17, 27, -90, -79, -25, 42, 35, -4, -31, -16, -81, 47, 27, 21, -78, -131, -77, 14, 80, 43, -102, -65, -111, 8, -106, 100, 20, 12, -59, -43, 16, -150, 69, 98, 35, 15, -64, 33, 28, 6, -38, 23, -8, -1, -100, -83, 78, -65, -51, 71, -39, 3, -2, -1, 13, -133, -65, 98, 21, 45, 37, -115, -27, 35, -36, -29, 24, -12, 22, -72, -26, -115, 66, -106, 58, -78, -71, -76, -29, 46, -51, -46, 57, -151, 21, 99, 61, -5, 58, 15, -39, 1, 73, 62, 50, -136, -130, 70, -45, -74, -19, 73, -98, -66, 41, -67, -105, 78, -40, 37, -7, -56, 55, 67, -133, -66, -79, 47, -60, 62, 41, 12, 8, -96, 22, -39, -50, -28, 14, -47, 34, -87, -95, 67, -53, -127, 51, 7, -32, 132, 8, 38, -46, -49, -2, -5, 70, 14, -20, -16, -18, 6, 76, 13, -57, -71, -72, -44, 9, -145, 41, 58, -47, 74, 44, 32, -6, 62, -72, -20, 18, -23, -3, 50, 118, 68, 14, 142, 131, 10, -9, 113, 2, -52, 38, 61, 37, 79, 25, 23, -28, 44, 97, -74, -61, 0, 81, -86, -40, -36, -54, -11, 31, -28, 51, -51, 12, -30, -88, -33, -82, 50, -25, 59, 18, 15, -15, 15, -65, -33, -18, 11, 0, 21, -76, 65, -142, -51, -111, 126, 32, 13, -31, 75, -86, -52, 77, -17, -46, 36, -12, 11, 133, 31, -14, 86, -49, -55, -42, -19, 50, 60, -22, 55, -48, 15, 68, -55, 64, -49, -52, 113, -86, -90, -23, 47, -4, -70, -8, -28, 84, -10, -44, -8, -8, -35, -85, 2, 5, -111, -100, 30, 59, 37, -34, -1, 48, 30, 47, 67, -156, 6, 25, -23, -8, 92, 47, -41, -17, -2, 19, -78, -31, 29, 2, -53, -11, -80, -15, -58, -64, -125, -3, 31, 27, 60, 5, -69, -41, -56, 57, -59, -113, -163, 73, 87, 87, -69, -38, 21, 60, 45, -14, -33, -9, 17, -9, 17, -10, 5, -42, -88, -43, -49, -66, -65, -47, 75, -61, -32, 11, 31, -8, -25, 27, -155, 45, 14, 9, -6, -146, 29, -8, 31, -73, 5, 46, -55, 88, 32, -99, 106, -58, -45, -40, 7, 38, 12, -26, 31, -67, 15, -65, -35, -70, 79, 21, 70, -30, -48, -32, 48, 17}
, {16, -38, 192, 47, 11, -20, -4, -36, -66, -106, -49, -37, 40, -14, 113, -18, -119, -25, -15, -28, 24, 37, -11, -97, 21, -36, 25, -65, -30, -1, 39, -1, -57, -27, -103, -11, 40, 61, 1, 43, -82, 11, -108, -25, 14, 0, 45, 87, 17, -30, -92, 5, -4, -168, -5, 2, -73, 37, -4, -54, -168, 60, -74, -9, 28, -22, 34, -1, -18, 2, 64, -88, 1, -73, 42, -146, 13, -112, 66, -4, -99, -38, 33, -127, 38, -64, 21, 37, -9, -28, 38, 54, 37, -60, -47, -116, 38, -24, -29, 65, -63, -71, -12, -15, -90, 30, 1, 2, 12, 19, -152, -46, 36, -27, 46, -1, -54, -13, 104, 45, -122, 72, -30, 12, -9, -70, -24, -110, 0, -51, 92, 56, 73, -4, -15, -7, 67, -40, -19, 84, -22, -97, 11, -158, 15, -14, -39, -45, 27, -1, 44, -62, -17, -31, 45, 78, -19, -46, 50, -55, 49, -19, 16, -72, 14, 49, -16, 68, -49, 53, -101, 45, 22, -54, -33, -65, -6, -57, -18, 44, -93, 78, -62, 52, -4, 3, 9, -41, -29, -63, -73, -5, -183, 42, -70, 0, -100, 25, -10, 23, -142, -101, 54, 13, -46, -37, 111, 28, -23, 72, -68, 0, -66, 6, -140, -48, -33, 68, -94, 118, -39, 68, -52, -18, -84, -157, 32, -167, 74, 112, 43, -58, 23, -82, 89, -25, -63, -26, -16, -7, 37, -37, 31, 27, 73, -129, -7, 62, 94, -91, 9, 107, -64, -11, 2, -34, -37, 46, -99, -35, -75, 39, 48, 46, 27, -34, -4, 54, 51, -60, -22, -34, 5, -4, -54, -1, -11, -63, -52, 0, 110, 46, -5, 63, -76, -7, -16, -11, -30, -93, 62, -6, -86, -127, -97, -80, -64, -6, 22, 47, -55, 92, -12, -43, 13, 1, -113, -70, -32, 22, -160, -95, 48, 4, 25, -10, -142, -78, -24, -22, -4, -71, -53, -104, -33, 73, -12, -2, -159, -59, 42, 9, 7, -69, 30, -63, -38, 59, -44, 30, -43, 26, -71, -6, 65, -67, -98, -40, -170, 12, 18, 22, -67, -63, -1, -81, 12, -5, 12, -59, -13, -105, -12, -47, -95, -22, -75, -52, -65, 12, -52, -16, -45, -38, -30, 55, -11, -23, -19, 8, -206, -8, -37, 5, 35, 17, 55, -49, -139, -52, -5, 108, -59, 22, -4, 74, -89, -92, -74, -64, -69, -18, 38, 19, -117, 7, 25, -38, 24, -28, -68, -83, 20, 22, -88, -79, 6, -42, -104, 7, 8, 68, -43, -18, 74, -32, -8, -24, -24, -27, 12, 27, -58, 32, -4, -11, 44, 6, 47, -2, -43, 63, -70, -14, 64, -105, -55, -58, 78, 74, -2, -40, -21, -102, 40, -73, 67, 7, 13, -16, 27, -12, 90, -45, -24, 32, -6, -53, 8, 41, -56, 156, -72, 30, 124, 83, -33, 22, -20, 9, -17, 72, -29, -40, -45, 29, -70, 28, 51, -12, -59, -101, 8, -4, 78, -142, 18, -58, 45, -12, -81, 70, -20, -120, -43, 44, 30, -36, -15, 65, 36, -16}
, {-79, 8, -64, -16, 7, -117, 10, 23, -4, 50, -34, 69, -11, 7, -30, 26, -64, 29, 8, -41, -60, -57, 38, -17, 37, -6, -10, 3, -46, 51, -93, -51, 132, -30, 107, 64, 50, -15, -6, -38, 89, 35, -112, 14, -76, 34, -10, 85, 36, -98, 3, 8, 8, 53, -5, -56, 28, -13, -10, 70, 178, -58, -17, -20, 16, 27, -5, -32, 36, 17, -10, 30, 25, -40, -16, 122, -68, 17, 9, -44, -39, 53, -61, 2, -127, 72, 37, 86, 48, 63, -16, -6, 22, -53, 63, 35, -21, 120, 69, -25, -8, -48, -8, -35, -145, -70, 6, 14, -47, 10, 227, -23, 98, 51, 32, 8, 4, 132, -90, -7, 60, -44, 18, 0, -2, -17, 35, 50, -38, 54, -62, 3, -15, -37, 96, 30, -29, 54, -28, 4, 80, 86, -14, 80, -36, -33, -18, -15, -43, -49, 90, 32, -15, 26, -19, 9, 1, 8, -77, 84, -35, -43, 14, 18, 12, 46, 137, -47, -14, -67, 64, -26, -60, -50, 144, -46, -28, 77, -14, -69, 99, -14, 48, -19, -86, 45, 28, 5, 60, -66, 87, -39, 93, 17, 67, 67, -22, 3, -51, -29, 55, -36, 14, -5, -44, -24, 56, -47, -44, 80, -65, -18, -25, -124, 97, 54, -31, 56, 41, 47, -29, -92, -16, -31, -39, 37, 21, -16, -59, -59, 44, -13, 64, 28, -49, 47, 6, -6, 36, -30, 158, -25, 109, 33, 91, 101, -27, -89, -44, 14, 73, 3, -74, 23, 117, -12, 30, -44, 61, -107, 58, 20, 24, -55, -43, 61, 33, 3, 17, -83, 20, -35, -21, 17, 19, 57, 61, 43, 129, -11, -11, 10, 0, -20, 21, -37, 19, -41, -120, 25, -82, 34, -6, 53, -38, 56, -21, -23, -34, -64, -52, -83, 78, 1, 37, -51, 2, -9, -55, 11, 12, -12, -29, 114, -65, -27, 87, -13, -12, 7, 32, 6, -23, -78, -71, -13, 17, 45, 30, 72, 3, -33, -69, -54, 22, 23, -25, 21, -51, -69, 14, 17, -21, 65, -78, 81, -10, 106, 21, 20, -52, 57, 43, 148, 16, -27, 19, 23, -36, -49, 36, 7, -31, 10, -79, 61, 63, -67, 14, -75, 1, 36, 29, -21, 5, -101, 7, -45, -10, 45, -152, 15, 50, 69, -7, -50, 56, 0, 91, -42, 29, 3, -14, -93, 13, 55, 66, -26, 17, 16, -73, -16, 25, 100, 33, 1, -29, -63, 52, 43, 54, -101, 32, 36, -136, -18, -144, -83, 72, -66, 62, -85, 53, -23, -39, -5, 42, 40, 87, 90, -7, -60, 85, -18, 6, -6, 30, -26, 63, 48, 89, 9, 68, 3, -32, 49, 160, 0, -67, -13, -27, 106, 6, 65, 83, -36, 2, -35, -99, 70, 26, -26, -15, 35, -4, 134, -42, -45, 2, -84, -78, -33, 42, 18, 86, -8, -77, -16, -90, -166, -11, -22, -19, -18, -119, -126, -67, -7, -62, 20, 11, 49, -25, 42, -42, -30, 6, 47, 41, -41, -8, 34, 61, 59, -96, -102, -26, -19, -4, -62, -26, 73}
, {-9, 100, -111, 112, 63, 120, 60, 35, 11, -30, -51, -55, 32, -34, 5, -33, -51, -29, 10, 9, 40, 30, 37, 27, 50, -51, -15, -30, 54, -31, 169, 19, 6, 6, -37, 27, 79, 21, 30, 10, -53, -48, 63, -32, 23, 21, 67, 12, -67, 47, -42, 2, -1, 54, -11, -28, -78, -31, -18, -64, -43, 13, 68, 92, -18, 31, -18, 28, 3, -67, -21, 12, -199, 6, -59, -17, 0, 60, 41, 40, -24, -97, -20, 26, 20, -5, 36, -20, 2, -23, 39, -119, 64, -20, -32, -14, 35, -83, -42, -61, -6, 111, 32, 50, 78, 59, 11, 63, -4, -3, -226, 88, -5, -70, -14, 16, 31, -84, 20, -53, 26, -15, -39, -84, -27, -33, -21, -89, -56, 16, -56, -58, 68, -44, -4, -60, -29, 22, -4, 73, -24, -99, 69, -92, 55, -39, -15, -23, 25, -21, -87, 2, 69, -23, 45, -126, 35, 55, 18, -31, 48, 16, -14, 2, -50, -29, -131, 14, 4, 32, -19, 39, -35, 50, -80, -3, 54, 35, 50, -27, -192, 94, 1, -46, -53, 39, -51, 60, -85, -32, -123, -6, -93, 10, -60, -82, -73, 11, -20, 20, -72, 16, -41, 87, 73, -6, -62, 79, 17, -8, 62, 36, 92, 88, -188, -179, 8, -8, -40, -14, 54, -34, -23, 23, -28, -54, 52, 21, 35, -4, -58, -64, 44, -139, 0, -88, -82, -23, 14, 15, 19, -88, -100, 28, -38, -52, -27, -5, -1, -8, -108, -117, -81, -19, -63, 56, 12, 32, 86, -150, 43, -1, -10, -66, 49, -1, -5, -98, -3, 66, 60, 33, 39, -15, -29, -35, 21, -93, -87, 2, -45, -177, 45, -125, 43, 26, 48, 21, -48, 42, -34, -69, 18, 78, 104, 31, -23, 43, 3, 33, 114, -29, -91, 25, 12, 25, -13, -52, 96, -47, 47, 55, -7, 94, 11, -33, -133, 5, 48, 62, 0, -32, -67, 113, -58, 42, -26, -69, -121, 31, -25, -34, 49, 63, -126, -75, 22, -73, -45, -112, 80, 47, 32, -84, 32, -174, 14, -80, 85, -53, -12, 19, 101, -103, -7, 9, -57, -51, -48, -30, -10, 62, 19, 63, 43, -13, -122, 52, -18, 85, 1, -60, -15, -23, 17, 69, -54, -11, -40, -16, 108, -55, 58, -41, 149, 8, -25, 67, -33, 102, 19, -23, -45, 28, -21, -43, -44, -56, -88, -79, -22, 69, 40, 23, -55, 61, 8, 36, -8, -116, -10, -77, -11, -47, 38, 54, 79, 92, 58, 15, -43, -39, 63, 11, 92, -16, 2, -13, -39, -96, -55, -44, -78, 28, 51, -13, -125, -33, -89, 34, -8, -96, -127, 47, 45, 44, -132, -35, 10, -2, 24, -108, -44, -34, 29, -7, -6, 86, 100, -74, -38, 67, -30, -51, 64, -78, 58, -36, 2, -5, 16, -35, -10, 24, -45, 33, 12, 4, -6, -90, 52, 56, 28, -57, -24, -27, -61, 81, -13, -20, 74, -6, -100, -8, 52, 118, -2, 29, 31, 20, 13, 1, -122, -81, 46, 102, 86, -63, -61, -35, 32, -30}
, {-25, -14, 3, 0, 10, -25, 12, -60, 18, 42, -28, -50, -15, 35, -26, -46, 27, -40, 1, 3, -50, 13, -21, 6, -9, -54, 5, 25, -30, -37, 2, -21, -43, 38, 25, 30, 18, -38, -48, -4, 2, -55, -52, 17, -24, -9, -51, -17, -41, -26, -15, 7, 20, -37, 35, 9, -63, 2, -57, 12, -30, 15, 27, -42, -53, -52, 8, -25, -58, -30, -50, 31, -30, -55, 11, 6, -48, -38, 31, -10, -59, -18, -20, -32, 41, -7, -36, -75, -35, -46, -12, 28, 23, 8, -32, -58, -62, 14, -7, -43, -1, -39, 11, 5, -8, 6, -39, -22, 11, -12, -36, -41, -29, 18, 42, 40, -2, 5, -38, -6, -30, -28, -34, -20, -25, 26, -37, -24, -6, -44, 32, 12, -69, 24, -66, 9, -5, 13, -22, -27, -14, -32, -40, 19, -42, 21, -16, -20, -28, -36, -12, -22, 17, 15, -7, 37, -4, -51, 19, 29, 33, 24, -3, 34, -1, -12, 30, -17, -77, -10, -30, -35, -51, -13, -16, -9, -56, 1, -8, 17, 12, -28, -15, 24, -44, -21, -40, -69, -31, -21, -26, 23, -15, -29, -34, -21, 2, -31, 8, 16, -53, -58, 18, -24, 9, 10, 1, -41, -61, 29, 8, 4, -11, -19, -23, 12, -54, 8, -25, -31, 10, 29, -23, 23, -30, 22, -41, -46, -50, 13, -51, 3, -9, 0, 9, -1, -30, -8, 1, -15, 7, 2, -34, -34, -19, 9, 0, -19, 20, 31, 5, 10, -21, 26, -54, -47, -45, -26, 45, -31, -56, 2, -41, 8, -47, 18, 7, -55, -36, -53, -39, -19, -74, -45, -36, -46, -48, -25, -40, -43, 24, -20, 18, -22, 4, -28, -45, -54, -5, -68, -48, -35, 38, 16, -42, -23, -3, -24, -42, 9, -16, 31, -35, 18, 6, 13, -9, 28, 11, 33, -63, -54, -9, 16, 1, -59, -1, 7, -6, -46, -9, -35, -52, -28, -26, -44, -11, 17, -9, 3, -18, -52, -27, -19, -5, 31, -33, -13, -63, -1, -49, -55, -48, 5, -26, -10, 18, 30, -11, -39, 17, 28, 13, 19, 42, 23, -38, 3, 33, -26, -56, -52, -40, -20, -12, -11, -3, 27, -23, 18, -38, 31, -33, -6, -51, 21, -43, -44, -58, 31, 3, -44, -27, -14, -26, -36, 11, 2, -46, -55, -17, -38, -15, -54, 16, -50, -17, 29, -10, 24, -46, -35, 0, 2, -54, -34, -27, 27, 33, 4, -58, 30, -1, 8, -2, -5, -11, -73, 19, 14, 8, 36, -45, 14, -55, 40, 14, 13, 14, 22, -41, -61, 20, 27, -40, 34, -46, -17, -58, 36, -15, -20, -17, -43, -46, -35, -34, 5, 33, -14, -34, -2, -7, -8, -25, 40, -40, 16, -22, -45, 33, 3, 24, -32, 1, -43, 34, -50, -44, 29, 22, -31, -36, -18, -40, -54, -11, -37, 18, 17, -39, 13, -8, -10, -14, 15, -42, 16, 16, 39, -34, -45, -40, -20, -11, 21, 8, 13, -6, 52, -6, 35, -70, 21, -1, -34, -67, -31, -25, -75, -55, 5}
, {61, -11, 126, -10, 11, 81, 39, -64, -15, -44, -23, -34, -14, -13, 53, -3, -8, -24, 11, 57, 41, -86, 33, 28, 44, -51, 51, 9, -56, 35, 18, -73, -41, 13, -51, -74, 5, 79, 68, 32, -4, 42, -18, 54, -15, 9, -23, 57, -50, -74, 21, 82, 10, 40, 7, 32, 14, 18, 32, -21, -57, 33, -46, -17, 13, 6, 27, 71, -33, -79, 17, 44, -58, 11, 104, -17, -7, -37, 57, -51, 15, 39, 47, -17, 66, -25, 31, 12, -71, -52, -8, -52, 44, -52, -86, -61, 0, 13, -76, 2, -45, -35, -25, 77, -67, 90, -27, 22, -65, -17, -117, -18, -21, -65, 22, 4, 2, -98, 45, -1, -50, 6, -60, 0, 59, -48, -1, -15, -9, 56, -56, 20, 77, -1, -44, 52, -36, 21, -45, -20, 30, 17, 83, -37, 101, 21, -52, -48, 49, -31, -19, 27, -39, -63, 12, 34, -65, 32, 94, -16, -17, 1, 8, 29, -42, -73, -61, 66, -39, 47, -64, -10, -28, 17, -84, -38, 47, -20, -83, -58, -136, -8, -13, 40, 20, 11, 24, 32, -50, 29, -62, 67, -112, 10, -78, 20, -59, 29, 56, 83, -115, 29, 74, 38, -29, 56, 100, 82, 16, -3, 70, -19, -28, 65, -142, -106, -15, -12, -17, 19, 51, 33, -151, 33, 86, -80, 14, -60, 42, 34, -13, -61, 26, -35, 49, -38, 63, -85, -99, 38, -71, -45, -92, -3, -54, -118, 30, 74, 20, -31, -53, -50, -18, 66, -22, -23, 47, 17, -170, 52, 1, -5, -47, 82, 49, -14, -36, 8, -57, 16, 52, -74, -58, -44, -7, -37, -74, -44, -49, 19, 49, -32, 23, 59, -60, 45, -12, 81, -17, -29, 89, -24, -120, -88, 1, -40, 5, -28, -60, -3, -15, 103, -117, -6, -3, 51, -41, 50, -65, -27, -2, -16, 47, -15, 12, 61, 116, -3, 2, -53, 26, -95, 70, -19, 14, 51, -32, -2, -33, -60, -100, 46, 53, -14, -29, 45, -14, -77, 59, 2, 25, 6, -36, -25, 53, -88, 61, 8, -77, 43, -16, -32, 35, -64, 21, -90, -29, -38, -18, 77, -128, -21, -43, -39, -93, 5, 71, 8, 17, -15, 31, -4, 81, 60, 16, 49, -14, 39, 53, -24, -39, -42, 103, 33, -14, -36, -29, 30, -55, -16, -29, -127, 51, 100, -38, -96, -44, 35, -43, 1, -33, -60, -33, -23, 20, -20, -24, 9, -17, 122, -38, 64, 75, -42, 28, 46, 98, 73, -76, -9, -59, -138, -92, -7, 79, 136, -56, 1, -32, -118, 50, 48, -25, -5, 71, -26, -2, 70, -53, -160, -70, -20, 191, -35, 2, -76, -20, -20, 31, -33, -20, -112, 75, -158, 101, 113, 1, 23, 72, -108, 109, 151, 75, 97, 19, -45, 52, 131, 135, 65, -15, -6, -52, 4, 10, 4, 133, 139, -16, 107, -19, -67, -22, 30, 23, 131, 106, -58, 18, -39, 6, -11, -16, -2, 99, 74, 1, 15, -109, 29, -31, -49, -86, -156, 78, 57, 49, -9, 9, -56, -99, -9}
, {6, 73, 67, -10, -19, 23, 19, -26, 17, -112, 39, 15, -28, 67, 5, 2, -59, -37, -60, 2, -49, -53, 50, 32, 63, -73, 39, 29, -23, 36, 87, -34, -6, -25, -16, -49, -57, -37, 9, -2, -44, -2, 63, 21, 21, 17, -9, -8, -42, -9, -147, -8, 46, -11, 42, 63, -20, -46, -4, -16, -1, -36, 32, 98, -73, -23, -15, 17, -27, -37, -32, 16, -13, 27, 42, 1, 18, 24, 61, -16, 48, 42, -12, -57, 22, 34, -3, 34, -58, -28, -45, 0, 35, 19, -75, 10, 42, -53, -2, -49, -25, 109, -8, 45, 68, 28, 40, 39, 7, 3, -80, -16, -83, -58, -10, -35, 55, -51, -46, 5, 91, -23, -71, -7, -26, 21, 24, -6, -23, 27, 85, -87, 44, 24, 16, 2, -16, 18, -2, -2, -142, -41, -67, -9, 16, 50, -95, -96, -139, 1, -4, 131, -47, -35, -36, -77, 67, 90, 29, -138, -75, -5, -17, 11, 13, -19, -58, -185, 28, -49, 93, -70, -41, 1, 25, -14, 30, 49, 78, 45, 56, 7, -112, -37, -94, -85, -102, 51, 50, 40, 42, -8, -49, -31, 50, 16, 32, -107, -16, -66, 66, 22, -22, 45, 57, -59, 53, -17, -4, 7, 76, 0, -38, -8, 27, -44, -3, 11, -79, -168, 5, -130, -2, 87, -19, 130, 51, 25, -71, -34, -138, -69, 17, -23, -15, 57, 24, 50, 7, 27, -60, 18, -125, 5, 67, -9, 12, 15, -13, 69, 34, -68, 77, 6, 32, -31, 21, -8, 51, 24, -12, 1, -5, -19, 79, -87, -44, 15, -95, -27, 23, 48, 94, -10, 50, -66, -38, -45, -24, -25, -82, -2, 7, -72, -58, -53, -17, 87, -36, -96, 30, -40, -51, 14, -82, 29, -26, -65, 24, -37, -18, -8, -75, 44, -40, 21, -27, 41, 7, -66, -16, 9, 42, -111, 27, -30, 14, -51, 16, -109, -17, -26, 46, 93, -19, 50, -104, -80, -70, -24, -68, -75, -46, 10, 74, 11, 19, -46, 55, 18, 68, 13, 34, -97, -93, -9, -2, 13, -91, 14, 5, 21, -9, 24, 0, 9, -49, -52, -52, 40, 13, -104, -96, -73, -175, 73, -58, -37, 0, 52, 53, -25, 76, 78, 32, -27, -49, -19, -37, -113, -47, -62, 39, -20, 14, -70, -60, 2, -46, 29, -32, -186, 69, 48, 32, -132, -52, -76, -36, -46, 56, -54, -28, -60, -26, 85, -84, 89, 15, -20, -53, -26, -5, 53, 53, -35, 109, 95, -38, 23, -92, -76, 29, -48, 74, 64, -71, -23, -34, -64, -60, -30, -40, -139, 128, 56, -127, -17, -31, -116, -65, -60, -101, -13, 78, 63, -78, -13, -31, -35, 57, -95, -116, -115, 27, 33, -135, 57, -85, -167, 64, 67, -37, 51, -38, -6, 78, 33, 88, 39, 30, -77, -16, -62, -128, -84, 112, 25, -9, 27, -21, -141, 60, 19, 1, 40, -8, -39, 27, -82, 16, -47, 24, -48, 24, 36, -51, -87, -56, 46, 11, -107, -80, -87, 74, 52, 1, -58, -21, -142, 7, -64}
, {-48, 38, 177, 35, -37, -61, 43, -110, 107, 12, 43, -52, 76, -45, 149, -5, -50, 15, 48, 72, 127, -6, -32, 11, -15, -99, 26, -15, 18, 50, -95, -44, -30, -49, 47, -81, -18, 60, 19, 84, -84, 14, -79, -90, -25, -41, -52, -5, 16, 63, 80, -31, -13, -140, 87, 48, -55, 21, -39, -15, -26, 49, -85, -19, -22, 81, 55, 49, -99, -27, -16, -114, -76, -29, 15, -134, -54, 26, -86, -179, 50, -27, -30, -35, 24, -85, 63, 27, 50, -84, -21, -25, 39, -93, -40, -6, -45, 43, -21, -29, 55, -16, -18, -28, -117, -19, 76, 21, -5, -51, -13, 18, 6, -27, -4, -41, -18, 51, -27, -8, -71, -26, -6, -34, -33, -84, 48, -59, 72, -103, -134, 5, -10, -26, 31, 3, 61, 66, -49, -19, -33, -114, -30, 10, 17, -9, 118, 70, 73, 24, -28, -98, -30, -32, -103, 123, 13, -74, 19, -35, 91, 21, 48, 20, -96, -75, -44, 16, 17, 52, 83, 70, 21, -81, -3, 123, -97, -82, 6, 69, -39, -6, -50, 39, -2, 36, -46, -21, 7, 56, -31, 22, 5, 24, 88, -16, -89, -23, 23, -52, -4, -89, 95, -52, -105, 35, -4, -38, -39, 33, 108, 126, -48, 11, -86, -2, 23, -64, 24, 82, -56, -52, 8, -8, -27, -78, 35, 19, 4, 19, 42, 5, -4, -103, -5, -115, -13, 64, 11, 42, 106, -17, 12, -20, 25, 67, 50, -71, -42, 54, 38, 15, -123, -11, 165, 39, 4, -46, -2, -44, -57, -8, 46, -27, 3, 24, -5, 27, -46, 23, 14, -91, -101, -42, 52, -17, -34, -62, 3, 20, 47, 55, 46, -50, 25, -20, -15, 14, 44, -31, -91, 187, -22, -28, 8, -175, -88, -7, 58, -48, -110, -64, 110, -46, -27, 88, 47, 62, -46, -56, 35, -16, -8, 170, -171, -60, 101, -61, -2, -11, 44, -66, 73, -66, -4, -170, 7, 13, 36, 47, 56, -79, -3, -42, -59, -79, -121, 99, -25, -31, 1, -37, 5, 100, -141, 116, -31, 116, 8, 31, -67, -122, -103, -19, 71, 15, 16, -36, 27, -33, 110, -3, -25, 13, -141, 19, 45, 86, 107, 5, 107, 9, 63, -34, 12, -82, 118, 24, 14, 34, -27, -25, 53, 41, -181, 19, 105, -155, 22, -166, -37, 26, -16, -85, 27, -20, -178, 54, -141, 37, -46, -74, -28, -142, -60, 26, -77, -204, 7, 53, -78, 21, -54, -119, -154, -146, -22, -115, -108, -96, 62, 46, -35, -101, -92, -27, 66, -70, 4, 19, 3, 43, 10, 42, -102, -63, 45, -39, 12, -7, 41, -28, 85, -94, 20, -113, 31, -144, -9, -150, -114, 79, 19, 12, -25, -52, 28, -33, 21, -11, -13, 15, 111, 49, -24, 83, -58, -38, 25, -131, -27, 155, -69, -43, -32, -17, 31, -19, -16, -44, -85, 3, -73, 38, -39, -10, -40, -117, 11, 39, -17, -6, -67, 74, -36, -78, 131, 30, -28, -35, 59, 89, 83, -53, -36, -45, 43, 2, -4, 39, -12, 0}
, {18, -16, -178, 61, -96, -111, -9, -82, 47, 67, 8, -99, -3, -26, 6, -12, -29, -19, 58, 37, -13, 94, -38, 18, 74, 37, 42, -37, 28, -37, -113, -23, 20, 89, 111, 19, -8, -149, -22, -29, 108, -12, -30, -9, -5, -28, -22, -26, 61, 41, 56, -91, -52, -15, 18, -15, 85, -59, 20, 69, 66, 2, -19, -69, -9, 3, -13, -8, 10, -5, 31, 15, -62, -58, -70, -47, -35, 84, 68, 22, -8, 43, 94, 99, 43, 55, -27, -59, 76, -52, 34, -62, 17, -22, -8, 75, -26, -2, 55, 53, -145, -70, 4, -94, -48, -21, -11, -15, -39, 23, 138, 32, -22, 36, -40, 36, 14, 54, 6, 45, -93, 88, 48, 9, -27, -88, 122, 7, -43, -6, -94, -10, -25, 79, 25, -160, -25, 15, -15, -62, 102, 4, 71, 42, 0, -102, 87, 1, 23, -100, -106, -33, -46, 84, -16, 27, -10, -11, -28, -38, -2, -38, -50, -118, 58, -95, 11, 102, -18, 30, -9, 65, -117, 12, -140, 83, 34, -25, -9, -64, 98, 30, -2, -65, 7, -52, -5, 31, -50, -46, 103, -108, 152, 2, -33, -48, 153, 55, 30, 11, -66, -39, -117, 18, 50, -22, -32, 54, 35, -75, -22, 21, 41, -8, 159, 69, 23, -154, 136, -4, -101, -44, -53, -21, 63, 10, 46, 65, -140, -153, 2, -71, -132, -33, -27, -23, -68, 57, -26, -117, 39, 58, -15, 23, -45, 120, 37, 35, -58, 57, 49, -96, -26, -80, 66, -5, -12, -15, 38, -33, 87, 62, -13, -5, 21, -61, -25, -58, -86, 71, 82, -33, -43, -28, 96, 10, 38, 61, 46, 27, -43, 10, 87, -55, -69, -6, 52, -39, 41, 22, -33, 57, 4, 53, 100, 42, -88, 114, -4, -7, -8, -16, -34, 127, 57, 56, 39, 44, -10, 13, 112, 135, -22, 61, -119, 115, 86, 34, 51, -8, 11, 80, -27, -40, 25, -64, 12, 8, 109, 61, -5, -70, -21, -64, -2, -76, -8, 55, 32, -179, 34, 15, 49, 48, -28, 66, -41, 20, 34, -7, -104, -47, 44, 2, 119, 4, -29, 52, -49, 38, 6, 97, 91, 80, 60, -1, 104, 106, -49, -52, 45, -21, 112, -106, -20, -58, 46, -86, 30, -22, 39, -18, 113, 1, -83, -122, 2, -47, 127, 1, 31, -113, -87, -8, -17, -59, 56, 42, -89, 28, 3, -103, 23, -10, -40, -21, -60, -56, 30, 95, 22, -143, -46, -31, 22, -51, -16, -38, 64, -20, 33, 28, 4, -63, -84, -135, 7, 9, 30, -7, 71, -30, -70, -75, 33, -47, 29, -100, 35, 39, -57, -45, -64, -15, 54, 12, 89, -70, 4, 15, 11, 70, -25, -26, -78, -89, -44, 20, -40, -59, -75, 2, -12, 13, -72, 11, 23, 34, -118, -14, -135, -50, 27, 61, -23, -60, 33, -106, -31, -96, -55, 13, 60, 21, -82, -49, 37, -39, 14, 37, 120, 47, -30, -67, 33, -57, -3, -51, 23, 43, -31, -91, 27, 66, -65, 78, -7, -52, -14, -19, 12, 61}
, {5, -89, 136, 10, 34, -38, -30, -86, 13, -15, -20, -64, -69, 18, 71, -57, -97, 29, 90, 53, 35, -63, -74, -25, 13, -5, 41, -120, -9, -35, -48, 24, -78, -59, -85, 11, -4, 102, 34, 28, -33, 3, -154, 27, -32, -9, 27, -7, 8, 16, -25, -70, 9, -178, 19, 42, -136, -41, 34, -48, -202, 18, -27, -108, 7, -4, -34, -19, -60, -41, -6, -106, -78, -86, 34, -133, -85, -36, 19, -28, 4, 23, 25, -96, 4, -107, 35, 12, 19, -83, 7, -41, 21, -57, -43, -70, 13, 10, 46, 28, -61, -184, -124, -31, -199, 19, 13, 0, 41, -39, -262, -54, 92, 0, -10, 2, -92, 18, 49, -31, -67, -86, -78, -143, 23, -65, 22, -149, -7, -44, -59, 9, 52, -39, -12, 40, 29, -34, 48, 49, 68, -57, 19, -80, 45, -24, -76, 64, -17, -3, -86, -10, -4, -52, 8, 73, -145, -80, 41, 43, 103, 59, 22, 60, -82, -24, 2, 102, 3, 14, -22, -42, -64, -38, -50, -71, -31, -24, -25, -83, -123, 68, 7, 66, 15, 75, 30, 30, -15, 28, -109, 15, -130, 54, 27, -46, -159, 70, -65, 9, -74, -32, 64, -89, -103, -31, 45, -6, -47, 80, 41, 91, -82, 43, -157, -36, -2, 58, -53, 43, 16, -13, -42, -23, -76, -164, 54, -45, -17, 9, 99, 14, -51, -66, 103, -101, -18, -17, 79, 66, 106, -114, 47, -16, -27, -111, 15, 40, 61, -81, -93, 10, -56, 60, 10, 96, -27, 44, -73, 30, -12, 86, 56, 38, 36, 30, -18, -11, 63, -126, 1, -74, 33, -58, -25, 44, 11, 0, 38, 12, 45, 73, -31, 17, -39, -60, -31, 25, 0, -34, 50, 34, -92, -98, -54, -97, -49, 2, 8, 50, -144, -23, 64, -68, -12, -17, -83, -22, -8, 26, -21, -41, 79, 33, -18, 6, -87, -98, 3, 52, 24, -117, 3, -70, -23, 13, 23, -17, 42, -19, 7, 54, 11, -27, 22, -35, -25, 164, 29, 7, -1, 22, -63, -39, -48, -83, -34, 65, -116, -13, -4, -6, -86, -35, 39, -86, -23, -103, 7, -25, -19, -81, 8, -119, -154, 71, -1, 41, 76, -8, 37, 6, 9, 119, -31, -7, 60, -1, 33, 23, -202, -13, 23, -34, 20, -7, 32, -103, -78, -38, 28, 31, -21, 31, -22, 51, -10, -23, -13, 45, 17, -9, -5, -34, -96, -9, 18, -35, 24, -7, -54, -82, 3, -46, -146, -46, -30, -82, -125, -37, 13, 87, 53, 66, 57, 26, 67, -28, 58, -37, 17, 39, 97, -32, -51, 4, 80, 12, -7, -71, -133, 98, 23, -47, 63, -93, 97, 4, 88, -19, -22, 67, 61, -102, -42, 70, 79, 27, -46, 31, -26, 18, 12, 5, 47, 63, -14, -17, -19, 12, -14, 120, -82, 41, 58, 3, -18, 53, 3, 87, -87, 115, 53, 0, -97, -3, -47, -46, 4, 21, -38, 34, 11, 94, 4, -105, 37, 3, 62, 22, 43, 54, 59, -141, 13, -14, 51, 10, 22, 38, -45, 33}
, {39, 13, -23, -33, 80, -32, 55, -1, 29, 0, -22, -54, -88, 8, -6, -25, -13, 15, 23, 33, 47, 69, 43, 54, 18, -15, -9, 43, -50, 32, -77, 110, -69, 15, 79, -58, 40, -38, -36, 30, 128, -26, -20, -36, -19, -32, -13, -78, 24, -15, 35, -61, 24, -19, 44, 11, 46, 27, 72, 58, -30, 60, -23, -11, -6, 23, 3, 46, 9, 10, -9, 44, -143, -92, -46, -24, 9, 5, -18, 38, 8, -8, -32, -10, 43, 61, -55, 13, 133, -69, 43, -19, 18, -34, -30, -22, 49, -32, 30, 35, -41, 37, -55, -36, -79, -2, -27, 38, -34, -39, -91, -67, 38, 59, 24, 4, -33, 3, 40, 10, -40, -7, -36, 60, -93, -30, 47, -59, -11, -52, -58, 25, 52, -85, -67, -52, 10, -35, -4, -28, 111, -49, -28, -254, 38, -11, 22, -18, -34, -3, -111, 29, 96, 35, 30, -26, -2, -45, 6, 5, 38, 37, 70, 15, -115, -47, -44, 100, -2, -2, 7, 21, -111, -44, 13, -41, -20, -104, -24, -30, 30, 9, 29, -14, -12, 2, 98, -21, -30, -48, -224, 59, -94, 45, -42, -87, -120, 39, -18, 113, -98, -23, -80, 9, -11, 110, 26, 21, 25, -35, 66, 77, -99, 46, -75, -146, 78, -93, -211, 41, -75, -103, -47, 48, 42, -119, -41, -11, 73, 18, -19, 44, 14, -236, -81, -181, -25, -77, 84, 66, 46, 15, -68, -12, -17, -41, 62, -29, -96, 110, -178, 29, 31, 16, -64, 33, -60, 6, 15, -29, 26, 10, -48, 13, 28, -23, 5, -4, -7, 33, -10, 1, -50, -11, -33, -35, 5, -47, 34, -65, 25, 4, -62, -31, -2, -35, -4, 35, -3, -10, -37, 38, -30, 3, 42, -7, -38, 4, 18, -13, -98, -64, -15, -56, -1, 11, 26, -67, 0, -41, -42, 50, 34, 53, -70, 31, 21, -8, -2, 42, -26, 11, -17, -28, -16, -9, -13, 9, 153, 22, -35, 13, -4, 38, 40, -66, -65, 13, -49, -112, 25, -48, -3, 16, -19, 38, 95, 49, 23, -10, -107, 56, -27, 75, 7, -72, -31, -34, -105, 30, 50, 82, 41, -48, 5, 48, 4, 33, 53, -10, 2, -20, 121, 4, -42, 25, -18, -20, 33, 35, 12, -37, 31, 88, -52, -20, 43, -90, -23, -65, 98, 18, -78, -59, 11, 129, 84, -27, 9, 23, -8, -58, -58, 20, -41, -127, -32, -56, 70, 26, 2, -7, 26, -68, -131, -33, -108, -170, -12, -34, 181, 3, 28, 47, -65, -16, 27, -71, 60, 28, 110, 15, 55, -97, -58, 9, 0, -24, 19, 70, -107, -123, 5, -28, -22, -73, 112, -42, 55, -21, 19, 56, 13, 6, -52, -10, 38, -50, 13, -24, -3, -25, -3, -50, -74, 90, -56, -18, 32, -146, 36, 7, 18, 13, -57, -118, -53, 25, -67, -7, -93, -75, 25, -8, -136, -92, 82, -109, -23, 20, 5, 81, 96, -66, -63, -79, 85, 2, 0, 2, 24, 63, 50, 33, -65, -122, -33, 37, 73, 30, 49, 84}
, {-29, -14, -199, 120, -31, -37, -5, 2, 67, 25, -37, -16, 43, -7, 33, 34, 18, 68, 10, -64, 48, 45, 148, -48, 49, 96, -5, 94, 12, -45, -19, -5, -42, 41, 86, -10, -38, -55, 30, -21, 55, 44, -160, -54, 6, -19, -29, 20, -64, 39, 31, -24, -5, -69, -49, -21, 7, -9, -28, 76, -11, 96, 9, -48, 38, -52, -59, -26, 17, 83, 68, 0, -106, -67, -138, -77, 52, -130, 112, 94, -15, -65, 42, 54, 122, 13, -45, -71, 21, -65, 28, -47, -108, 3, -28, -13, 23, -76, 60, 24, -13, 39, 39, 39, -81, -66, 13, -10, 18, 39, 19, 115, 64, 138, 9, -28, -11, -8, -10, 84, 5, 9, 17, -35, 48, -50, 69, 50, -65, 56, -65, -9, -39, 86, -81, 26, 52, -20, 33, -22, 80, 81, -7, -77, 81, 38, -3, 65, 47, -75, 4, -68, 101, 126, 10, 80, -100, 0, -47, 42, -54, -27, -9, -107, 53, -73, 23, 66, -34, 20, -101, 95, -120, 42, -83, -102, -44, -9, -93, 94, 50, -2, -34, 1, 59, -103, 184, -49, -111, 17, -46, 41, -72, -16, -56, -60, 9, 90, 42, 35, -93, -88, -6, -13, -39, 22, -1, -7, -73, -21, 36, 41, 40, 17, 106, -125, -39, -42, -35, -37, -71, 54, -2, -9, -116, 8, -23, 8, -69, -2, 40, -47, -83, -1, 23, 12, 7, -27, -67, 8, -28, 56, -36, 46, -54, -73, -27, 49, -28, -93, -121, 55, 12, 10, -19, -79, -43, 87, 133, -106, -66, 72, -17, -1, -73, -33, -26, 13, 28, -6, -90, 7, 58, -52, -48, 53, -24, -81, -34, 61, -72, 32, 16, -37, 81, -95, -39, -41, 6, -96, -66, 42, -6, 73, 74, -11, 0, -36, 61, -60, 131, -108, 43, 37, -19, -28, 12, -35, 114, -42, 105, 11, -92, 161, 39, -41, -83, -56, -84, -39, 44, -15, 13, 24, -28, 13, -67, -100, -15, 69, 100, 17, -64, 1, -72, -56, 46, 87, 13, 10, -51, -8, 3, 17, -11, 21, -92, -28, 91, -112, 52, -61, -10, -7, 78, 66, 61, 56, -19, 35, 16, 59, -97, -105, 50, -127, -24, -137, -25, 51, -47, -39, -157, -72, 36, 8, 66, -34, -117, -9, -41, -102, -50, 10, -8, -80, 8, -10, 28, -101, 6, -17, -7, 49, 20, -47, 44, 4, 2, -7, -2, 22, -3, -127, 4, 28, -74, -78, -98, -54, -66, 39, -6, -45, 21, -77, 22, 79, 85, -27, -69, 53, 17, -69, 29, -124, 27, 30, 16, -45, 18, -28, -60, -98, 32, -50, -11, -60, -34, 25, 93, 19, -62, 1, 29, 27, 7, -45, -21, -42, 41, 79, -78, 68, -57, 0, -63, 33, -39, 1, 11, 20, 122, -3, 31, 3, -88, 104, -29, 0, -37, -42, 62, -22, -107, 36, 12, 24, -4, -54, -99, -61, 53, -95, 76, -13, 25, -1, 21, 13, 56, 18, -35, 8, 44, 60, -16, -106, -92, 11, 26, 87, -82, 121, -66, 44, -5, 56, -72, 92, -57, -27}
, {-40, 18, -7, 15, -74, -8, -26, 39, 47, 81, -29, 48, 19, -4, -8, 74, -21, -16, -29, 24, -68, 78, -56, 13, 29, 7, 56, 29, -1, 24, 24, -35, 21, -23, -3, -15, -101, -82, -75, -32, 46, -44, -5, -2, -74, -25, -4, -47, -47, -25, -36, -18, -30, 5, -56, -8, -31, -32, 29, -12, 90, -91, 30, 26, -10, 2, -110, 70, -26, 27, 13, 5, 41, -7, -108, 92, 45, -12, 39, 71, 82, -42, -17, 26, -35, 61, 73, -50, 44, -36, -61, -31, -7, 10, -9, 62, -61, -2, 12, 5, 14, 66, -22, -53, 110, -59, -73, -10, 16, 36, 177, -1, -48, 13, -78, -35, 40, 30, -142, 16, -16, 62, 20, -14, -26, -41, -21, 65, 61, -91, 46, -27, -86, 107, -26, -102, 32, 36, -4, -92, -47, 77, -22, 86, -52, -5, 3, -86, -102, -5, 0, -38, -73, -30, -108, -84, 49, 4, -115, 9, 2, -18, -7, -13, -30, -62, -76, -106, 79, -53, -63, -127, 88, 9, -32, 95, -43, -22, 38, 43, 85, 44, -5, -74, 52, -28, -56, -22, 80, -53, 117, -25, 115, -37, 41, 69, 45, -47, 8, -158, 81, 19, -128, -126, 25, -5, 15, -7, 63, -12, -23, 38, -17, -86, 47, 41, -38, 0, -13, -72, 11, 49, 9, 98, 91, 130, -18, 39, -99, -68, -89, -34, -55, 95, -9, 55, 25, 68, -1, -63, -65, -46, -78, -54, 14, 135, 41, -25, -71, -20, 77, -31, -21, -109, -40, -37, -57, -10, -4, 25, 15, 17, -11, 27, -48, -2, 6, 48, -41, -36, -35, -54, -39, 17, -84, 14, -4, -43, -78, -68, -88, 88, -115, 31, -41, -28, 19, -59, -69, 52, -76, 77, 29, 26, -114, 45, -67, -70, 64, 11, -19, 5, -11, -74, -34, 5, -121, 28, -88, 57, -119, -80, -50, -82, -6, -129, -7, -71, -16, -28, 19, 17, -61, -12, 79, -5, -147, 26, -79, 10, -30, 64, -124, 119, 50, -2, -13, 23, 69, -39, -139, 26, -133, -4, 31, 13, -53, -7, -121, -12, -29, 39, -43, -61, 50, 2, -6, 20, 2, -45, 52, -50, -14, -45, -74, -70, 36, -39, -66, -29, 3, -26, -67, -79, -81, 63, 20, 4, -22, -20, -121, 77, -86, -29, 37, -10, 47, -84, -167, -10, -32, -157, -28, 22, 15, -7, -65, -44, -18, -8, 24, -40, 74, -119, -69, -34, -85, 44, 34, 32, -26, -24, 10, -43, 125, -55, 108, 43, -5, -13, -86, -133, -21, -7, -24, -82, 17, 12, 40, -31, 0, 3, -16, 10, 35, 20, -83, 0, 61, 1, -66, 8, 26, 31, 51, 89, -55, 43, -114, 45, -21, -17, -48, -37, -63, -135, -32, -8, -59, -27, -12, -15, 23, 101, -10, 45, 28, -18, -83, 0, -40, 20, -19, 64, 28, -46, 2, -72, -34, 8, -64, -45, 5, -25, -58, 58, -80, 27, -5, -116, 2, -31, 51, 5, 56, 59, -40, -83, -28, -41, -71, -1, -11, -3, -9, -37, 7, -57, -7, -111, -22, -8}
, {57, 65, -21, -29, 78, 92, -29, 28, -64, -26, -42, 32, -28, -36, 56, -15, 18, -76, -19, -27, -33, -27, -26, 4, -11, -5, -10, 12, 113, 40, 81, 22, -2, 41, -82, 18, 34, -12, -23, -39, 1, 29, 92, -21, 96, 25, 76, 44, -2, 34, 23, 37, -7, -51, -24, 40, -17, 71, 81, -59, -7, 57, 21, -23, -20, -60, 10, -63, 93, -7, 76, -17, -27, 83, 40, 10, 76, 41, -28, -18, -6, 46, 7, 45, 100, -43, -34, 4, -62, 60, -9, 43, -81, 3, -7, -97, 13, -50, 12, 30, 19, 26, 23, 37, -26, -2, -6, -20, 6, -55, -24, 103, -43, -38, -19, 36, -1, -2, -12, 5, -16, 20, 9, 1, -81, 7, -33, -51, 14, -55, -68, -41, -27, -14, -106, -90, -20, -43, -39, -50, -25, -71, -103, -7, -20, -18, 14, -16, -1, 1, -124, -84, -59, 37, -102, -19, -10, 19, -2, 72, -5, 33, 28, 45, -7, -10, -47, -12, 62, 41, 74, 40, -20, -26, 44, 40, 53, -99, 39, -65, -13, 126, -37, -32, 49, 88, 4, -84, 18, -62, 12, 59, -52, -76, -43, 20, -65, -2, 28, 23, 3, 11, -94, 26, -59, -54, 130, -74, 21, -25, 30, -10, -46, 10, -73, -27, -56, -8, -4, -43, 63, -103, -64, -11, 26, -111, -79, -11, 24, 35, -30, 114, 36, -63, 21, -131, -69, -73, 55, 49, 35, -77, -95, -32, -50, -80, -42, -63, -2, 87, -49, -48, -9, -79, -155, 13, 20, -82, -32, -17, 18, 3, 22, -52, -67, 10, -6, -76, -57, 46, 91, 7, -48, 44, 15, -49, -43, 105, -11, -15, -12, -125, 46, -107, 26, 70, 2, -15, -35, 45, -24, -50, 5, 28, 31, 21, 105, -26, -95, -89, 16, -17, -127, 38, 92, -16, 76, -45, -37, -79, 80, 60, -82, 17, -58, 79, 60, 82, -28, 52, 72, 85, 17, 68, -37, -98, 35, -72, 40, -81, 1, -88, 80, 49, -16, -40, -55, 19, -41, -16, 107, -65, -46, 23, 44, -27, -31, 63, 5, -6, -20, -88, 59, -95, 38, 5, -37, 38, -11, 63, -69, 79, -32, 8, 118, -19, 79, 22, 41, -101, 4, 62, 17, -5, 37, -80, 40, -103, -4, 61, 9, -37, 49, -77, 81, -16, -68, 16, -37, 19, -73, 55, -56, -58, 60, -85, -26, 76, 5, 30, -70, -3, -67, -115, 9, 13, -7, 29, 11, 39, -81, 32, 36, -44, 53, 84, 42, -62, -21, -122, 84, -56, -33, 4, -147, -29, -104, -117, -1, -26, -87, 41, 39, -3, -12, -60, 52, 79, -32, -16, 46, -67, 40, 59, -23, 31, -21, 71, 46, 3, 11, -4, 56, 29, 79, -14, 27, -25, -26, -17, -31, -79, 158, -30, -6, -126, -22, 58, 14, -108, 39, -46, 27, -142, -154, -57, -81, 2, -39, -107, 64, 30, -80, 30, -93, -35, 65, 11, -80, 14, -21, 64, -108, 14, -129, 99, -72, 44, 44, 33, 46, 57, 55, -20, 34, -79, 13, -131, 80, -43, -89, -57}
, {-18, 121, -188, 42, 37, -44, -41, 42, 11, -101, -11, 23, -2, -62, -17, -109, -3, 1, 16, 16, -18, 75, 125, 68, -34, -47, 30, 56, -4, -68, 77, 5, 87, -35, 11, 73, -43, -167, -9, 54, -5, 7, -13, -6, -83, 5, 115, -46, -28, 31, 45, 15, 29, 8, 0, 15, 17, 36, 46, -13, 47, 14, -30, -6, -8, 90, 21, -16, -10, -22, 40, 36, 14, 21, -44, 18, -24, 40, 29, 6, -90, 1, -12, 30, 41, -9, -71, -119, 74, 74, 0, -47, -139, 4, -30, -35, 49, -70, -39, -89, 20, 116, -5, -16, 57, -27, 7, 23, -58, -10, 26, 38, -19, 10, 9, 9, 88, -44, -7, 3, 78, 42, 48, 27, -32, -55, -75, 9, -65, 26, -108, -11, 13, -12, -57, -20, 3, 8, -30, -7, 16, -67, -1, 1, 38, 25, -21, 61, 71, -16, -53, 55, -21, 69, 17, 25, -9, 33, -42, 4, 6, 1, -72, 18, -31, 22, 49, -34, -21, -7, -1, 56, -2, 30, -75, 13, -44, 74, 24, -9, 97, -72, 27, 28, -56, 18, 110, 70, 23, -48, 18, 44, -5, -67, 4, -3, 12, -21, -12, -41, 33, -19, -20, 21, 12, -20, -23, 68, -6, -104, 14, -30, 53, 32, 0, -92, -22, 37, -114, -17, 5, -58, -7, -39, -19, 45, 54, -25, 41, -30, 12, 14, -16, -62, 8, 19, 64, -98, 23, -53, 11, 55, -22, 33, -24, -6, 39, 18, -57, 9, -104, -90, -10, -11, -14, -5, -2, -42, 92, -131, -41, -2, -10, -109, -73, -6, -29, -91, -2, -6, 3, 16, -14, 5, -20, -88, 67, -38, -65, 26, 102, -120, 44, -106, 116, -64, -34, -86, -97, 12, -46, -104, 62, 75, 110, 13, 20, 49, 19, -3, 22, 29, 63, 34, 62, -129, 36, 22, 30, -113, 77, 1, -50, 56, -110, -13, -8, 27, -20, 5, 28, -6, 36, 5, -121, 16, 44, -10, 27, 48, 24, -75, 57, -26, 52, -73, -3, -42, -2, -175, 44, -19, 41, 42, -19, -3, 27, -28, 88, -121, -22, 55, 124, -36, 99, 71, -110, 26, -138, -13, 40, 127, -68, -45, 120, -116, -46, -37, 16, -28, 46, -17, 0, -23, 104, -52, 18, -7, 1, -17, 61, -104, -25, -30, 75, -14, -101, 89, 54, 46, 5, 13, -29, 5, 34, -90, 46, 38, 9, -68, -60, -32, -34, 59, 87, 56, -49, 4, -5, -48, 85, -52, 27, 35, -57, -63, -75, 59, 87, 39, -33, -75, 34, -3, -16, -10, -8, 47, -56, 29, -129, -63, 26, -71, 5, -76, -32, 7, -53, 43, 88, -80, -158, 24, 57, 52, -42, -10, 31, -19, 70, 59, 4, 61, 36, 141, 1, -23, 21, -56, 83, -35, -89, -26, -19, 7, 18, -71, 47, 22, 30, -63, 25, -42, -53, -16, 13, 9, -68, -72, 27, -83, 66, -23, 85, -72, -7, 47, -43, 22, 41, -36, -106, -44, -37, 43, -40, -67, 1, -5, 59, 1, -40, 43, 29, -10, -30, 73, -61, -34, 38, -25}
, {-17, -102, -71, 56, 84, 20, 36, -2, 20, -7, 12, 16, -8, -49, 50, 39, -92, -11, 8, -30, 28, 110, 85, 8, 24, -13, 45, -20, -19, -8, 68, -20, 69, -19, -55, -8, 70, -146, 13, 79, -20, -28, -38, -95, 37, 51, -38, 6, 1, -28, -28, 33, 52, -82, 9, 57, -43, -79, -73, -5, 64, 2, 44, -69, 37, -54, -50, 40, -32, -66, -62, 6, 61, -9, -25, -44, 25, -26, 54, -18, -113, -37, -39, 33, 97, -84, 39, 98, -57, -44, 52, 3, 60, -38, -21, -5, -5, -41, 14, -33, -9, 22, -108, -22, 21, 76, 68, 25, 13, 33, 71, -2, 25, -31, 12, 28, 46, 20, -10, -64, -54, -72, 72, -23, 19, 82, 12, -53, -100, 42, 98, -90, 48, 55, 31, 5, 25, 14, 2, 16, -26, 5, 12, 89, -19, 8, -28, 15, 18, -33, 83, 0, -99, 38, 34, -11, 13, -2, -1, -106, -29, -75, -15, 27, 59, 84, 13, 30, 24, 18, 7, -29, 30, 21, 45, 17, -1, 100, 73, -96, 24, -9, -94, 75, -47, 32, -217, -16, -6, 14, 102, -61, 56, -28, -21, -52, 102, -33, -16, -53, -84, 39, 123, 39, -51, 11, 75, 34, -55, 0, -71, -113, 57, 21, 141, 74, -79, -7, 42, -70, 31, -37, -19, 54, 41, -2, -68, 15, 53, 4, -47, -56, 62, 120, 69, -2, -43, 22, -17, -11, -34, -21, -67, 20, 124, 86, 4, -10, 26, -8, 52, -43, 45, 0, 17, -27, 2, -80, -35, 14, 14, 50, 51, -126, 26, 64, -36, -82, 16, -32, -25, -28, 27, -132, 16, -6, 30, -28, 11, 23, 17, -87, 48, -120, -30, -119, 83, 5, -49, 34, 6, 71, -132, 30, -40, -88, -66, 32, 79, -23, 68, -73, -65, 64, -63, -86, -4, 68, 51, -14, 1, -67, -14, 111, -46, -57, -3, -70, 58, 24, 61, -93, 46, 17, -125, 18, -89, -6, 15, 82, -100, -110, -81, 37, 46, -124, 101, 28, 70, -57, 33, 69, -6, -140, -44, -25, 0, -23, 71, -111, 74, 2, 71, 6, 10, -3, -75, -1, -148, 16, 36, 7, -38, -9, -90, 83, -97, -57, -39, -20, -4, -45, -61, 63, 23, 23, -72, 73, 53, -75, 31, -100, 22, 9, -11, -55, 6, 63, -33, 88, -21, -100, 14, 18, 13, -28, 9, -88, 3, -120, -6, 13, -28, 107, 58, 25, -59, 58, -59, 42, 77, -28, 27, 37, 81, -69, 61, 43, 2, 24, -93, -72, -46, -69, -28, 28, -73, 61, -53, 20, -1, 27, -23, -19, 66, -27, -78, -49, -81, 13, 71, -73, -78, 52, -66, 13, -132, 72, -103, -24, -47, 38, -47, 17, 55, -77, -45, 7, 59, 11, -14, 11, 20, 36, -42, -66, 96, 58, 12, -9, -26, -92, -12, -12, -17, -46, 50, -9, -107, -100, 43, -35, 3, 0, 20, -57, -21, -61, 1, -45, 98, -25, -61, -38, 41, 33, -14, -140, -21, -55, -46, -53, -36, 64, 36, 12, -72, 77, -69, -72, 63, 47}
, {-23, 50, -12, -65, 50, 14, 45, -12, -74, -74, 18, 4, 42, 31, -38, 28, -52, -52, 25, 94, -15, -16, -15, 9, -55, -145, 33, -26, -62, 24, 25, -119, -46, -25, -3, 72, 29, 39, 4, 10, -81, 32, 117, 2, -8, -18, -48, -18, 46, -14, -27, 3, -35, -11, -5, 65, -89, -53, -13, -34, -27, -16, 32, 73, -60, 39, -80, 89, -28, -67, -46, 38, -66, -5, 11, -17, 3, 50, -22, -70, 21, 111, -66, -56, 38, -52, 31, -5, 40, -4, -32, 94, 84, -65, -110, -32, -13, -22, 106, -107, -74, 1, 76, 35, 46, 21, 21, -20, -8, -88, -214, -54, -26, -27, 11, -13, 38, 26, 47, -29, 79, 21, 22, 85, 22, 23, 14, -62, 2, 23, -34, 9, 42, -79, 1, 18, -17, 57, -11, 16, -25, -89, 5, -52, 11, 82, -72, -50, -79, -24, -10, 101, -14, -98, -73, -35, 29, -72, 49, 0, 39, 76, -28, 4, -90, -67, 45, -44, -18, -15, 93, -12, -57, 9, -24, -53, 31, 43, 57, 0, -97, 24, 2, -78, -34, -77, 25, -31, 8, 40, -75, 29, -102, -26, -38, 70, -28, -79, -55, 37, 47, 90, 10, 27, -39, 69, 61, 7, 3, -11, 30, 83, -41, 9, -48, -112, 59, 14, -121, -7, 69, -44, 26, 32, -15, 15, 67, 66, -35, 58, -62, 55, -11, -53, -1, -54, 145, -16, 74, 45, -7, 13, -91, -31, 105, 12, 27, -54, -13, 71, -3, -14, -59, 87, -16, 12, -31, -39, -145, 52, -57, -40, 5, 29, 33, 27, -31, -25, 29, -120, 16, -102, -43, 26, 95, -45, -51, 85, 16, -11, 58, -55, -25, -43, 40, 4, 15, 47, -42, 1, 27, -81, -58, -131, 40, 71, -52, -72, -22, -20, -87, 43, -73, -11, 22, -27, 53, -5, -27, -66, -31, -7, 0, -125, -74, 60, 106, 40, 2, -44, 80, -127, 40, -33, 33, 3, 72, -9, 18, -17, -134, 5, 75, -23, -53, -7, -85, -27, 50, -104, 124, 22, -20, 44, 5, -30, 114, 52, -177, 74, -104, -10, 15, 32, -36, -75, -10, -99, -37, 60, -99, -56, -88, -5, -9, 80, 5, 13, 93, -72, 55, 30, -9, -4, 18, -24, -24, 21, 64, -21, -48, -99, 67, -23, 30, 61, 19, 11, 28, 28, 17, 31, 109, -39, -9, 53, -30, 66, 40, 11, 15, 42, -55, 37, -1, -12, -14, 8, 100, -2, -67, 23, -4, 78, -57, 36, 29, -40, -39, -13, 130, 20, 2, 2, -3, 133, -4, -96, 13, 5, 71, 38, 102, -16, 42, -64, -4, 106, -14, -110, 7, -26, 41, -31, -12, -74, 14, 51, -29, 9, -51, -53, 69, -52, 39, 161, 16, -65, 13, 11, 70, 12, -12, -14, -57, 58, 23, -86, 109, 43, 81, 56, -90, -25, -85, -94, 6, 65, 24, -20, 63, -44, -37, 61, -189, 64, 72, -19, -25, 31, -15, 28, -42, 58, 0, 45, 22, 159, 24, 41, -81, 26, -39, -85, 44, 63, -43, -65, 54, -70, -2, 28}
, {4, -44, -22, -10, -26, -99, -10, -74, 26, -24, -36, 37, 0, -35, -7, -76, 100, 25, 39, 12, -13, 7, -50, -23, 62, 9, 92, -13, 35, -41, -33, 26, -64, 31, -41, 15, -57, 23, 12, -30, 54, -46, 90, 3, 4, 5, 45, 71, 24, -26, -31, 90, -19, -16, 58, 95, -74, -26, -51, 20, -3, 45, -90, -22, 37, 63, 54, 1, -91, -45, 31, 14, -37, -10, -33, 32, -131, 123, 53, 22, 12, -30, 14, 25, -1, 79, -63, -79, 74, -50, -51, 11, -51, 28, 48, 59, 55, -149, -84, -5, 3, 15, -47, 52, -30, -69, 39, 55, 1, 7, -36, 16, 51, 59, -32, -3, -25, -43, -77, -61, -40, 1, 38, 88, 74, 29, 79, 4, -26, 3, -47, 10, -93, 7, -16, -11, -64, -88, -6, 50, -39, -34, -3, -22, 2, -41, -33, -37, -67, -17, 53, -75, 23, 56, -33, 98, 46, -60, 17, -22, 10, -9, -72, 101, -31, 30, 31, 37, -89, -14, 39, -37, -32, -62, 1, 5, -25, -39, -46, -30, 35, -60, -55, 21, 22, 39, 31, -76, -12, 2, 6, -64, -70, 5, 46, -4, 12, 11, -29, 30, 24, 45, 0, 40, -42, -18, 114, 22, -17, -19, -11, 14, 6, -6, -72, -17, 26, -37, 102, 55, 76, 86, -19, 67, 7, 57, -34, 45, 108, 47, 71, 72, -31, -45, 45, 39, 8, 79, 8, -78, 9, -36, 67, -38, -66, 1, -21, 0, 27, -11, -8, 76, 29, -7, 32, 25, -76, 26, -35, 68, 24, 26, 19, 112, 48, 19, -15, 28, -53, -3, -44, -29, -43, -64, -4, -13, -36, -90, 8, -99, -6, 83, 3, -3, 22, -81, 74, -33, 16, -13, 73, 8, -8, -62, -51, 19, -4, -3, 48, -33, 36, -23, -7, -12, -51, 40, 1, 19, -39, 10, -3, -27, -6, -130, 19, 1, -72, -58, -42, -38, 10, -10, -33, -96, 104, -41, -38, 79, -75, -76, 55, 20, 54, 28, 28, -21, -52, 8, -92, 36, 8, 59, -62, 15, 44, 8, -81, 66, -23, 23, -13, 67, -148, -36, -42, 21, -23, 33, 10, -33, 41, -100, -44, 18, -127, 2, 6, -48, 25, 137, -82, 3, -15, 22, -79, -12, 81, -41, -48, 22, -76, 24, -62, 94, 109, 67, -3, -25, 20, -6, -62, -49, 60, 61, -5, -76, 21, -26, -33, -22, 9, 28, -16, -6, -81, -24, -12, 5, 88, -32, 9, -16, -88, -58, -4, 72, 67, 93, 19, 27, 0, -8, -37, -12, 28, -70, -45, 29, -5, -48, -100, -119, 71, 19, -5, -28, -38, 3, -32, -52, -43, 68, 126, -23, -10, 128, 14, 66, -60, -19, -88, 48, 21, -65, 15, -20, -72, 4, -58, -10, -67, -14, -21, -41, 6, -95, 74, 77, 102, 74, -53, 2, 0, -42, 27, 25, -8, -15, 7, 120, -10, 42, -60, 25, 25, 14, -4, 9, -66, -43, -61, -61, 72, -44, 60, 62, -71, -67, -78, 4, 60, -6, -116, -98, -65, -52, -87, -33, -9, -33, -92, 51}
, {-17, -13, -57, -33, 35, -12, 59, 28, 26, -111, 12, 93, -23, -5, -1, 0, -5, -29, -70, -43, -12, -83, 37, 41, -89, -24, 31, 13, 5, -23, 31, -4, 35, 34, -20, -35, -33, -22, -27, 11, -77, -35, 105, -25, 36, 23, 59, 11, -34, 7, 0, -11, -33, 11, -2, 26, 15, 23, -40, -43, 96, -72, 83, -13, -11, -9, -11, 38, 6, -59, -48, -5, -29, 89, 59, 55, -38, 11, -29, -20, 75, 67, -9, 10, -67, 87, 0, -26, -26, 53, -17, -15, 32, 26, 25, -33, 31, -30, 147, 65, 21, 61, 76, 33, 38, 8, -8, -46, -27, -80, -48, -37, 72, -94, 19, -11, 168, -36, -30, 26, 52, 22, 43, 33, -36, -16, 20, 11, -137, 55, 21, 14, 21, -6, -109, 52, 15, -45, 43, 92, -12, 72, -47, -29, -39, 81, 14, -21, -111, -14, 55, -12, -86, 31, -48, 41, -8, -55, -37, 81, -30, 20, -26, 10, -95, -25, -71, -98, -16, -90, 48, -90, -61, -24, 97, -30, -34, 31, -16, -115, 38, 92, -103, -142, -5, 92, -47, -1, 44, -106, -45, -40, -77, -29, -64, -80, 71, 13, -25, 3, 51, 33, -41, 10, -10, 0, 35, -28, -10, -23, 26, 34, -82, -42, 74, -5, 19, 15, 1, -75, 63, 5, -64, 1, -59, 40, -25, -6, 67, 8, -44, -72, 81, 59, -1, 109, -60, -8, 115, -9, 83, 42, -163, 19, 38, -67, -53, -31, 16, 49, 33, -14, 9, 67, -102, 0, 17, -45, -7, -20, -22, 24, -32, -129, -112, -45, 32, -69, -47, -42, 63, 22, -52, 48, 54, 8, -10, 11, 39, -11, 98, -60, 7, -106, 24, 24, 21, -12, -82, -105, 59, -72, 64, 51, 33, -21, -20, 19, -91, -159, -17, 0, -47, 50, 37, 39, 35, -72, 5, 26, 61, 57, 54, -41, -117, -2, -18, 38, -26, 71, 23, -6, -41, 4, -41, -54, 2, -14, -101, -42, 12, -31, 19, -84, -65, 49, -133, -8, -80, -94, 30, -178, 79, 73, 0, -56, 33, -7, 13, -112, -75, -55, 50, -72, 0, -47, -154, -80, -130, 7, -68, 16, -8, -48, 63, 4, -50, 10, 22, -114, 42, -10, -51, -54, -9, -40, -81, -29, 19, -65, 1, 34, -16, -178, 30, 7, -105, 53, 37, 98, 8, 1, 36, -30, 14, -28, -17, 74, 24, -60, -12, 19, -57, -53, -4, 46, 28, 58, 70, -59, -23, -21, -37, 100, 16, 98, -78, -23, -24, -116, 78, -119, -17, -17, 84, 52, 5, -96, -18, 8, -81, -63, 129, 56, -32, -154, -19, 120, -61, 2, 70, 74, -39, 64, 11, 45, -108, 125, -74, 60, 8, -27, 29, 52, 154, 49, 19, -61, 73, -20, 51, -26, 34, 43, -54, -110, -64, -17, 45, 46, 62, -59, 50, -123, -36, 16, -150, 30, -71, -4, 121, 69, -112, -64, -52, -88, 2, 98, -105, -4, -54, 52, 26, 14, -106, 54, -85, 103, -43, 28, -53, 122, -18, -37, -72, -31, -14, -47, 72, 27, -6, -32}
, {-100, -8, 22, -10, 15, -16, -46, -28, -11, 165, -32, 43, -110, -6, -145, -3, 14, 20, 33, -81, -29, 69, -55, 77, -100, 89, -54, 28, 38, -21, 13, -56, 21, -51, -52, -19, -50, -54, -161, -56, 148, -65, 13, -24, -66, -94, 37, 39, -34, -34, 86, 8, -43, 15, 32, 20, -10, -36, 23, -57, 110, 19, -95, 92, -48, 33, 19, 16, 34, -66, 11, -56, 51, 11, -34, 55, 35, 39, -39, 31, 40, 89, 77, 26, -71, 38, -83, -30, -91, 53, -43, -25, 0, 66, 57, 40, -39, -64, 54, 51, 12, 43, 9, -26, 46, -34, -4, -36, -35, -103, 177, -2, -6, -31, -1, -8, 36, 38, -112, -104, -17, 30, -18, -76, -31, -10, 61, -88, 76, -146, -45, -14, -144, 72, 35, -11, -35, -44, -10, -35, -84, -53, -68, 106, 11, -109, 39, -46, -34, -28, -34, -34, -37, 32, -47, -31, -44, 29, -7, -8, -53, -65, -23, 42, -3, 21, -23, -87, 6, -24, 60, -82, 82, 27, 32, 71, -2, -23, -6, -34, 88, -65, -2, -48, 83, -24, -79, 6, -10, 23, 117, 28, 122, -40, 100, -36, 88, 2, -21, -34, 81, -2, -68, -62, 43, 21, -89, -5, 47, -7, -68, -105, 0, -90, 100, 46, -1, -48, -4, -42, -39, 60, 52, -34, 51, 51, -78, 45, -50, -86, 18, 0, -87, 47, -14, 47, -49, 56, -61, 34, 6, 64, 24, 37, -53, 49, 27, -69, -60, 8, 65, -14, 3, -160, 7, 37, 30, -33, 46, 41, 20, -5, -101, 12, 33, -36, 4, 46, 22, -8, -65, -47, 56, -60, -109, -80, -13, 57, -45, 13, -55, 61, 12, 32, -61, -16, 51, -31, 36, 69, 56, 19, -100, 12, -116, -35, 2, -41, 6, -5, -124, 11, -24, -107, -93, 45, -55, -26, -50, 51, -82, -32, 33, -95, 2, -8, -62, -60, 19, -20, -34, 5, -24, 23, 72, -1, 36, 64, -51, 28, -75, 18, -8, 61, -39, 32, 44, -24, -29, 51, -40, 31, -33, -62, 59, 12, -23, -75, 33, -103, 16, -23, 10, -28, 46, -85, 43, 16, -26, -75, 60, -57, 30, 51, -112, 22, -53, 66, -11, 35, -61, -1, -64, 44, -50, -3, -6, 24, -78, -37, -57, 54, -37, 57, -95, -44, 11, -74, -19, -41, 24, -29, 30, 17, -22, -20, -69, -26, -81, 45, 98, -52, -8, 13, 20, -66, -180, 72, -71, 32, 28, -62, -1, -44, 7, -16, 121, 139, 32, -21, -55, -88, -60, -35, 23, -89, 19, 42, 34, 1, 7, 62, -60, -8, 52, -2, 48, 43, 36, 32, -41, 145, 63, -62, -161, -37, 15, -13, -17, -27, -27, -17, -171, 4, -95, -98, -37, 42, -54, 16, -44, 42, 19, 80, 60, -45, -4, 54, -67, -9, -90, -28, 21, -50, -84, -86, 6, -16, 37, -3, -101, -112, -44, 60, 58, 18, 1, -43, -40, -87, 40, -40, 11, -120, -12, 28, 17, -91, -33, 3, -79, -77, 1, 86, -8, -6, -71, -30, 61, -80, 27, 28}
, {47, -55, 137, 24, -67, 48, 23, 6, -53, -81, 31, -59, -34, -61, -62, -11, -95, -37, -25, -62, -79, -22, 29, -104, -25, 58, -149, 3, -36, -116, -27, 38, -64, -77, -42, 49, -13, 147, -29, -62, -53, -36, -45, -113, -50, -16, 72, 36, -11, -57, -6, 53, -19, -103, -67, -150, 2, 27, 58, -52, -31, -58, -14, -129, 71, -119, -18, -50, 69, 53, 28, -110, 91, -10, 3, 7, -45, -122, 9, 36, -80, -45, 14, 17, 46, -134, -18, -28, -65, 107, -56, 35, -23, 49, -17, 22, -54, -12, -100, 1, -44, -83, 44, -10, -11, -15, -27, 13, -76, 33, 106, 21, 39, 61, 3, 28, -35, 44, -1, -26, -21, 37, -84, -33, -23, 7, -47, -74, -1, 7, 51, -16, -78, -65, 78, -36, 39, -74, 25, -8, 19, 71, 19, -2, 46, -6, 4, -1, 90, -2, 53, -60, -35, 132, -13, 4, -167, -21, 27, 59, 21, 4, 7, -21, 15, -80, 32, 94, -158, 40, -83, 139, 45, -28, -115, 11, -88, 10, -128, 31, 11, 84, 96, 98, -5, -40, 104, -73, -46, 19, -7, -17, 7, -9, -23, 101, 27, 44, -44, -5, -4, -69, 50, 68, -151, -95, 103, -70, -72, -3, -104, 26, 2, -19, -22, 42, -32, 48, 59, 11, -17, 14, -4, 4, -1, -35, -11, -107, 19, -31, 55, -51, -31, 50, -40, 119, 22, 53, -26, 10, -9, -36, 61, 33, -69, -77, 54, 67, 77, -188, 20, 64, 13, -64, -18, 78, -107, -55, -91, 4, -101, -83, -127, 45, -59, 87, -10, 25, 62, 47, 28, -3, 26, 27, -100, -56, -90, -70, -50, 26, 36, 46, -95, 45, -64, -65, -25, -71, 92, 28, 91, -80, 72, 25, -68, -5, 99, -52, -72, -92, 30, -20, 9, -70, -21, -57, -15, -71, -34, -24, -85, -95, 8, -32, 52, 8, -75, 41, -32, 27, -25, -14, -112, -7, 64, -42, -15, -57, -82, 1, -6, -54, 67, 62, 45, 6, 88, -28, -81, 75, -68, -2, 14, 51, 105, -53, -21, -29, -38, -111, 54, 70, -40, 28, -101, -18, -32, 20, 117, -55, -81, -34, -59, 31, 42, -76, 29, -26, -113, 30, -15, 13, -39, 68, -141, -44, -26, -38, -90, -61, -54, 10, -110, -46, 13, 41, -9, 17, -47, -112, 4, 55, 78, 58, -32, -37, -12, 43, 37, 20, -27, 22, -24, -136, -141, -18, -75, 33, 93, -66, -99, 28, 10, -46, -110, -121, 55, 16, -73, -37, -58, -6, -148, -55, 25, -137, 6, -9, -9, -1, 41, 50, -9, -5, -9, 82, 6, -41, 68, -18, -81, 56, 30, -4, -24, -8, -15, -52, 47, 36, -88, 107, 46, 85, -51, -60, 25, -25, 64, 19, 6, -46, -43, 33, 31, 79, -5, 131, 11, -13, 11, 34, 16, 0, 95, -2, 11, -17, 57, 99, -5, 2, 20, 14, 109, 38, 0, -1, -18, 43, -108, -36, 5, 2, 50, 30, -93, 36, 26, -26, 47, 25, 28, -98, -34, -10, 40, -15, 34, 95, 53, -66}
, {-116, -29, 42, -20, 15, -79, -58, -7, 9, 107, -2, 65, -119, 46, -94, -37, 30, 31, -56, -16, -132, -43, -54, 27, -111, 30, -42, 29, 116, -51, -11, -37, -23, -102, -86, -67, -63, 25, -30, -68, 23, -23, -39, 46, -48, 7, 88, -26, -85, 78, -17, 16, -41, 3, -21, -51, -22, 51, 1, -2, 16, -120, 40, 1, -10, -66, 17, 10, 33, -94, -72, -66, 97, 131, 54, 2, -26, 27, -173, 69, 139, 17, -82, 51, 11, -6, -12, 51, -19, 45, -32, -69, -6, 86, 121, 70, -7, 33, -5, 2, -6, 110, 70, -9, 100, 26, -65, -37, -69, -1, 236, -4, -52, -53, -28, -16, -5, 21, -118, -47, 79, 34, -80, 15, 37, -26, -64, -58, -62, -103, 34, -28, -94, 23, 38, -87, -83, -2, -39, -77, -90, -28, -133, 12, -89, -43, 8, -90, -45, 3, -51, -38, -65, 51, -83, -120, 19, 22, -34, 8, -25, -52, -27, 17, 63, 60, -17, -124, 22, -59, 86, -68, -19, -53, 69, 88, -82, -56, 62, -47, 61, 33, -16, -77, -5, 16, -132, -31, 120, -78, 39, -56, 112, -79, 110, -35, 53, -65, -37, -99, 93, 55, -113, -49, 14, -9, 44, -6, 56, 23, -19, -20, -65, -33, 0, 92, -40, 9, 99, -133, 35, 2, -1, -40, -38, 66, -5, 13, -72, -69, 32, -24, 7, 72, -7, -20, -118, 47, 46, -13, 42, -17, -46, -9, 34, 57, -23, 21, -60, 86, 35, 5, -91, -89, 93, 57, -40, -54, -76, 31, -20, -16, -61, 39, 25, -53, 1, 17, -97, -13, 33, -35, 15, -29, -133, 62, 44, 0, -51, -36, 90, -18, 24, 7, 47, 60, 24, -36, -12, 67, 42, 25, -60, -53, 1, 10, 29, 1, 31, -32, 22, 120, 23, -40, 66, 0, 34, 58, -53, 77, 50, -16, 36, 75, -12, -3, 78, -17, 25, 89, -41, 26, -30, 37, -31, -24, 41, 90, -3, 15, -9, 23, 25, -9, 60, 37, 92, 11, -1, 65, 2, -6, -63, -67, 5, -32, 2, -2, 80, 23, -1, -6, -32, -77, 92, -57, 51, 66, -64, 97, 85, 65, -13, -23, 28, -63, -34, 24, -36, 15, -40, -28, -32, -61, 99, -13, 41, -9, -26, 0, 83, 91, 33, -8, -47, -37, -16, -13, 4, 41, -12, 18, 5, -22, -23, -85, 19, -40, -76, -5, -18, -72, 23, 11, 80, -121, -38, -11, 102, 139, 80, 36, -34, -47, -8, 90, 59, -53, 54, -47, 27, -105, -52, 2, -54, -126, -36, 60, -55, -34, -52, -37, 36, -11, -68, 4, 59, 75, -38, -5, 1, -38, -89, 15, -108, -21, 51, 54, -75, 58, -92, -36, 35, 69, 16, 34, 2, -20, -108, 35, -49, 5, 20, 4, 33, -57, 24, 32, 3, 14, 0, -101, 34, -77, -58, -32, 4, -27, -43, 45, -26, -4, -29, 34, -31, 46, 45, -1, -40, -32, -7, -16, 4, -69, -13, 0, 37, 35, 18, -8, -79, -51, 74, 6, -87, -10, -134, -5, 23, 30, -21, 58}
, {52, -73, -63, -17, -3, 26, -16, -59, 3, -58, 46, -19, -53, -24, 8, -7, 7, -56, 7, -47, -13, -20, -56, -11, -17, 40, 21, 22, -31, 55, 28, 48, 13, 28, -21, -7, -14, -10, 23, 52, 61, 9, -29, -27, -37, 30, 17, 35, -19, 4, 59, -23, -3, 22, -35, 35, -26, 53, -34, 20, -8, 36, -42, 59, 32, 6, -11, 61, -4, -1, -13, 14, -37, -49, -11, -20, 48, 30, -41, 3, 33, 41, 30, -62, -43, -62, -33, -26, -103, -39, 29, 87, -9, -18, -2, -60, 15, -62, -19, -34, -33, 83, -104, 68, 67, -33, -13, -63, -32, 84, 57, 17, -38, -88, 8, 23, 16, -14, -43, 23, -21, 21, 31, -47, -27, 1, -65, -78, 82, 10, 36, -29, 14, 85, -49, -26, 49, -3, -36, 49, -68, -46, 8, 40, 10, 39, -64, 7, 47, -77, 12, 12, -28, -77, 16, 17, 2, 77, -26, -1, -64, 1, -12, -62, -28, -43, -123, -15, 24, 11, -84, -20, -11, 26, -85, 71, 22, -48, 46, -64, -108, -36, -42, -32, -4, -5, -148, 67, -41, 41, 25, 11, 14, -28, 18, -36, -31, 27, 16, -11, -109, -4, 35, 47, 81, 98, 96, 80, 73, -61, -40, -40, 59, -18, 20, -19, -45, 10, 54, -45, -65, 85, -46, -15, 18, -50, -80, 48, -24, -4, -20, -12, -19, 43, -36, 0, -15, 16, -46, 3, -45, -9, -25, 50, -18, -10, -21, 18, -2, -37, 53, -14, -7, -36, -43, -27, -116, -18, -2, 121, -14, -19, -48, 88, 16, -23, 21, 71, -64, 15, -56, 44, 153, -24, 0, 31, -4, -40, -102, 24, -76, 11, 19, 103, -74, -65, 3, -117, 58, 38, 114, -99, -7, -118, -20, -67, -44, -11, -4, 109, 6, -45, 31, -67, -65, 38, -89, 23, 70, -64, -81, 16, -83, -40, 115, 16, -21, -113, 47, -23, -86, -53, -120, 60, 28, 5, 38, 21, -89, 70, -33, 19, 30, 123, 70, 35, 89, -18, -10, 113, -23, 109, -51, 18, 48, -76, -58, -44, -104, -1, 145, 50, 17, -73, -64, -29, 35, 49, 11, -79, 31, 28, 12, -28, -13, -127, 84, -7, -70, 71, -78, 36, 25, 28, -110, -24, -46, 9, -4, 63, 0, -4, -33, 65, -57, -32, 42, -152, -183, -27, -41, -45, 51, 54, -36, -5, -143, -60, -96, -51, 23, -130, -90, -42, -143, -12, -55, -44, -112, -47, -75, -32, 45, -20, -6, 37, 53, 68, 62, 36, -64, -38, -170, 109, 10, -79, -17, -25, -67, -69, -15, -15, -90, -85, 40, 81, -81, 12, 22, -111, -91, 108, -32, 45, -21, -2, -64, 8, 42, -49, -27, -50, -16, -14, -98, -91, 18, 90, 3, -82, -18, 18, 62, -10, -3, 12, 83, 59, -22, 11, -39, 0, -29, 94, -46, 34, 110, 27, 73, 5, -67, -132, 7, -2, 14, 16, -55, -83, 19, -103, 20, -72, -1, -8, 19, 7, -55, -131, -46, -4, -61, -45, -47, -92, 6, 35, -60, -2, -41, -68, -12, 57}
, {14, 49, -4, 48, -3, -38, -35, 17, 80, -113, 21, 61, 5, -11, -79, -28, -45, 16, 28, -18, -46, -110, 8, 30, 11, -19, 26, 20, 69, -15, -5, 26, 56, -60, -41, 73, -101, 25, -15, 20, -71, -31, 21, 39, -7, -6, 81, 43, 14, -39, -92, -68, 12, 28, -45, -3, -2, 97, 40, -129, -38, -66, 64, -81, -25, 43, -33, 0, -51, -9, -1, -21, -27, 124, -3, 67, -110, 35, -38, 16, 28, -28, -76, 18, -20, -12, -24, -83, 54, 85, -57, -31, -60, -30, 1, -5, -41, 11, 16, 32, 62, 20, 73, 1, 79, -5, 3, -51, -60, -17, 77, -16, 64, 5, -34, -16, 37, -42, -76, 37, 62, -21, 1, -18, 39, -27, -46, -22, -70, 61, 130, -20, 27, -33, 69, 34, 26, -41, -4, 75, -21, 22, -9, -13, -69, 84, 16, 78, 12, 28, 19, 68, -52, 67, -7, -64, 15, 4, 30, -10, -2, -16, -40, 58, 31, 48, -22, -144, -19, -109, 40, 40, 7, -30, 110, 63, -14, 54, -14, 25, 96, -78, 44, -29, -27, 128, -20, 7, 40, -80, 130, -51, 5, -62, -35, 81, 50, -36, -88, -25, 121, 9, 65, 15, -67, -47, 27, -13, 26, 86, -58, 34, 30, 3, 31, 35, -33, 77, -14, 67, 44, 20, 3, 32, -60, 138, 78, -32, 10, -14, -28, -11, 84, 87, 69, 102, -69, 38, 57, -13, 74, 27, 36, -30, 100, 19, -48, -84, 27, 25, 66, 3, -45, 32, 34, 46, -9, -165, 5, -79, -11, -83, 43, -188, -18, 75, 27, -102, -5, 22, 28, -17, 31, 34, 5, 58, -24, -118, -11, -100, 24, -108, 50, -70, 74, 30, -76, -57, -148, -30, -2, -8, -6, 43, 41, -26, 49, -9, -15, -18, 91, 58, 28, 111, 36, -32, -37, -59, 63, 5, -30, -23, 12, 4, -57, 26, 1, 34, 23, 51, 44, -15, -13, 45, -150, -53, -5, 10, -87, 0, 14, -70, 16, -28, 14, -15, -77, -56, -22, -128, -33, -80, 102, 7, -63, -31, 60, -156, 19, 3, -34, -26, -22, -5, -18, 48, -125, -106, -82, 5, -68, -3, -65, 19, 14, -24, -137, -98, -27, -86, 13, -18, -74, 19, 13, 6, 25, 39, 27, -174, 21, -18, 23, -16, 43, 118, -70, -20, 12, 61, -18, 117, -23, -7, 31, 124, 117, -10, 62, -106, -48, 124, -53, 26, 105, 30, 0, 15, 41, -22, 90, 25, 4, 76, -69, 65, -97, -21, 93, -15, -14, -18, -57, -58, 12, 11, -17, 3, -58, 99, -80, -54, 34, 1, -33, -128, -6, 82, -66, -28, 141, 33, -49, 69, -69, 70, -170, 46, -52, 42, 1, -90, 41, 77, 39, 89, 1, -61, 12, 116, -16, -26, -76, -52, -52, -53, -68, 3, 19, -49, 7, -18, 51, -6, 6, 88, -51, -7, -109, -3, 24, 27, -56, -54, 57, -68, 2, 75, 36, -46, 31, 3, 15, -20, -62, 11, -4, 47, -86, -44, -64, 14, -55, 57, 25, -73, 24, -3, 48, 64, -88, 118}
, {60, -103, 151, -21, 75, -24, -8, 16, -40, -121, 6, -103, -45, -18, 51, -30, -178, -40, -1, -48, 27, 103, 35, -77, 7, -34, 9, -22, -73, -26, 80, 103, 39, 2, -139, 63, 32, 129, 71, -1, -164, -82, 15, -205, -12, -93, 98, 13, 1, 41, -104, 0, -6, -114, -30, 69, -80, -13, -73, -48, -81, 15, -18, -176, 56, -98, -44, -34, -8, 16, -69, -92, -1, 52, 23, -99, -25, -77, -29, -21, -50, -47, 25, -114, -31, -127, 52, 62, -58, 13, 3, 1, 60, -39, -58, -128, 50, 64, -50, 89, -47, 11, -13, 20, 44, 28, 36, 20, -30, 34, -166, -78, 78, -47, 91, -35, -17, -10, 43, -7, 41, 28, -55, 49, 62, -17, -94, -70, -34, 89, 134, 40, 56, -56, 17, 21, 16, -29, 18, 142, -9, -45, 39, 16, 89, 47, -29, -6, -22, -8, 53, 44, 44, 46, 46, 74, -45, -33, 84, -110, 91, 20, -35, -23, -55, -15, -28, 72, 6, 97, -4, 45, -30, -15, 47, -22, -80, -9, 17, 17, -171, 54, 17, 25, -25, 3, 9, -20, -52, 41, -123, 28, -80, 60, -47, -58, -50, -1, -28, 32, -52, -75, 96, 62, -8, -25, 64, 3, 8, 83, -1, 9, 35, 21, -64, -35, 31, 67, 19, 61, 0, 43, -61, -9, -50, -4, 14, -76, 23, 124, 73, -112, 96, -98, 34, -14, -19, -46, 15, 35, -53, -110, 1, -22, -25, -115, 22, 21, 60, -41, 19, 107, -33, 94, -7, 55, -20, 1, -31, -37, -32, 26, 7, -32, 35, -43, -37, -12, 26, -90, 43, -6, 26, 5, -14, 8, -8, -107, -52, -13, 87, -49, 54, -48, -66, -10, -73, -10, -41, 46, -33, -39, -39, -50, 62, -59, -103, 77, -25, 28, 17, -19, -26, -38, 70, -25, -29, -7, 15, 31, -18, -1, 30, -8, 75, -15, -82, -13, 46, 6, 32, -25, 56, 44, -16, -9, -37, 3, -79, -71, -48, -7, 35, 57, -77, -49, 40, -19, 32, 11, -32, 42, -58, -18, 10, -129, 2, -81, -94, -50, -38, 59, 24, -42, -33, -101, 3, -53, 32, 53, -40, -99, -8, -2, 43, -29, -59, -65, 32, 22, -11, 1, -67, 9, 35, 73, -48, 13, -49, -37, 47, -12, -17, -33, 36, -1, -37, 152, -85, -29, 14, -13, -8, 43, -15, 19, 4, -34, -7, -15, 29, 78, -50, -29, -6, 78, 35, 34, -15, -110, -81, 52, 20, -37, -14, -94, 52, 33, -20, -18, -86, -27, 57, 33, 110, 12, -7, -79, -48, -68, -63, -18, -33, -21, 1, -20, -89, -70, -12, -12, -12, 61, -103, 69, 112, 109, -76, 48, -37, 11, 34, -14, -54, -99, 62, 25, 43, -18, 78, -37, 28, -2, -81, 8, 38, 0, 14, 102, -24, 56, -18, 8, 11, 40, 9, 81, -3, -26, -1, -25, 93, 11, 55, -40, -20, 37, -52, 69, -10, -94, -34, -74, 33, 86, 99, 89, -3, 50, 39, 46, 67, -58, 22, -156, 11, 0, 62, -46, -53, -23, 19, -52}
, {-68, 43, -121, -86, 72, -26, 12, -18, 24, 15, 13, -47, -16, -20, -134, -48, 25, -37, 12, -25, 5, -94, -68, 124, 32, 33, 14, 61, 34, 18, 7, -45, -69, 13, 5, 16, -62, -64, -119, -34, -3, -33, 157, -27, -121, -50, 10, -29, -19, 43, -23, 29, -129, 67, -41, 0, -58, 5, -7, -120, -125, -90, -83, 28, -123, 39, -56, -97, 2, -54, -32, 16, -86, 182, 14, 76, 54, 2, 36, -3, 62, 56, 27, 4, -6, 46, -54, -83, -2, 60, -119, -15, -51, -10, 30, 38, 31, -42, 103, -40, -21, 87, -4, -103, 57, -63, -33, 29, 18, -115, -34, -102, 14, -50, -131, -14, -24, -111, -125, 2, 16, 33, -101, 4, -86, 10, -2, -43, -43, -67, 82, -30, -72, 53, -57, 32, -84, 58, -33, 94, -77, -75, -100, 35, 22, -22, -21, -58, -47, -71, -36, 78, -47, -75, 11, -97, 96, 93, -53, -1, -27, 16, 51, -29, -77, -27, -125, -112, 26, 23, 71, -88, 32, -1, 178, 63, -23, 17, 14, -5, -2, -42, 48, -26, -11, 34, -63, 43, 40, -60, 10, 8, 61, -74, 42, 44, -43, -20, -7, -117, 66, 33, -192, 63, 9, 49, 19, 1, -9, 59, -27, 28, 11, 10, 69, -26, -8, 27, -67, -70, 55, 1, 29, 6, 76, 41, -36, 60, -36, -43, -109, 9, 21, 12, -3, -94, 55, 10, 23, 61, 5, 34, -163, 25, -32, 104, -61, -42, -162, 64, -32, -57, -1, 46, -101, -35, 35, 14, 94, -7, -14, 40, -99, 59, -86, -34, 43, -11, -69, -47, 72, -26, 43, -26, -39, -74, -87, 61, -70, 15, -29, -68, -19, 13, -83, 75, 4, 67, 19, -20, -85, -65, -94, -45, 20, 97, 68, -36, -76, -67, -17, 32, 13, -56, 79, -11, -66, 15, -27, -24, -57, 33, 28, -34, 16, -37, -6, -18, -65, -30, 1, 53, -86, -5, -73, -27, 78, -20, 1, -140, -46, -28, 107, 69, 46, -15, -104, -15, -48, 51, 54, -52, -12, -113, 14, 41, -6, -42, -15, -2, -30, -109, -23, -142, -24, -42, 98, -62, -22, 4, 21, 13, -45, 6, 18, -119, 10, 45, -70, -58, 30, -6, -44, -97, -40, -59, -19, -96, -72, 17, -33, 13, -156, 32, 56, 79, 29, 110, -6, 91, -101, 116, -48, 12, -54, -33, -74, -7, 12, 3, 16, -6, -36, -101, -79, -17, 38, 58, -31, 35, -80, 118, 82, 45, 34, -25, 105, 25, -4, -113, 97, -16, -38, -101, 44, 64, -129, -59, -4, 10, 6, 30, 8, 57, 9, -36, -8, -3, 0, -113, -28, -35, -17, -54, 14, 8, -66, 34, -7, 39, 14, -29, 74, -107, -15, -10, 0, 18, 19, -71, 19, 42, 28, 112, 73, -88, -81, 53, 97, 51, 39, -28, -21, 19, -131, -48, 73, 35, 60, -35, 42, 20, -112, -21, 9, 66, 116, 29, -29, 10, -33, 47, 23, -55, 2, 43, -117, 62, -26, 42, 0, 68, 28, -123, 23, -42, -7, -55, 75, -45, -135, 48}
, {24, -69, 149, 33, -47, 5, -5, -42, -64, -17, -12, -31, -26, -18, 47, 35, -101, -113, -24, -65, 73, -9, 37, -76, -25, -34, 16, -109, -36, 13, -34, 8, -12, 2, -69, -11, 24, 123, -31, 40, -55, 54, -12, -98, -4, -28, -62, 12, 29, -9, -48, 8, 0, -21, -21, 3, 12, -29, -31, 41, 56, 31, 33, -16, 26, 16, -17, 8, -34, -4, 60, -42, 98, -110, 122, -144, -30, -47, 37, -84, -89, 54, 28, -114, 13, -37, 52, 61, -82, 30, 20, 139, 1, -92, 35, -50, 36, 34, -2, -2, -100, -57, -31, 37, -110, -38, 0, -12, 25, 75, -44, -30, 22, -26, 33, -25, -28, 36, -14, 49, -54, -36, 62, -44, 70, 21, -3, -16, -14, 100, -77, 40, 57, 13, 33, -43, 15, 26, 12, 30, 4, 13, 127, -13, 48, 27, -48, 49, 84, 31, 52, -12, 60, -90, 50, -25, -64, 89, 18, 84, 27, 49, -3, 16, -83, 8, 41, 37, -69, 56, -27, 1, -48, 3, -127, -136, -6, 2, -56, -94, -26, -20, -70, 45, -24, 4, -6, -40, -87, 5, -32, 37, -92, 21, -36, 32, 7, 46, 54, 30, -115, -101, 84, 25, -57, 11, 7, -35, 11, 14, -15, -76, 29, 39, 38, -83, -11, 10, 77, -12, 19, -52, -166, -87, -21, -16, -29, -19, 65, 12, 7, -73, -15, 63, 56, 49, 36, -18, -21, 44, 40, -44, -40, 81, -20, -81, 5, -11, 65, -81, -4, 38, -4, 81, -4, -18, 31, 11, -127, 12, 20, 79, -23, -52, 66, -60, -22, -88, -16, -9, -20, -14, -84, -71, 100, -56, 9, -20, 45, 21, 24, -67, 6, -17, -33, -2, 1, -15, 31, 50, 22, -50, -83, -112, 9, -12, -22, 62, -20, -5, 35, -45, -164, 88, 1, 93, -9, 106, -36, -106, -27, 104, -34, -29, -59, -1, 77, 37, 41, -5, 9, 5, 45, 25, 60, -6, 3, -53, -42, -17, -46, -144, 79, -49, -54, 2, 128, -33, 69, -88, 48, 20, 31, -55, -49, -40, -7, -64, -49, -60, -2, 66, 47, 3, -14, 7, -110, 11, -27, 98, -77, -11, -11, 22, -81, -1, -34, 83, 27, -26, 30, 33, 55, 15, 61, 33, -11, 24, -6, -22, -69, -60, 59, -35, -81, -110, -10, 53, -71, -52, -66, -105, 58, 5, 48, -198, -60, -22, 4, 69, 13, -38, -86, -132, 12, 26, -121, -9, -89, 7, -40, 80, 128, -15, -23, -114, 51, 87, -80, -50, -45, -160, -166, 23, -23, 91, -50, 6, 49, -40, -12, 60, -34, -126, 81, -126, -72, -8, -87, -68, 25, 3, 134, -87, 2, -16, 14, -119, -6, -3, -136, -50, -15, -139, 24, 51, -47, 16, 69, -47, 105, 58, -15, 20, -45, -64, 87, 148, 77, -3, 18, -27, -25, -72, -61, 29, 63, 61, -65, 96, 1, -168, -60, 94, 24, 31, 111, -94, 78, 14, -99, -32, -25, -90, 50, 99, -49, -16, -150, -15, -10, -16, -27, -82, 87, 67, -85, 35, -11, -81, -41, -100}
