/**
  ******************************************************************************
  * @file    weights/fc.cc
  * @author  Pierre-Emmanuel Novac <penovac@unice.fr>, LEAT, CNRS, Université Côte d'Azur, France
  * @version 1.0.0
  * @date    24 march 2020
  * @brief   Template generating plain C code for the implementation of Convolutional Neural Networks on MCU
  */

#include <stdint.h>

#define INPUT_SAMPLES 128
#define FC_UNITS 10


const int16_t dense_5_bias[FC_UNITS] = {31, 41, -101, 25, -38, -45, -79, -20, 145, 13}
;

const int16_t dense_5_kernel[FC_UNITS][INPUT_SAMPLES] = {{71, -78, -42, -159, 124, -121, -74, -194, 68, 90, 32, -165, -75, 99, 76, -76, 81, -42, -109, -83, -213, 60, -117, -65, -188, 41, 88, 61, -74, -13, -64, -186, 76, 1, -78, 24, -149, 37, -100, -222, -126, -225, 125, 53, -141, 106, 132, 92, -169, -242, 52, -102, 71, -119, 87, -84, 68, 95, -63, -155, 50, -58, -272, 76, -100, 105, 83, 51, 40, -112, -210, 78, -61, -158, -116, 117, -179, -205, 108, -87, 76, -230, 62, -150, -27, -212, -99, 44, -173, -27, 121, -20, -174, 70, 158, 86, -19, 109, 101, 70, -96, -71, -116, 130, -129, -163, -211, 61, 49, 47, 79, 39, -99, -111, -18, -171, -123, 31, -112, 82, -73, -119, 125, -39, -141, 94, -2, 39}
, {98, 91, 125, -59, 72, 116, -36, -128, -90, -250, 58, 16, 56, 64, 106, 123, -74, -264, 104, 2, 69, 15, -237, 109, 76, -199, -113, -155, -110, -190, 122, -141, -201, 51, 124, 101, -197, -189, -57, 19, -219, 11, 131, 38, 98, -254, -51, 113, 144, 13, -13, -78, -146, -102, -114, -82, -94, -177, -186, 72, -24, -10, 79, 65, -52, -144, 17, -52, -160, 71, 99, 99, -106, 120, 64, -305, -112, 103, -233, 111, 29, 19, -205, 69, 1, -129, -29, -179, 96, 103, -75, 89, -122, -179, 90, -182, -4, -146, -121, -54, 118, -77, 64, -171, -131, 97, -126, 17, -185, 46, -161, -186, 91, -212, 108, -38, 124, 81, 91, -102, 56, -9, -67, -95, -167, 105, -181, -201}
, {-124, -49, -104, -150, -84, -55, 138, -168, 95, -142, 43, 93, 42, -170, -22, 114, -167, -4, -196, 97, 62, -82, 88, 119, -88, 40, 76, 59, -176, -190, 111, 38, -113, -65, 80, -10, 44, 55, -100, -30, 60, -72, -16, 45, -43, -61, -102, -63, 9, -122, 47, -169, 42, -260, -112, 54, 70, -156, -38, 79, 111, 92, -125, 75, 94, 106, -169, 55, 66, 51, 80, 77, 124, -157, -31, -38, 87, -44, -32, 107, -173, 78, 37, 53, -21, -163, 103, 121, 96, 5, 51, -154, 69, 55, -168, -122, 44, -39, 48, 88, 81, 56, -218, 74, 93, 3, -1, 31, -88, 110, 68, -97, 63, -134, -98, -170, -84, 80, -152, 118, 29, -228, 138, -91, -82, -202, -107, 59}
, {-122, -100, -166, 87, -80, -47, -61, 8, 88, -61, -145, 117, -89, -143, -170, -109, -53, -43, 15, 83, -63, 65, 32, -54, -65, -146, -15, 110, -89, -81, -156, 61, -151, 109, 89, -160, -59, 49, -85, 76, -136, -20, -40, 41, -28, -50, 113, -68, 74, 19, 68, 85, 68, 71, -183, -58, -79, -94, -63, -119, 114, 104, 91, -48, 120, 3, -177, 32, -74, 59, 82, -112, -71, 119, -116, -215, 82, 53, -138, -106, -116, 89, 46, -7, -195, 104, -151, -43, 94, -197, 36, -187, -15, 92, -115, 77, -168, 5, -93, 15, 113, 76, -163, 12, 60, -58, 31, 35, -18, -91, -1, -87, -77, -171, 87, -108, 147, 23, -120, -112, 83, -87, -47, 127, 119, -129, 71, 56}
, {54, 72, 92, 73, -73, -159, -31, 84, 86, 58, 60, 66, 28, -82, -94, -146, 17, 98, 65, 82, -125, -163, -140, -197, 82, 108, -98, 104, -91, -45, 102, -119, -72, -125, -213, 104, 87, -216, -56, -231, 80, 81, 101, -141, 101, -157, -145, -195, -59, 38, -98, 101, 78, -40, 90, -170, 90, -102, 41, -105, -74, -178, 60, -240, -17, -45, -103, -103, 78, -201, 66, 105, 41, 16, 100, 57, -218, -56, 19, 34, -157, -162, -132, 71, 25, 83, 65, -165, -128, 131, -207, 48, -7, -36, -42, -130, -62, 114, -182, -119, -180, -152, -130, 83, -152, 85, -263, -26, 31, -254, -172, 100, 72, 50, -65, 46, 39, -76, 94, 121, 93, -87, 87, -129, 65, 85, 39, -114}
, {-72, -199, -31, 63, -1, 83, -141, 97, -99, -59, -177, 14, -121, 81, -92, -192, -98, -137, -116, -165, 66, 21, 25, -211, 59, -104, 20, -100, 124, 71, -144, -138, 55, 91, -8, -113, -213, 3, 109, 68, -105, 15, -90, -68, -208, 88, 116, 90, 85, 26, 50, 45, 96, 72, -146, 104, 81, 81, 72, -54, -96, -153, -50, 57, -135, 42, 61, -236, -177, -6, -115, -44, -74, 126, 86, -169, 47, -120, 106, 27, 47, 103, 59, -236, -55, 109, 79, 74, -115, -277, -117, -175, -117, 87, -143, 80, 53, -147, 60, -10, 105, -234, -45, 102, -57, 98, 7, 54, -32, -137, 76, -138, -146, 23, 75, 45, -60, 57, 93, -32, -171, 69, -93, -92, 106, -34, 61, -223}
, {32, 30, -86, -267, 132, -31, -34, -125, 105, 76, 39, -159, 39, 119, -99, -38, 120, -159, 75, -216, -89, 76, -210, -137, -110, 7, -133, -93, 147, 86, 92, -142, 94, 55, -2, 44, 2, -245, -19, -7, -79, -194, 103, -153, -181, -10, -72, 14, -145, -312, 52, 126, -50, 104, 86, 93, -74, 77, -32, 62, -107, -133, -242, 31, -46, -103, 76, -153, -61, -112, 12, 79, 82, -128, -193, 33, -113, -105, -202, 25, 37, -158, 62, -123, -146, -104, 119, 49, -194, -110, -172, -67, 60, -130, -39, 103, 60, 67, -105, 104, 2, -135, 4, 119, -268, 83, 28, -38, 191, -132, 54, -44, 60, 84, -94, 54, -95, -50, -140, 120, -229, 76, -10, -132, -215, -120, 67, 10}
, {-17, 110, -27, 68, -181, 123, -125, -79, -30, 62, -98, 105, -146, -152, 93, 34, -276, -152, -96, 102, 78, -261, 30, -30, 78, 59, 56, -75, -184, -176, -42, -170, 115, -141, 26, -154, 86, 38, 81, -113, -57, 87, -160, 52, 94, 13, -113, 135, -50, 16, -151, -112, 97, -119, 84, -133, -193, 92, 70, 49, 89, 104, 68, 79, 116, -156, -155, 45, -135, 60, 92, -129, -162, -108, -144, -43, -133, 111, 118, -140, 16, -127, -187, 73, 9, -67, 67, -179, 101, -89, 28, 81, -158, -121, -101, -202, -209, -33, 113, -137, -17, -128, -49, -136, 79, -159, -119, -132, -23, 120, 56, -77, 26, -52, -96, 8, -31, 86, 20, -20, 59, -252, -40, 119, 23, -47, 76, 65}
, {68, -159, 133, 71, 85, -110, -127, 62, -67, -33, -196, 106, 45, 92, 46, 7, -204, 99, 83, 94, 64, 62, 7, 115, -187, -111, 95, -55, 9, 65, -33, 116, -150, -8, -199, 83, 81, 20, 124, 68, -109, -233, 89, 15, -70, 30, -14, 7, -133, -25, -58, -45, -129, 39, -4, 125, 78, -44, -172, -22, 100, -52, -35, -164, 105, 81, 4, 34, 41, -105, -103, -125, -159, 109, -70, -26, 93, 76, -32, 51, 32, 111, 57, -185, -214, 105, 20, -19, 81, -66, 85, 83, 44, -81, -106, 72, 63, -151, -96, 61, -92, 77, 32, -30, 34, -69, 44, -175, -139, -63, 70, 83, 7, 3, -181, 34, -84, -184, 93, -18, -130, 50, -147, -125, -48, -50, 43, 56}
, {-124, -42, 20, 81, -82, -81, -9, 87, -204, -55, 19, -156, -113, -122, 67, -54, 135, 62, 78, 86, -20, -182, 79, -94, 80, 95, -133, -97, 31, 78, -91, 153, 33, -159, -165, 103, 31, 29, -129, -88, -212, 64, 62, -149, 99, 79, 96, -7, 72, 35, -158, -99, 90, 54, 57, -38, -33, -84, 72, -212, -180, 111, 69, -98, -147, -87, -76, 37, 51, -157, -93, 52, -55, 109, 93, 102, -88, 105, -19, -211, 29, 60, 32, 79, 26, 96, 3, 101, -128, -105, 92, -60, 5, 90, 53, -112, -91, 29, -23, -190, -106, 34, 73, -78, -95, -16, -141, -9, -120, 75, -62, 95, -165, -110, -120, -111, -134, -120, 77, 40, 92, 64, 128, -64, 100, 83, -118, 76}
}
;

#undef INPUT_SAMPLES
#undef FC_UNITS